<?xml version="1.0"?>
<opencv_storage>
<opencv_ml_svm>
  <format>3</format>
  <svmType>C_SVC</svmType>
  <kernel>
    <type>RBF</type>
    <gamma>3.3750000000000002e-02</gamma></kernel>
  <C>1.2500000000000000e+01</C>
  <term_criteria><epsilon>1.1920928955078125e-07</epsilon>
    <iterations>1000</iterations></term_criteria>
  <var_count>756</var_count>
  <class_count>2</class_count>
  <class_labels type_id="opencv-matrix">
    <rows>2</rows>
    <cols>1</cols>
    <dt>i</dt>
    <data>
      0 1</data></class_labels>
  <sv_total>219</sv_total>
  <support_vectors>
    <_>
      2.11183587e-03 1.50209125e-02 2.77425926e-02 6.40832726e-03
      1.41139954e-01 1.32954016e-01 3.62784773e-01 1.37643173e-01
      2.38710595e-03 2.50061229e-02 2.78503541e-02 5.62114548e-03
      6.09647259e-02 3.62784773e-01 2.03553289e-01 3.62177759e-01
      8.59132558e-02 2.84230593e-03 2.21686019e-03 1.89467873e-02
      3.68238874e-02 7.98391295e-04 1.73609890e-02 2.20467485e-02
      3.62784773e-01 3.30295384e-01 1.48213736e-03 4.14333455e-02
      1.42599523e-01 5.64800501e-02 1.48186116e-02 1.27874836e-01
      3.61372046e-02 3.62784773e-01 2.69159973e-01 4.32315376e-03
      9.14185494e-02 6.35671765e-02 5.13088284e-03 9.81486738e-02
      4.45149511e-01 1.63295627e-01 5.91154918e-02 1.30631793e-02
      2.16423050e-02 1.03280202e-01 2.35005543e-02 1.53208105e-03
      2.34199554e-01 4.45149511e-01 1.95063889e-01 1.39852867e-01
      7.53082335e-02 1.85781002e-01 1.64348692e-01 2.95942843e-01
      9.69222039e-02 4.18985002e-02 1.88333556e-01 2.77876016e-02
      9.79349613e-02 4.00097407e-02 3.60705070e-02 1.79016709e-01
      1.01819567e-01 3.20245847e-02 5.83855025e-02 2.05776766e-01
      3.91475819e-02 4.90789339e-02 1.40734076e-01 3.08379769e-01
      8.96074399e-02 5.59901167e-03 4.05507302e-03 1.55044481e-01
      4.08109486e-01 7.82510936e-02 8.62986371e-02 6.77252039e-02
      2.18177885e-01 2.35485747e-01 5.25930896e-02 5.49225323e-02
      9.04863626e-02 4.08109486e-01 8.45778808e-02 2.31001023e-02
      2.32340693e-02 1.85992628e-01 7.45219439e-02 1.39449518e-02
      2.20847572e-03 2.85678487e-02 2.14335755e-01 4.25769836e-02
      5.04303984e-02 1.64091364e-01 2.90221334e-01 2.40762129e-01
      1.72846362e-01 1.74336005e-02 1.23674115e-02 3.71203840e-01
      6.56512827e-02 4.97705415e-02 7.44008496e-02 2.15090692e-01
      1.78630829e-01 2.66504437e-02 3.26801464e-02 1.05145894e-01
      3.85289609e-01 6.64189234e-02 3.77492160e-02 1.88630056e-02
      1.13459602e-01 2.23370448e-01 4.28828644e-03 6.03613956e-03
      1.07153282e-01 3.85289609e-01 4.63640355e-02 4.60726097e-02
      2.55794916e-02 3.12800169e-01 3.19889098e-01 1.22933894e-01
      1.52214989e-02 3.71911153e-02 2.49749020e-01 2.09141839e-02
      8.41266010e-03 7.23752240e-03 1.11271620e-01 2.84843296e-01
      2.49468163e-02 1.46680670e-02 6.35788366e-02 3.03214014e-01
      1.64776128e-02 6.22632802e-02 6.49527088e-02 3.00915956e-01
      1.72340825e-01 3.04503064e-03 3.16081988e-03 3.44777666e-02
      3.87519807e-01 8.03342685e-02 1.37852207e-02 8.01297184e-03
      2.60982603e-01 3.12300026e-01 2.40458790e-02 3.10702436e-03
      6.30278978e-03 3.87519807e-01 1.03182368e-01 5.86074870e-03
      1.78016827e-03 2.50064075e-01 9.50731188e-02 3.37349623e-02
      2.13231537e-02 2.46235002e-02 2.46602148e-01 4.79141474e-02
      1.28073767e-01 7.10538626e-02 2.34964445e-01 2.83224255e-01
      2.12422892e-01 9.02424306e-02 1.09905293e-02 3.28558236e-01
      5.02410382e-02 6.58522993e-02 1.81829501e-02 1.37584180e-01
      2.62139022e-01 1.41990175e-02 1.70682790e-03 1.43909492e-02
      3.55754405e-01 3.42194289e-02 7.37140595e-04 9.69211850e-03
      1.82641298e-01 1.80227041e-01 8.60384572e-03 8.56455639e-02
      1.90044984e-01 3.55754405e-01 2.44226940e-02 2.45991419e-03
      6.39095753e-02 3.22058707e-01 2.82682836e-01 1.02952965e-01
      3.51854004e-02 9.42740310e-03 2.10420758e-01 1.90701447e-02
      1.01677282e-02 5.88094555e-02 1.15493678e-01 1.03315599e-01
      3.53259183e-02 2.21076459e-01 1.05491556e-01 2.06909597e-01
      1.40921259e-02 4.25651744e-02 3.55754405e-01 2.41803885e-01
      2.95485836e-02 1.79574247e-02 1.81010827e-01 1.53379217e-01
      2.37287343e-01 2.71214228e-02 8.46848544e-03 1.75946921e-01
      1.91504642e-01 1.61323398e-02 2.72313599e-02 2.04312980e-01
      5.89725971e-02 8.34697932e-02 9.10861492e-02 7.46968314e-02
      3.10531586e-01 2.50191569e-01 5.41775301e-03 9.33138654e-02
      3.10531586e-01 8.65707397e-02 5.92329800e-02 1.37347290e-02
      3.79772969e-02 2.29891270e-01 1.05324507e-01 1.65320409e-03
      1.11019991e-01 3.10531586e-01 2.97960080e-02 4.32310328e-02
      7.76316375e-02 3.10531586e-01 3.10531586e-01 3.10531586e-01
      5.86286245e-04 1.96169950e-02 3.45731415e-02 0. 9.13109572e-04 0.
      4.00135100e-01 2.56551445e-01 4.36987233e-04 6.14646263e-03
      1.19379647e-01 1.11643925e-01 2.86371005e-03 3.28822585e-04 0.
      4.00135100e-01 2.11836651e-01 6.35563629e-04 3.88562120e-03
      2.39735767e-02 4.62646782e-02 4.46117437e-03 2.86514545e-03
      2.58804474e-04 4.00135100e-01 3.18591416e-01 2.72942567e-03
      3.16805728e-02 6.37525171e-02 1.64251626e-01 6.31092116e-02
      3.17898206e-02 7.94472639e-04 4.00135100e-01 2.72716731e-01
      2.91790105e-02 4.69101965e-02 3.24261725e-01 2.77361393e-01
      4.70780358e-02 3.44666578e-02 1.07259378e-02 1.31383583e-01
      4.77534235e-02 8.84159841e-03 5.49223311e-02 1.16854824e-01
      8.92995298e-02 5.93171529e-02 7.91987851e-02 9.87405404e-02
      4.16187532e-02 1.40456200e-01 9.76337269e-02 8.64021406e-02
      1.33323893e-01 3.36897820e-01 1.88056245e-01 3.26735765e-01
      5.01398891e-02 1.71693116e-01 5.75783625e-02 1.16355799e-01
      2.08494559e-01 5.36853112e-02 7.71234483e-02 1.07971743e-01
      3.88053417e-01 3.88053417e-01 2.59646233e-02 2.01719776e-02
      1.32705256e-01 2.02169847e-02 4.35202084e-02 1.98514797e-02
      1.07515352e-02 3.32887024e-02 1.25314131e-01 1.21625856e-01
      2.27244362e-01 1.18143961e-01 9.11838487e-02 3.39276284e-01
      1.08175516e-01 5.73249385e-02 1.26735102e-02 7.47502670e-02
      1.22306146e-01 1.35121062e-01 9.31721553e-02 1.80334687e-01
      2.48892885e-02 2.53016260e-02 5.89552931e-02 3.57789457e-01
      3.55151415e-01 7.40656480e-02 6.86430484e-02 1.50072038e-01
      2.19308376e-01 1.29422516e-01 1.13843560e-01 3.11879039e-01
      3.57789457e-01 8.70116875e-02 6.07224926e-02 6.91567361e-02
      2.59042621e-01 1.49438411e-01 2.33046681e-01 9.02675167e-02
      7.93911740e-02 1.52831767e-02 1.62869636e-02 3.04113757e-02
      9.34825093e-03 5.65247796e-02 1.17899172e-01 3.21223475e-02
      7.28439391e-02 4.80763167e-02 5.46681806e-02 1.18431650e-01
      1.98419303e-01 1.17303565e-01 1.52749330e-01 2.22456560e-01
      6.83030710e-02 8.03913102e-02 3.04005384e-01 3.21272820e-01
      1.19206212e-01 2.20190007e-02 7.09020393e-03 1.74504936e-01
      3.75633299e-01 6.86600059e-03 5.06727844e-02 8.98009837e-02
      3.75633299e-01 3.75633299e-01 1.50362492e-01 4.87590916e-02
      1.54939145e-01 3.70900333e-02 7.92224705e-02 6.82212338e-02
      1.30460430e-02 3.45134474e-02 1.03225648e-01 2.92967051e-01
      1.62376061e-01 9.35739428e-02 1.12494908e-01 3.06748331e-01
      3.23784620e-01 9.46719274e-02 3.37955132e-02 2.65182611e-02
      1.26396835e-01 6.93213567e-02 4.08015400e-02 2.56297767e-01
      4.56002355e-02 4.47296388e-02 4.02914658e-02 2.01726556e-01
      2.59207189e-01 1.44747302e-01 1.01357587e-01 1.76717758e-01
      2.50690281e-01 9.79217216e-02 2.63074577e-01 2.92199016e-01
      2.39590332e-01 4.51115444e-02 4.36632037e-02 5.74705005e-02
      2.69966722e-01 9.37756523e-02 1.21720284e-01 1.25985205e-01
      8.00512061e-02 2.09226552e-02 3.12068928e-02 2.02731285e-02
      6.56203926e-02 3.42281908e-02 3.71634029e-02 1.07097566e-01
      2.54691899e-01 1.66212656e-02 2.13874932e-02 1.56536087e-01
      1.76306650e-01 3.69901359e-01 6.28443807e-02 1.49274707e-01
      3.40572856e-02 1.24862753e-01 2.73862898e-01 1.87002450e-01
      1.50298148e-01 3.83847170e-02 1.85634010e-02 1.55494422e-01
      2.18837112e-01 2.32566059e-01 2.83028007e-01 8.63585621e-02
      1.74861997e-01 3.69901359e-01 2.52888441e-01 1.10993877e-01
      1.93627611e-01 1.24844501e-03 1.26709148e-01 2.79141396e-01 0.
      1.29758557e-02 7.10064769e-02 8.23251307e-02 1.30279586e-01
      1.59830712e-02 6.36683952e-04 1.26647636e-01 2.79141396e-01
      1.06058894e-02 8.56386572e-02 2.79141396e-01 2.70642608e-01
      2.44069114e-01 6.26126453e-02 5.53443767e-02 2.46714145e-01
      2.79141396e-01 0. 3.27087156e-02 1.50019974e-01 1.13987185e-01
      8.02518576e-02 5.37371337e-02 1.71911251e-02 2.15979695e-01
      2.64327705e-01 1.76764801e-02 1.11845061e-01 2.79141396e-01
      1.57196328e-01 2.79141396e-01 2.44994149e-01 3.05096116e-02
      3.01200449e-02 2.29881182e-02 4.13844548e-03 1.49676986e-02
      1.19268950e-02 3.23396325e-01 3.09470028e-01 1.06776543e-01
      2.89777786e-01 9.79408715e-03 4.27970476e-02 5.47040291e-02
      2.83648279e-02 2.40654382e-03 3.23396325e-01 2.93270677e-01
      3.23396325e-01 9.11288261e-02 7.18587041e-02 7.57308602e-02
      1.66224595e-02 5.78869358e-02 1.91820394e-02 1.42243996e-01
      2.26866379e-01 2.10669145e-01 3.23396325e-01 6.72065886e-03
      2.70200474e-03 2.52765082e-02 6.32572398e-02 3.91046749e-03
      7.06402734e-02 1.98067710e-01 3.23396325e-01 2.89266109e-01
      4.85760812e-03 2.54241452e-02 3.86087038e-02 8.94073397e-02
      1.27944676e-02 2.19629817e-02 2.28577089e-02 3.02789181e-01
      3.28826785e-01 1.16082642e-03 3.74497357e-03 1.07644051e-02
      1.57236084e-01 7.89139718e-02 1.53743224e-02 1.37129389e-02
      3.05144608e-01 3.28826785e-01 1.56398257e-03 9.65651684e-03
      1.39950020e-02 5.00359796e-02 2.65686517e-03 1.26680313e-02
      2.59645022e-02 3.28826785e-01 3.28826785e-01 2.30712350e-03
      1.44017795e-02 1.12470556e-02 3.58122140e-02 5.89685924e-02
      3.28826785e-01 1.67085946e-01 3.28826785e-01 2.84926981e-01
      3.68349254e-04 1.18407945e-03 1.63275246e-02 1.16168655e-01
      7.17309043e-02 1.79701671e-02 1.03421276e-02 2.02593863e-01
      2.84926981e-01 1.66328961e-03 2.24507730e-02 8.20254087e-02
      1.45765051e-01 2.36082133e-02 5.33520803e-03 4.59771091e-03
      2.76652634e-01 2.84926981e-01 2.00174935e-03 2.60830484e-02
      3.42093855e-02 1.46145523e-01 1.82069972e-01 2.84926981e-01
      1.28789976e-01 2.46708602e-01 2.84926981e-01 3.73000614e-02
      2.84926981e-01 2.26043120e-01 2.41416514e-01 1.28726050e-01
      1.56135753e-01 4.63746004e-02 2.37404749e-01 2.82776296e-01
      6.52224349e-04 2.18409393e-02 6.23975135e-02 1.05101243e-01
      4.50072438e-02 1.31712407e-02 7.92502612e-03 2.35012248e-01
      2.82776296e-01 1.00274011e-03 4.16286523e-03 1.75871961e-02
      1.29217505e-01 1.20545134e-01 3.20223607e-02 1.75213963e-02
      1.90762520e-01 2.82776296e-01 3.21372375e-02 2.82776296e-01
      9.16142017e-02 7.72378445e-02 1.37354702e-01 2.64393151e-01
      9.25621837e-02 2.43944958e-01 2.81888634e-01 8.14440381e-03
      5.87703064e-02 1.23575246e-02 2.82776296e-01 2.82776296e-01
      2.82776296e-01 7.96825662e-02 1.83102727e-01 3.36653501e-01
      5.68119530e-03 5.97003894e-03 9.64646135e-03 1.47713825e-01
      6.26709387e-02 1.71564240e-02 1.46547947e-02 2.56273985e-01
      3.22524071e-01 5.59057575e-03 3.53696123e-02 5.70884719e-02
      1.96036503e-01 2.10279394e-02 8.67788401e-03 8.70255195e-03
      3.87480050e-01 1.98171124e-01 5.89391449e-03 2.70002577e-02
      1.62579175e-02 3.87480050e-01 1.08658738e-01 6.35940060e-02
      1.41146481e-02 1.60719991e-01 2.04007998e-01 9.72485356e-03
      1.80666521e-02 3.56146321e-02 3.87480050e-01 5.18971309e-02
      1.57931186e-02 1.03979344e-02 2.53279626e-01 2.28265315e-01
      1.07263390e-03 2.37004869e-02 6.81709871e-02 1.42295852e-01
      5.22932112e-02 2.19678022e-02 4.88654384e-03 2.51988888e-01
      3.37324142e-01 1.08951472e-01 7.08623379e-02 9.29327160e-02
      1.33117050e-01 1.46933138e-01 6.25669360e-02 5.58770960e-03
      3.30032051e-01 1.52331129e-01 1.06167262e-02 2.10460275e-02
      6.64774477e-02 3.37324142e-01 6.05501607e-02 1.73065104e-02
      1.78061426e-02 1.65092006e-01 3.04286718e-01 4.23112735e-02
      1.61730424e-02 3.37324142e-01 3.37324142e-01 1.00915655e-01
      3.51395383e-02 3.82794887e-02 2.28533134e-01 2.24565238e-01
      2.34447598e-01 1.58643976e-01 3.82114574e-02 8.30861628e-02
      5.97666390e-02 3.21608037e-02 2.63766162e-02 1.43884033e-01
      7.43836761e-02 1.75047070e-01 1.34049505e-01 1.35039063e-02
      1.36069268e-01 1.11885034e-01 1.46236643e-01 2.81048328e-01
      3.16843837e-01 1.97786987e-01 8.70108157e-02 3.01577654e-02
      2.59023666e-01 3.16843837e-01 1.33804008e-01 1.23190591e-02
      1.08222030e-02 9.91474316e-02 7.94850513e-02 6.13546856e-02
      4.20645922e-02 1.95864886e-01 3.16843837e-01 3.16843837e-01
      1.61707595e-01 9.71647874e-02 1.26922429e-01</_>
    <_>
      7.54520074e-02 8.61986205e-02 4.00175899e-02 6.59268796e-02
      1.20209269e-01 2.84756035e-01 1.28897101e-01 1.83126740e-02
      1.59897506e-02 1.33494347e-01 8.33219364e-02 7.00322241e-02
      9.78413895e-02 2.47447848e-01 2.84756035e-01 1.31393597e-01
      4.10248265e-02 5.18486053e-02 2.38934100e-01 2.84756035e-01
      1.86842784e-01 4.86821532e-02 1.52639955e-01 2.84756035e-01
      1.73087507e-01 1.65800173e-02 4.25192341e-02 2.84756035e-01
      2.84756035e-01 9.49589536e-02 2.33550854e-02 3.79796736e-02
      2.76524663e-01 2.84756035e-01 8.13271105e-02 1.13680571e-01
      7.77817965e-02 4.92361635e-02 1.00158036e-01 2.27930993e-01
      1.95195153e-01 2.78928876e-01 5.50523922e-02 6.24341182e-02
      6.96111396e-02 9.69146937e-02 3.05598259e-01 1.92459926e-01
      3.12302053e-01 1.87504932e-01 1.15611047e-01 2.48422548e-02
      4.48936187e-02 5.33251688e-02 2.82114953e-01 2.12696165e-01
      6.82979003e-02 4.85033914e-02 1.10163465e-02 1.03546098e-01
      1.68241158e-01 1.19377591e-01 1.05448574e-01 3.12302053e-01
      3.12302053e-01 2.36074835e-01 1.33657500e-01 3.66258360e-02
      8.12442303e-02 1.53391138e-01 5.65064475e-02 8.77419189e-02
      3.85815948e-02 1.54518217e-01 8.90275314e-02 4.03448381e-02
      4.06124182e-02 8.55882540e-02 7.73424804e-02 1.60220861e-02
      1.66349094e-02 1.42658532e-01 2.75431365e-01 2.21751872e-02
      1.07421867e-04 1.15149580e-01 3.21706921e-01 1.54190168e-01
      2.13097539e-02 5.03322966e-02 8.72948915e-02 2.61152506e-01
      1.32498562e-01 7.45406374e-02 2.76300553e-02 2.32047632e-01
      2.72931516e-01 4.53401506e-02 8.83419160e-03 3.38773936e-01
      3.38773936e-01 9.63683650e-02 8.08625147e-02 1.42964259e-01
      3.38773936e-01 3.07319880e-01 2.83429828e-02 0. 1.70855075e-01
      2.93748230e-01 2.25727446e-03 7.23237265e-03 8.98815244e-02
      1.46261036e-01 4.51316163e-02 4.63915654e-02 1.05992712e-01
      1.31040365e-01 1.39233112e-01 1.97659619e-02 6.41162470e-02
      9.98898447e-02 6.20790496e-02 7.28185773e-02 2.93748230e-01
      2.91047126e-01 2.66284555e-01 2.93748230e-01 3.16828638e-02
      6.28299117e-02 1.72324121e-01 2.47216329e-01 1.37343213e-01
      3.41526940e-02 7.93841779e-02 1.00072980e-01 1.57472014e-01
      8.14952925e-02 2.04735890e-01 2.33635440e-01 8.39807987e-02
      9.25690532e-02 2.93748230e-01 2.93748230e-01 7.03708008e-02
      6.17342023e-03 8.02584216e-02 1.00780666e-01 1.17055364e-01
      7.99932256e-02 1.03540935e-01 2.83981174e-01 1.73619509e-01
      3.18870433e-02 7.33519047e-02 3.18704009e-01 6.73993677e-02
      1.12040438e-01 1.50542110e-01 9.48071629e-02 1.01604663e-01
      4.17584181e-02 9.57693234e-02 2.79004443e-02 1.07004926e-01
      1.06763646e-01 7.63722509e-02 3.67660560e-02 2.09813491e-01
      3.18704009e-01 3.18704009e-01 5.21180294e-02 2.00715974e-01
      3.18704009e-01 4.41919491e-02 1.37232523e-02 1.68677926e-01
      3.07928205e-01 3.18704009e-01 7.82458559e-02 1.11562293e-02
      9.73941162e-02 3.17025214e-01 1.69030465e-02 5.51056750e-02
      3.17025214e-01 1.27624124e-01 2.89877560e-02 1.15385018e-02
      8.97047073e-02 1.32301196e-01 6.45722076e-02 1.57410987e-02
      1.42114580e-01 3.17025214e-01 1.88379243e-01 1.91426277e-02
      2.02008504e-02 8.48028064e-02 2.65144974e-01 2.77241588e-01
      1.79906506e-02 1.56212775e-02 3.17025214e-01 1.70560360e-01
      1.59558386e-01 4.25657891e-02 1.84156790e-01 3.17025214e-01
      7.38223866e-02 5.72257501e-04 2.51492560e-02 3.17025214e-01
      1.43078089e-01 7.09488317e-02 1.99004617e-02 1.37248278e-01
      1.33468792e-01 1.02211893e-01 8.25912729e-02 1.87443540e-01
      3.39942992e-01 8.42596292e-02 2.26791892e-02 8.49911943e-02
      1.36724934e-01 3.02876204e-01 1.51991248e-01 3.39942992e-01
      1.78877294e-01 7.70629793e-02 2.02666186e-02 2.38271728e-02
      1.29772499e-01 1.43711388e-01 2.92508423e-01 1.48148701e-01
      3.06079052e-02 1.13247046e-02 7.27353171e-02 5.69316484e-02
      5.97205795e-02 7.04309791e-02 3.31237018e-01 3.39942992e-01
      2.79569715e-01 6.79402798e-02 4.96440567e-02 4.36726771e-02
      2.51739714e-02 3.61920223e-02 1.07929990e-01 7.85413757e-02
      3.10738295e-01 3.10738295e-01 1.17564825e-02 5.82925826e-02
      2.13428468e-01 1.42447039e-01 8.80594179e-02 2.86157504e-02
      9.77976620e-02 2.20903143e-01 2.08003864e-01 2.73002312e-02
      6.28608372e-03 1.92056865e-01 2.28523552e-01 1.20233610e-01
      5.12701124e-02 5.69802569e-03 2.59592146e-01 3.10738295e-01
      8.78965855e-02 1.25752941e-01 1.31634519e-01 2.06178039e-01
      1.26375049e-01 4.60027494e-02 5.60376570e-02 1.47718877e-01
      3.10738295e-01 9.61011872e-02 8.79783183e-02 1.98714525e-01
      2.14140505e-01 1.43938854e-01 3.24248262e-02 1.88551351e-01
      2.87108868e-01 1.30262941e-01 4.00872044e-02 0. 8.25417340e-02
      1.36124000e-01 7.50291124e-02 4.07097526e-02 3.00481081e-01
      3.00481081e-01 1.32609755e-01 4.33238633e-02 1.60020199e-02
      1.42811432e-01 2.66023964e-01 5.07587157e-02 5.93600497e-02
      1.00683644e-01 2.74442345e-01 3.00481081e-01 6.82542175e-02
      1.24287466e-02 1.32581413e-01 1.51849180e-01 8.00685063e-02
      1.16141187e-02 9.77093875e-02 3.00481081e-01 2.25244746e-01
      8.61396566e-02 7.67089287e-03 2.22269922e-01 3.00481081e-01
      6.83906004e-02 9.46427509e-03 7.60897622e-02 1.59412906e-01
      6.79310560e-02 6.87257349e-02 2.07100697e-02 8.31795558e-02
      2.64499366e-01 5.49368598e-02 6.91248849e-03 2.29340732e-01
      2.79745549e-01 2.15220079e-01 1.23984873e-01 1.42611876e-01
      2.79745549e-01 1.94349319e-01 3.29621211e-02 0. 5.66767268e-02
      1.27988532e-01 4.11561579e-02 6.54348210e-02 3.84888537e-02
      3.69645506e-02 2.79745549e-01 7.33860210e-02 2.23695878e-02
      1.48376882e-01 2.51847863e-01 2.79745549e-01 2.79745549e-01
      2.79745549e-01 2.04420850e-01 2.55713165e-01 6.58835322e-02
      4.46877964e-02 1.30507886e-01 2.61070102e-01 1.18508026e-01
      6.59755096e-02 1.51663512e-01 2.61070102e-01 1.03872776e-01
      1.47398021e-02 5.98101281e-02 6.43595979e-02 5.98441176e-02
      1.85577169e-01 2.61070102e-01 1.96260855e-01 8.66511464e-02
      1.20589368e-01 2.20469043e-01 1.84161410e-01 9.96674895e-02
      2.61070102e-01 2.61070102e-01 1.54247299e-01 1.54035047e-01
      1.93538800e-01 1.38561413e-01 5.21375537e-02 3.47634666e-02
      4.70013954e-02 1.53887197e-01 2.30655119e-01 2.61070102e-01
      1.46711886e-01 6.68416172e-02 2.61070102e-01 1.81464970e-01
      7.72652701e-02 1.79399606e-02 1.48888752e-02 1.62278816e-01
      1.82478964e-01 7.22055361e-02 1.11837070e-02 2.52379537e-01
      2.91654170e-01 1.21329844e-01 5.85340895e-03 1.04339324e-01
      1.93703040e-01 3.21102403e-02 1.89796165e-02 5.10461107e-02
      2.91654170e-01 2.91654170e-01 4.08474579e-02 1.91758052e-02
      2.64787003e-02 1.48957625e-01 2.85052061e-01 2.28393883e-01
      4.55839038e-02 2.91654170e-01 2.45847359e-01 6.66809753e-02
      2.55670641e-02 1.15781099e-01 1.39755636e-01 5.81125692e-02
      1.40276298e-01 8.03626478e-02 2.91654170e-01 2.91654170e-01
      4.39278670e-02 4.79891934e-02 1.81327596e-01 1.68086246e-01
      9.15817395e-02 1.30949281e-02 1.64650217e-01 2.34950334e-01
      2.02064693e-01 2.45717447e-02 8.00199136e-02 2.38880411e-01
      1.06705956e-01 1.44707903e-01 2.47391243e-03 1.31161004e-01
      1.72610998e-01 1.12097397e-01 5.26923724e-02 1.83014218e-02
      8.95136073e-02 1.97788805e-01 2.72569031e-01 2.73249354e-02
      9.27987695e-02 3.13632548e-01 3.06840181e-01 9.91099998e-02
      4.35856031e-03 4.53035869e-02 3.13632548e-01 3.13632548e-01
      4.46158051e-02 4.46809046e-02 2.13758186e-01 2.10116655e-01
      1.29987553e-01 5.59575073e-02 2.57732511e-01 1.76128045e-01
      6.60066232e-02 3.22139869e-03 3.12207714e-02 7.73575306e-02
      6.44512847e-02 3.87873091e-02 1.85141116e-01 3.33906740e-01
      3.33906740e-01 7.90415108e-02 2.87819877e-02 4.43642549e-02
      6.79301322e-02 2.60181539e-02 1.35886557e-02 4.39685471e-02
      1.86343715e-01 3.33906740e-01 3.33906740e-01 4.33103181e-02
      3.67561206e-02 4.74213138e-02 4.73880619e-02 4.93979566e-02
      1.86864823e-01 3.33906740e-01 3.33906740e-01 2.45096952e-01
      1.05382100e-01 1.09584890e-02 7.73308054e-02 4.50005308e-02
      1.73482727e-02 4.22911122e-02 1.24962024e-01 2.65536427e-01
      2.03132495e-01 1.63898543e-01 5.79725839e-02 1.06040739e-01
      1.75312951e-01 2.07848087e-01 7.78554082e-02 9.01484936e-02
      2.86247075e-01 2.36927703e-01 1.87170401e-01 9.50702056e-02
      7.45494142e-02 4.70304564e-02 6.00415580e-02 7.10003152e-02
      2.78552230e-02 6.94676712e-02 1.34807587e-01 1.67788297e-01
      2.88867727e-02 3.78867388e-02 2.86247075e-01 2.86247075e-01
      4.62298393e-02 1.28383860e-01 2.48434991e-01 2.61440486e-01
      1.98384896e-01 2.74790339e-02 9.70005468e-02 2.03939959e-01
      2.86247075e-01 6.06736913e-02 1.19045451e-01 3.09080094e-01
      1.08815417e-01 8.80900994e-02 8.16207528e-02 6.98530450e-02
      3.66695151e-02 4.91152424e-03 3.47170085e-02 1.53038815e-01
      1.85332268e-01 1.18642665e-01 1.71994984e-01 1.52524307e-01
      1.98103964e-01 6.32740855e-02 0. 1.52102150e-02 1.03805728e-01
      3.02006185e-01 2.06693441e-01 3.09080094e-01 2.11162537e-01
      9.87422094e-02 4.31939401e-02 3.48682068e-02 4.77921776e-02
      2.63038516e-01 3.09080094e-01 1.41814113e-01 3.09080094e-01
      3.09080094e-01 7.21232817e-02 2.46119741e-02 0. 2.50570644e-02
      6.54695034e-02 7.33295009e-02 7.50219747e-02 7.77362064e-02
      3.30060422e-02 2.72394449e-01 1.23775281e-01 1.12866014e-01
      8.70089531e-02 1.83293343e-01 2.72394449e-01 2.72394449e-01
      1.12072200e-01 3.57182734e-02 2.51787543e-01 2.59496659e-01
      2.53613859e-01 1.86058674e-02 1.08196944e-01 2.69995511e-01
      5.11669256e-02 1.81802273e-01 8.68250132e-02 9.70658809e-02
      9.01801586e-02 1.06257558e-01 6.37707934e-02 1.82174832e-01
      2.39640608e-01 1.46294221e-01 1.88016042e-01 1.01805493e-01
      7.94520527e-02 2.72394449e-01 2.72394449e-01 5.03037721e-02
      2.61473328e-01 2.77975887e-01 2.28797734e-01 4.76564430e-02
      1.04285330e-01 1.58458352e-01 8.92909095e-02 5.34648299e-02
      2.28279494e-02 1.53108746e-01 2.11513758e-01 1.17291309e-01
      7.76743069e-02 1.99140877e-01 2.77975887e-01 8.80663469e-02
      4.67618853e-02 3.80706191e-02 1.87538072e-01 2.30458036e-01
      1.56625718e-01 1.65005162e-01 2.28680685e-01 9.64109525e-02
      1.21118858e-01 1.37741297e-01 6.14082627e-02 9.23173651e-02
      2.28139415e-01 7.04967231e-02 2.40214631e-01 2.77975887e-01
      2.77975887e-01 8.97027254e-02 7.70208165e-02 3.28018367e-02
      6.04395196e-02 1.03273645e-01 9.57268178e-02 1.98207766e-01
      2.04448298e-01 2.74971038e-01 7.07088336e-02 1.01739354e-01
      7.83139169e-02 1.72345221e-01 1.44397736e-01 3.58366258e-02
      1.34402931e-01 1.99055433e-01 2.25284189e-01 1.60398185e-01
      8.91539603e-02 1.76542565e-01 8.13770518e-02 1.84702784e-01
      1.73088796e-02 1.99408323e-01 2.74971038e-01 2.27798983e-01
      2.69589182e-02 1.75446376e-01 2.74971038e-01 2.43457228e-01
      2.74971038e-01 8.13205987e-02 7.59826899e-02 2.61411458e-01
      9.47530940e-02 5.17060757e-02 1.63464919e-01 3.44641358e-02
      8.50818083e-02 1.26527756e-01 9.44382101e-02 1.35715688e-02
      4.19186987e-02 1.47138059e-01 3.20403248e-01 1.69292867e-01
      3.30464281e-02 5.47967479e-03 2.05376491e-01 3.20403248e-01
      4.82575670e-02 1.42195532e-02 7.81904086e-02 3.20403248e-01
      1.82570338e-01 1.66933939e-01 1.38424084e-01 1.82498068e-01
      6.13784678e-02 2.88889334e-02 5.83282299e-02 5.15164100e-02
      2.98204005e-01 2.30717659e-01 2.01604709e-01 1.72282197e-02
      1.05926611e-01 1.52197167e-01 4.34503630e-02 2.53815185e-02
      4.02198136e-02 3.20403248e-01 3.20403248e-01 2.28641983e-02
      3.34675461e-02 2.15002239e-01 2.54606247e-01 6.08794205e-02
      1.44736124e-02 1.35158999e-02 5.52005470e-02 2.51651909e-02
      7.32083619e-02 8.18586126e-02 3.06615204e-01 2.04823688e-01
      1.42976433e-01 1.36006519e-01 5.42642958e-02 4.69407625e-02
      2.79249926e-03 1.06740430e-01 4.62602600e-02 2.22071037e-01
      2.04039410e-01 7.91616514e-02 3.27888429e-02 1.95889641e-02
      2.50488341e-01 3.06615204e-01 2.05393642e-01 7.62255490e-02
      3.06615204e-01 1.56589448e-01 2.26682678e-01 3.06615204e-01
      7.76113123e-02 5.84322102e-02 3.06615204e-01</_>
    <_>
      7.86945503e-03 5.90865221e-03 4.49224375e-03 5.83792068e-02
      4.14389849e-01 3.34073275e-01 6.00436702e-02 2.49313973e-02
      2.47902870e-02 4.93347570e-02 2.21280102e-02 5.54172229e-03
      8.48009363e-02 4.14389849e-01 4.14389849e-01 3.86952423e-02
      1.05589423e-02 3.87552679e-02 4.27575335e-02 9.14269164e-02
      1.67576764e-02 1.71721783e-02 3.43126297e-01 1.16057746e-01
      1.31032661e-01 6.02250695e-02 4.68820482e-02 1.76198870e-01
      1.35395840e-01 2.04557050e-02 5.11362329e-02 3.40884298e-01
      5.76613620e-02 2.22745109e-02 3.60072516e-02 9.37150195e-02
      5.03708124e-02 3.26373018e-02 4.43442352e-03 8.88296738e-02
      4.62729126e-01 3.09262484e-01 1.79240584e-01 1.87899359e-02
      1.52671412e-02 9.73555446e-02 1.39725422e-02 9.64782946e-03
      1.91700518e-01 4.62729126e-01 2.56070286e-01 3.17737848e-01
      1.72892492e-02 5.82653135e-02 1.44743040e-01 7.02300072e-02
      1.01013007e-02 5.22126816e-02 2.29766220e-01 3.58889326e-02
      4.12304550e-02 1.61173627e-01 8.66489783e-02 7.62723610e-02
      2.40048170e-02 4.02006581e-02 6.50135577e-02 1.00849129e-01
      8.12477320e-02 1.01914614e-01 2.08341315e-01 9.87728536e-02
      9.60644707e-02 1.08871087e-02 4.76776389e-03 1.42172843e-01
      4.94659156e-01 2.12435931e-01 1.02912053e-01 1.71921570e-02
      1.32734954e-01 2.16332346e-01 9.68868807e-02 1.03490381e-02
      1.35217071e-01 4.94659156e-01 1.89275980e-01 7.33143091e-02
      4.22632508e-02 2.80425042e-01 7.67457858e-02 4.76338752e-02
      2.08345894e-02 1.93801615e-02 3.50006297e-02 9.79929194e-02
      6.67728558e-02 3.63152698e-02 1.02036901e-01 1.72629490e-01
      2.94552863e-01 2.73546856e-02 9.76863410e-03 7.65776858e-02
      8.18444490e-02 3.19845825e-02 1.61730163e-02 1.97551966e-01
      2.30550930e-01 5.60396649e-02 3.00935302e-02 1.11095063e-01
      5.18083692e-01 3.24104913e-02 3.44338454e-02 3.62791643e-02
      2.05408603e-01 2.63789922e-01 1.45715270e-02 3.39345224e-02
      1.39633626e-01 5.18083692e-01 9.58418567e-03 8.05419497e-03
      5.37192374e-02 2.30052918e-01 1.59326211e-01 1.33903846e-01
      1.30234174e-02 1.74580105e-02 7.32456595e-02 8.54453165e-03
      3.39504867e-03 4.74929400e-02 1.52539596e-01 1.77342013e-01
      1.24261333e-02 2.68465257e-03 2.49362029e-02 1.11780412e-01
      2.01706565e-03 3.95576321e-02 1.60307974e-01 2.22587928e-01
      1.49099544e-01 1.60393561e-03 5.86699089e-03 2.05177754e-01
      5.81953228e-01 6.37698593e-03 1.85848735e-02 2.50023603e-02
      1.70338541e-01 1.17966361e-01 2.03977134e-02 6.61834900e-04
      1.94803283e-01 5.81953228e-01 2.23278012e-02 4.21019383e-02
      5.39550819e-02 1.21473707e-01 9.81504172e-02 5.55910496e-03
      2.90894276e-03 3.95148173e-02 1.12642519e-01 4.00311220e-03
      6.23606220e-02 1.01673976e-01 1.47052392e-01 1.38329819e-01
      1.46994069e-01 2.16875635e-02 5.85582629e-02 1.82549015e-01
      1.15147382e-02 5.18919267e-02 5.94236143e-02 7.82740340e-02
      1.64545089e-01 3.96817215e-02 1.62528013e-04 1.00747921e-01
      5.72143793e-01 6.81589991e-02 3.02702039e-02 3.47730629e-02
      6.15738034e-02 1.81973219e-01 3.07864062e-02 3.51127051e-03
      1.36468455e-01 5.72143793e-01 1.74388066e-01 4.94227186e-02
      1.73943155e-02 8.90808627e-02 2.10837528e-01 1.83505848e-01
      2.33943406e-02 2.83144359e-02 1.46407306e-01 4.65637911e-03
      7.18837744e-03 2.37480197e-02 4.54203784e-02 2.28442997e-01
      7.76801631e-02 5.51423524e-03 1.99147258e-02 1.34002581e-01 0.
      6.14545085e-02 2.99355406e-02 1.07468151e-01 1.74925756e-02
      1.15588363e-02 2.13524643e-02 5.47620505e-02 3.18852186e-01
      7.61184245e-02 8.52141082e-02 2.28903014e-02 3.51574086e-02
      1.60005328e-03 1.63624346e-01 3.80351603e-01 2.94528812e-01
      3.48284006e-01 5.67197651e-02 1.16283953e-01 2.93222219e-02
      6.33846084e-03 2.47874316e-02 2.00068764e-02 3.61874290e-02
      1.11656925e-02 3.93255278e-02 5.49636502e-03 2.35266969e-01
      5.77913858e-02 6.01430573e-02 2.87126633e-03 3.80351603e-01
      3.80351603e-01 5.71244918e-02 3.81992534e-02 9.16060898e-03
      3.37436259e-01 6.17374107e-02 2.31428109e-02 5.58733232e-02
      2.83750921e-01 9.56193954e-02 2.29834374e-02 4.41286974e-02
      6.71315640e-02 3.06796342e-01 1.06973283e-01 2.57559568e-02
      1.53895453e-01 3.16585869e-01 8.88480544e-02 9.90410149e-03
      1.21046500e-02 9.59022436e-03 2.97667049e-02 3.09531167e-02
      5.32590263e-02 5.00255264e-02 2.59428203e-01 3.78082395e-01
      4.69328947e-02 4.36143652e-02 6.42970810e-03 4.97641385e-01
      1.98838055e-01 3.59454527e-02 7.52621964e-02 2.56747723e-01
      2.56489635e-01 3.90452296e-02 5.50633781e-02 1.39988195e-02
      5.33750430e-02 4.26885597e-02 6.91299932e-03 1.11504897e-01
      7.98851997e-02 2.23745406e-02 7.81604555e-03 1.86749082e-02
      7.32139265e-03 4.48833965e-02 2.27152303e-01 1.18633918e-01
      2.05225646e-02 1.66306198e-02 3.96177769e-02 3.08392216e-02
      2.95734107e-02 5.67496233e-02 1.66481256e-01 5.10796785e-01
      1.71255618e-01 4.80032936e-02 6.74698204e-02 1.99801996e-02
      5.43436222e-03 1.39490858e-01 9.00508165e-02 1.36900499e-01
      1.19864248e-01 3.16927582e-02 8.36449489e-03 3.23543586e-02
      2.72504576e-02 0. 1.25797480e-01 3.46483856e-01 4.91511673e-01
      3.59259576e-01 6.35340139e-02 3.73476334e-02 1.52585492e-01
      6.49151653e-02 2.55594626e-02 3.45400274e-02 9.08042043e-02
      1.36243045e-01 1.77412823e-01 6.22274056e-02 8.00911039e-02
      4.88918483e-01 1.99366570e-01 6.06789105e-02 3.01898848e-02
      4.95327786e-02 2.72919834e-02 6.73709251e-03 3.57341729e-02
      1.03283310e-02 1.62586764e-01 1.05185762e-01 1.31201029e-01
      7.74825141e-02 1.85052246e-01 3.62845510e-01 1.71977162e-01
      2.01297402e-02 6.73053563e-02 2.82997727e-01 4.18779403e-01
      2.78063208e-01 8.60706493e-02 2.36526988e-02 5.37415631e-02
      9.84734017e-03 2.75839791e-02 5.55273481e-02 2.39208281e-01
      1.30935669e-01 7.01807439e-02 3.42461355e-02 2.58025876e-03
      1.26336506e-02 5.46221547e-02 5.03778905e-02 8.03205594e-02
      3.26729454e-02 3.88798341e-02 5.40922917e-02 4.96606566e-02
      1.53453583e-02 2.85847127e-01 4.38956827e-01 2.33901173e-01
      6.60215244e-02 9.06234682e-02 2.63793319e-01 1.44398838e-01
      9.20433402e-02 5.07310731e-03 3.43309641e-02 5.54010505e-03
      5.22846170e-02 4.43539657e-02 2.00036168e-02 9.76834744e-02
      1.41677067e-01 1.98417857e-01 2.64841944e-01 4.77845401e-01
      2.61167705e-01 7.22193569e-02 2.27569696e-02 2.21196450e-02
      2.75831595e-02 4.76650596e-02 4.11151908e-02 1.81333907e-02
      2.49726444e-01 2.52436042e-01 9.61632505e-02 9.52494815e-02
      2.87492454e-01 2.02914357e-01 1.17979079e-01 3.65794487e-02
      1.17794741e-02 1.34130061e-01 8.15806985e-02 1.53335603e-02
      9.07948334e-03 1.89424660e-02 7.09436983e-02 6.90082535e-02
      6.89684525e-02 1.61466092e-01 4.12980229e-01 2.85483748e-01
      2.78245881e-02 1.94132272e-02 1.18583269e-01 4.62668121e-01
      3.11434180e-01 1.48797454e-02 2.60480512e-02 1.94280148e-01
      1.46513134e-01 5.16708661e-03 1.49776578e-01 3.83503288e-01
      2.28622630e-01 8.04625601e-02 1.26011856e-02 5.73875848e-03
      1.13289105e-02 2.02443600e-02 2.43208092e-02 1.95979342e-01
      1.54797688e-01 3.04537974e-02 3.15703079e-02 2.76120249e-02
      1.80567019e-02 1.61386251e-01 8.76370817e-02 9.21151713e-02
      2.77904812e-02 1.73664913e-01 5.74539542e-01 3.41065615e-01
      3.19317542e-02 2.63639335e-02 1.36809377e-02 1.12470947e-02
      9.16479994e-03 5.74517883e-02 9.73407328e-02 1.63402513e-01
      1.17141016e-01 9.17509869e-02 2.54249185e-01 2.05377683e-01
      3.86063345e-02 7.22937360e-02 9.27300099e-03 2.24865600e-02
      3.22155990e-02 1.36649527e-03 2.61455844e-03 6.56575151e-03
      2.21980929e-01 5.33046611e-02 2.38818638e-02 3.74520733e-03
      3.75926316e-01 4.20629412e-01 6.94014670e-05 2.45759293e-04
      7.94187002e-03 3.08352947e-01 5.60760796e-02 1.59970615e-02
      3.72839998e-03 3.15142386e-02 4.83586006e-02 2.93552782e-03
      8.24030023e-03 5.80899976e-02 2.24865079e-01 9.51233730e-02
      1.15929116e-02 3.36295622e-03 4.20629412e-01 4.20629412e-01 0.
      2.53301673e-03 2.93646567e-02 2.86483914e-01 1.45713747e-01
      5.76609140e-03 3.04578487e-02 5.40161915e-02 2.15628892e-01
      1.10090934e-01 1.04320785e-02 0. 3.22111219e-01 1.47893026e-01
      6.92528486e-02 1.68425366e-02 4.34196070e-02 1.76720649e-01
      1.46765396e-01 2.57449951e-02 2.64004432e-02 4.10845391e-02
      6.18950911e-02 1.53196780e-02 2.28569005e-02 4.23596613e-03
      1.07660882e-01 1.81180477e-01 2.03257903e-01 8.31397772e-02
      4.30604279e-01 2.28109553e-01 7.93310851e-02 1.06319273e-03
      2.73199752e-03 1.80393919e-01 3.84429395e-01 4.30604279e-01
      1.57879099e-01 8.07688013e-02 7.89910033e-02 1.65980328e-02
      6.52156956e-03 1.05705224e-02 2.50241030e-02 2.75315698e-02
      7.58285746e-02 1.18180312e-01 1.53399065e-01 6.85581416e-02
      1.70270875e-02 1.89897837e-03 3.28128263e-02 2.34137606e-02 0.
      9.18512493e-02 2.56027341e-01 3.27791333e-01 5.73058575e-02
      5.19002713e-02 6.08404109e-04 1.24146054e-02 6.48946092e-02
      1.78956017e-01 4.97664124e-01 2.42353961e-01 2.08888948e-01
      8.01929310e-02 2.10474227e-02 1.15874242e-02 8.49020928e-02
      7.31576532e-02 4.10465598e-02 4.97664124e-01 2.04014167e-01
      2.15579778e-01 5.54952249e-02 9.84045938e-02 3.95038836e-02
      8.42577517e-02 9.60257426e-02 9.32239220e-02 4.81628738e-02
      1.31870806e-01 2.11150065e-01 6.88145608e-02 3.48806605e-02
      9.01644528e-02 1.06651127e-01 3.74922991e-01 3.08498114e-01
      1.03677459e-01 1.99876130e-02 5.58575541e-02 4.11578864e-02
      3.00468821e-02 8.90668184e-02 9.97389928e-02 1.43834487e-01
      5.32085821e-02 4.00571615e-01 4.64949682e-02 7.73514211e-02
      1.24815963e-01 1.01630889e-01 1.33243352e-01 7.16488287e-02
      3.34143460e-01 3.61763120e-01 2.46045634e-01 1.25483964e-02
      3.30435671e-02 2.05226973e-01 1.39916614e-01 2.71074232e-02
      1.84013788e-02 1.11374758e-01 1.13313936e-01 7.76236430e-02
      4.68098968e-02 4.78065424e-02 5.26157487e-03 3.03682145e-02
      4.57391236e-03 6.21216791e-03 3.63376848e-02 4.59441580e-02
      1.17711641e-01 3.19020152e-01 1.71097845e-01 4.66306023e-02
      3.17775570e-02 1.16556033e-01 3.60760652e-02 1.80938363e-01
      1.88180149e-01 1.19689308e-01 1.34210855e-01 5.10048494e-02
      3.95843387e-02 1.38947770e-01 3.15680355e-01 7.17646852e-02
      2.72142351e-01 6.19449131e-02 1.13907762e-01 4.07901615e-01
      1.13451503e-01 3.00073996e-02 5.39058506e-01 1.44178583e-03
      9.66163632e-03 3.86014469e-02 1.55868744e-02 6.39719814e-02
      1.41428396e-01 1.07838415e-01 7.74318725e-02 8.55667610e-03
      1.00925006e-02 2.43278779e-02 1.60136670e-01 1.44256264e-01
      3.37989442e-02 2.68916246e-02 7.78139457e-02 6.86470568e-02
      9.84376296e-04 2.99763322e-01 3.10258623e-02 1.31053537e-01
      2.01794542e-02 1.39937326e-01 1.06225066e-01 3.99630405e-02
      3.09723429e-02 4.76133436e-01 4.76133436e-01 1.94352902e-02
      9.45754275e-02 9.95890498e-02 1.90236211e-01 7.65268579e-02
      8.29616562e-02 4.16973606e-02 4.76133436e-01 3.06515419e-03
      1.28684621e-02 1.17140137e-01 1.39005557e-01 5.60367517e-02
      2.11048424e-02 1.06461141e-02 9.12296399e-03 1.60051894e-03
      5.04303910e-03 6.86560059e-03 6.24388158e-02 7.63000026e-02
      1.41713202e-01 1.65457964e-01 2.71812920e-02 4.64612897e-03
      1.70395728e-02 2.82948941e-01 3.97036178e-03 5.05473018e-02
      1.55464649e-01 2.35567063e-01 8.68939832e-02 4.44264971e-02
      1.35342022e-02 4.23572689e-01 3.34416777e-01 1.37549732e-03
      2.94778422e-02 1.89615369e-01 4.23572689e-01 2.00666890e-01
      3.46535444e-02 9.68563557e-03 4.23572689e-01 5.00391889e-03
      2.60380041e-02 4.40949462e-02 8.99538770e-03 4.83567938e-02
      1.05004072e-01 1.06770523e-01 4.75256294e-02 8.63344688e-03
      3.11410404e-03 4.22641963e-01 4.22641963e-01 2.24457402e-03
      2.41521746e-02 4.24140356e-02 1.43062592e-01 7.82744139e-02
      1.97394192e-03 1.58153892e-01 8.48921984e-02 4.79572862e-02
      5.31974994e-02 2.42732286e-01 1.14846222e-01 7.62215480e-02
      1.84919517e-02 2.21220106e-01 1.11597478e-01 4.22641963e-01
      4.22641963e-01 1.57120191e-02 1.53303996e-01 8.18470344e-02
      1.00600816e-01 2.54560523e-02 6.50728196e-02</_>
    <_>
      1.18970558e-01 4.02886271e-02 4.94223600e-03 1.55497240e-02
      3.20799351e-01 3.20799351e-01 9.89364311e-02 3.01828887e-02
      1.50890416e-02 1.77667126e-01 1.11796789e-01 1.42800221e-02
      1.19701661e-01 3.20799351e-01 3.20799351e-01 3.64899896e-02
      1.65738594e-02 2.64010951e-02 1.69100225e-01 2.24347070e-01
      3.55778337e-02 9.32983402e-03 1.96500182e-01 1.58315197e-01
      2.95895636e-01 8.15414265e-02 5.98261505e-03 3.20799351e-01
      3.20799351e-01 2.39532162e-02 6.88197389e-02 1.96365759e-01
      7.42695332e-02 3.84419039e-02 2.75678411e-02 4.04159427e-02
      1.46651775e-01 1.11467801e-01 1.99431423e-02 1.65879801e-01
      3.37670654e-01 2.93999761e-01 1.72400139e-02 1.62898377e-02
      1.06653675e-01 5.42881340e-02 1.17924772e-02 2.48646606e-02
      3.00143361e-01 3.37670654e-01 4.92413752e-02 2.41604098e-03
      3.78303416e-02 1.08929984e-01 3.08368236e-01 2.20819220e-01
      1.85473785e-02 7.58769140e-02 1.04942776e-01 4.46577929e-02
      3.68314586e-03 1.20857216e-01 2.30547383e-01 1.09842680e-01
      1.10682305e-02 7.69220963e-02 1.01784714e-01 1.42371118e-01
      8.54956582e-02 8.24116915e-03 3.13017488e-01 3.37670654e-01
      3.61189917e-02 0. 1.11416429e-02 1.70484722e-01 3.63709599e-01
      1.03508718e-01 1.99187938e-02 3.56680267e-02 2.37540659e-02
      1.00854464e-01 9.40900147e-02 2.17135996e-03 1.32020757e-01
      3.63709599e-01 3.63709599e-01 8.23864788e-02 4.63625677e-02
      1.14920568e-02 9.21906084e-02 1.54846031e-02 5.67700230e-02
      3.57913934e-02 1.63312912e-01 1.36723265e-01 7.14268312e-02
      1.18489511e-01 1.41136467e-01 3.63709599e-01 3.63709599e-01
      2.00781208e-02 7.75024388e-03 1.96891025e-01 2.47715488e-01
      1.98016375e-01 7.45140836e-02 5.43214902e-02 1.44133210e-01
      1.45814836e-01 1.49401128e-02 1.24650046e-01 3.34265709e-01
      3.29780012e-01 2.61317026e-02 1.25639047e-02 5.37038706e-02
      8.00666809e-02 8.47027823e-02 2.21770592e-02 2.00906456e-01
      3.34265709e-01 1.42446831e-01 1.45848817e-03 4.01582159e-02
      1.57360718e-01 3.16928744e-01 3.34265709e-01 2.32500192e-02
      2.02410817e-02 1.03629276e-01 9.92829725e-02 5.44103980e-02
      3.03970110e-02 1.03571914e-01 1.32015496e-01 1.51947021e-01
      4.41563688e-02 5.01329489e-02 1.36014521e-01 2.30091549e-02
      5.01278304e-02 2.74257421e-01 3.34265709e-01 2.25378387e-02
      2.40920261e-02 7.68580195e-03 1.83470324e-01 3.67749989e-01
      4.97245602e-02 5.38189430e-03 3.26199792e-02 6.37551621e-02
      2.89999042e-02 1.35897156e-02 9.75748897e-03 3.01354051e-01
      3.67749989e-01 2.35571519e-01 6.80898950e-02 6.17046468e-02
      3.99808027e-02 4.01862673e-02 5.02921976e-02 1.14788100e-01
      3.01234163e-02 1.63525984e-01 2.09212620e-02 1.03450507e-01
      2.90054291e-01 2.16213167e-01 4.83331755e-02 9.77913439e-02
      1.90673411e-01 2.96868365e-02 1.92510173e-01 1.96031913e-01
      2.66033292e-01 3.67749989e-01 9.11481455e-02 4.78254445e-02
      4.41205278e-02 5.59972338e-02 1.45140812e-01 3.59339833e-01
      3.59339833e-01 5.68772480e-02 2.08282433e-02 2.35040244e-02
      8.53556395e-02 1.30233496e-01 1.15120545e-01 8.91010910e-02
      3.59339833e-01 3.59339833e-01 8.26659519e-03 9.24270693e-03
      1.54528264e-02 8.56241882e-02 2.61249453e-01 1.23874515e-01
      1.27681941e-02 1.43342987e-01 2.01342031e-01 1.91061616e-01
      1.28940448e-01 4.11338657e-02 1.61836162e-01 3.55174720e-01
      1.21141404e-01 1.49192540e-02 1.45195812e-01 6.24126270e-02
      3.20717245e-02 1.61939133e-02 3.02874669e-02 3.09718903e-02
      5.81398048e-02 3.94927189e-02 1.34917706e-01 3.95708323e-01
      1.14853986e-01 9.38431360e-03 4.86936159e-02 2.60983296e-02
      2.59013064e-02 6.54617399e-02 2.75587410e-01 3.95708323e-01
      3.95708323e-01 5.90900183e-02 4.09889296e-02 6.88768327e-02
      4.21507880e-02 5.84757365e-02 9.30692330e-02 2.74900254e-02
      1.60612017e-02 7.44939819e-02 1.56488102e-02 6.36421144e-02
      9.91980731e-02 4.71633822e-02 4.53194827e-02 2.99794883e-01
      3.95708323e-01 1.53621078e-01 5.58934286e-02 4.61624712e-02
      1.75488502e-01 2.12054610e-01 7.15749338e-02 1.53039157e-01
      3.35833192e-01 1.58207640e-01 3.55835189e-04 8.42190348e-04
      1.97651088e-02 3.35833192e-01 1.29558638e-01 5.61244972e-03
      2.27878988e-01 3.35833192e-01 2.10078299e-01 8.47910531e-03
      3.23482603e-02 2.93892417e-02 4.97502983e-02 1.81257967e-02
      1.97442416e-02 6.98082224e-02 2.52298355e-01 3.35833192e-01
      1.01553760e-01 1.43691001e-03 2.37888633e-03 3.35833192e-01
      1.77438632e-01 9.68470275e-02 5.46371080e-02 1.28976598e-01
      3.35833192e-01 7.59231597e-02 9.36146732e-03 1.91846434e-02
      3.68208438e-02 4.75904271e-02 6.22201115e-02 1.38652354e-01
      1.86253652e-01 8.00883472e-02 3.58941481e-02 5.86285815e-02
      4.53339815e-02 4.60033901e-02 1.28701195e-01 1.21531069e-01
      4.73658927e-02 3.05998418e-02 8.38871375e-02 3.99261378e-02
      1.04857452e-01 1.94580093e-01 2.32489511e-01 3.90446454e-01
      3.90446454e-01 3.26305553e-02 8.22376385e-02 1.70291364e-01
      1.08851008e-01 1.53317656e-02 4.44875099e-02 1.42369419e-01
      4.72328030e-02 1.84901506e-02 1.71786901e-02 7.32153952e-02
      1.24917008e-01 1.17817938e-01 5.71657419e-02 2.10786805e-01
      3.90446454e-01 3.90446454e-01 1.20230101e-01 7.15011656e-02
      7.22144395e-02 5.22298031e-02 6.22304063e-03 1.14002816e-01
      1.94773644e-01 1.16462186e-01 1.58690110e-01 1.71273112e-01
      3.13410729e-01 3.42663288e-01 1.25169441e-01 1.26116760e-02
      1.07722759e-01 1.76124543e-01 8.77993703e-02 2.02312395e-02
      6.19438589e-02 1.78805947e-01 7.53763169e-02 1.40022814e-01
      6.10833056e-02 5.50131500e-02 1.18452854e-01 2.40885109e-01
      2.41414919e-01 1.19847342e-01 3.18746805e-01 3.42663288e-01
      3.42663288e-01 1.01117402e-01 9.14042443e-02 7.25601017e-02
      2.60050502e-02 3.12089957e-02 8.81455168e-02 2.44511381e-01
      3.76488417e-01 1.09540910e-01 2.31564995e-02 7.78373554e-02
      9.58052576e-02 5.22793494e-02 1.73929688e-02 5.10679185e-02
      6.11813441e-02 1.36659130e-01 1.31534770e-01 4.37685102e-02
      7.22653270e-02 5.09986877e-02 2.54565984e-01 3.76488417e-01
      2.61803299e-01 8.64627659e-02 2.82225579e-01 2.40296528e-01
      6.44659698e-02 8.28248784e-02 5.44664711e-02 2.87808795e-02
      6.31089928e-03 2.43545342e-02 1.24473348e-02 1.25376806e-01
      1.70361161e-01 2.42337547e-02 1.92770455e-02 1.69998050e-01
      3.76488417e-01 2.41309881e-01 4.12671305e-02 6.48447918e-03
      2.05767862e-02 1.51525155e-01 4.27916087e-02 2.13948824e-02
      1.65900122e-02 1.88208282e-01 3.13079447e-01 1.13694847e-01
      6.73485361e-03 8.34005848e-02 2.64037967e-01 5.91011047e-02
      1.07819643e-02 3.98759581e-02 3.13079447e-01 3.13079447e-01
      4.68105301e-02 2.99110747e-04 1.15523346e-01 1.14490524e-01
      4.96187322e-02 6.29521953e-03 1.69984803e-01 3.13079447e-01
      2.46155292e-01 4.28072363e-02 0. 1.93453431e-01 2.31835112e-01
      1.04950890e-01 4.49029431e-02 1.30783319e-01 3.13079447e-01
      3.13079447e-01 9.34411213e-02 2.38666441e-02 3.02925229e-01
      2.44912386e-01 3.19962576e-02 1.35587351e-02 5.55307604e-02
      3.19413722e-01 1.78664178e-01 9.22373123e-03 6.85098544e-02
      3.08114856e-01 1.72036842e-01 4.12687324e-02 6.51949495e-02
      2.79071685e-02 5.12990914e-02 1.29882721e-02 1.40579110e-02
      9.62972175e-03 1.78541675e-01 3.19413722e-01 1.49335250e-01
      4.44991812e-02 2.95246001e-02 3.19413722e-01 3.19413722e-01
      9.41343457e-02 5.00851236e-02 2.33848616e-01 3.19413722e-01
      1.50053978e-01 6.44411296e-02 6.76053390e-02 4.85338941e-02
      4.42415774e-02 1.96203161e-02 2.18509249e-02 5.17551042e-02
      2.62965597e-02 8.97251163e-03 2.51274053e-02 1.50011294e-02
      7.94667229e-02 7.81292617e-02 2.48024017e-02 1.34112081e-02
      3.05868894e-01 4.51345295e-01 9.50311136e-04 3.94609803e-03
      4.98916171e-02 2.46653929e-01 1.70391068e-01 2.68399026e-02
      2.53251009e-02 5.71312942e-02 4.53922153e-02 3.06942277e-02
      7.81652108e-02 1.19776145e-01 1.04101844e-01 6.57057464e-02
      2.65150331e-02 1.47742955e-02 4.09232438e-01 4.51345295e-01
      6.65217778e-03 5.39777502e-02 1.35779843e-01 3.20244461e-01
      2.05170333e-01 8.03640708e-02 6.50842264e-02 7.60611445e-02
      3.12226802e-01 1.83613017e-01 6.63881004e-03 1.25765544e-03
      2.70062000e-01 1.74464092e-01 1.22174248e-01 4.28370871e-02
      3.12491283e-02 2.73894340e-01 1.21113360e-01 1.87436566e-02
      1.08811306e-02 1.38363363e-02 6.90527186e-02 7.73688480e-02
      4.41460982e-02 1.52764261e-01 3.12226802e-01 3.12226802e-01
      2.56652862e-01 9.26451571e-03 3.12226802e-01 2.48852149e-01
      5.29861860e-02 2.62114462e-02 4.24783714e-02 1.69426277e-01
      1.91028327e-01 3.12226802e-01 9.64126959e-02 3.01008057e-02
      9.04443637e-02 3.75928842e-02 2.29955073e-02 3.79951671e-02
      1.15377009e-01 7.34642223e-02 4.52426933e-02 7.95878619e-02
      1.02501757e-01 1.99315492e-02 1.72980931e-02 5.87892346e-02
      7.72673637e-02 8.88913274e-02 5.25205955e-02 7.78268129e-02
      3.34458202e-01 3.33109140e-01 1.65404424e-01 1.39222622e-01
      2.01362558e-02 1.40833147e-02 9.51132178e-02 1.15180299e-01
      4.02110964e-01 2.40441918e-01 8.57459307e-02 2.18664762e-02
      1.27101457e-02 1.29303589e-01 6.92991093e-02 4.28449772e-02
      1.63842395e-01 4.02110964e-01 4.02110964e-01 1.65235892e-01
      3.97786312e-02 8.43821317e-02 1.70578524e-01 7.58392736e-02
      1.67296469e-01 1.08492829e-01 3.76198776e-02 1.18110657e-01
      1.16168648e-01 1.43840164e-01 1.52485088e-01 2.37777933e-01
      9.22482684e-02 2.38657042e-01 2.11196780e-01 5.96966930e-02
      1.12467287e-02 4.32781093e-02 6.31142184e-02 1.13526635e-01
      9.69489142e-02 8.63245651e-02 7.09673241e-02 2.21339583e-01
      3.96494448e-01 2.14290932e-01 6.95108473e-02 4.65034992e-02
      7.58378804e-02 5.36951534e-02 4.69800755e-02 8.44122916e-02
      3.96494448e-01 3.96494448e-01 1.75172865e-01 7.40641803e-02
      5.77229746e-02 8.18403214e-02 4.30919863e-02 5.94661534e-02
      1.26345426e-01 8.76274183e-02 5.48963584e-02 2.48066206e-02
      2.30152998e-02 1.74327474e-02 2.63343435e-02 3.24968584e-02
      8.41057673e-02 9.55602825e-02 2.71531567e-02 4.43677269e-02
      2.88536161e-01 2.61682510e-01 7.83216059e-02 2.79671550e-02
      1.75417885e-02 2.41131447e-02 9.37339216e-02 2.50927418e-01
      4.27811712e-01 2.34472573e-01 4.80046347e-02 1.98268127e-02
      2.95135938e-02 4.54570130e-02 5.81639521e-02 1.11591637e-01
      2.50806481e-01 4.27811712e-01 4.27811712e-01 1.39794230e-01
      2.21455097e-02 4.27492671e-02 3.22362334e-02 1.63581669e-01
      5.17435558e-02 1.94165930e-02 2.47778334e-02 2.46533155e-01
      2.50874817e-01 1.01934820e-01 5.21395691e-02 1.97619293e-02
      2.46951982e-01 1.13013022e-01 1.09591134e-01 1.36970297e-01
      1.41360268e-01 2.09051058e-01 3.11952710e-01 2.25665301e-01
      5.30692749e-02 7.47358352e-02 4.84256409e-02 9.33325440e-02
      3.11952710e-01 2.36029968e-01 1.23767145e-01 3.88126560e-02
      8.21830407e-02 3.29365507e-02 1.08804405e-01 1.14153497e-01
      2.42003649e-01 3.11952710e-01 9.22692940e-02 9.30039510e-02
      2.58834749e-01 2.22918600e-01 3.85839934e-03 8.79442468e-02
      1.99495524e-01 1.58846781e-01 9.57355276e-02 2.34777797e-02
      8.78993347e-02 3.06538969e-01 2.62442708e-01 2.10155658e-02
      1.19353704e-01 2.18246892e-01 1.37622550e-01 5.87698370e-02
      7.25792274e-02 5.66750728e-02 9.34397578e-02 8.03114250e-02
      8.99847539e-04 3.28804068e-02 1.36594802e-01 2.49863431e-01
      3.06538969e-01 7.02292472e-02 8.83770511e-02 3.06538969e-01
      3.06538969e-01 2.00693831e-02 1.39837354e-01 1.79621488e-01
      2.56771624e-01 2.28220478e-01 1.03683285e-01 1.52119204e-01
      1.74233317e-01 1.55566305e-01 9.52389017e-02 7.66904876e-02
      3.10793482e-02 2.66313683e-02 5.62053733e-02 1.28348872e-01
      5.71134351e-02 2.67916843e-02 1.36354435e-02 1.19637884e-01
      3.91546011e-01 3.91546011e-01 2.30120472e-03 5.65616228e-02
      9.75418612e-02 9.62593034e-02 1.28002793e-01 8.62605348e-02
      1.34079307e-01 2.44553387e-01 8.39227960e-02 1.04862079e-01
      1.90983877e-01 1.07723296e-01 6.96538240e-02 2.32193563e-02
      3.80458497e-03 1.62952885e-01 3.91546011e-01 3.91546011e-01
      6.27325010e-03 2.68586606e-01 1.44986302e-01 9.01523456e-02
      6.64070845e-02 2.66320948e-02</_>
    <_>
      4.57358686e-03 2.42764200e-03 3.51557019e-03 5.72645403e-02
      4.03290898e-01 4.03290898e-01 8.85570720e-02 2.36020191e-03
      7.48998427e-04 2.11828295e-03 3.61304637e-03 2.53549851e-02
      3.22088152e-01 4.03290898e-01 1.16978735e-01 1.08986348e-02
      1.12047605e-03 0. 6.05393201e-03 9.72917676e-03 6.58816006e-03
      1.35276429e-02 2.24091828e-01 3.31296176e-01 2.03876942e-01
      1.83545426e-02 1.70257699e-03 2.58594789e-02 4.44993861e-02
      6.28871992e-02 1.46473199e-01 3.81270289e-01 4.30519581e-02
      3.32150124e-02 6.98654493e-03 4.36627102e-04 7.23884732e-04
      1.81040447e-03 1.80444103e-02 2.69252986e-01 4.12764281e-01
      4.43222411e-02 4.16425057e-03 6.07262133e-04 0. 0. 2.42966064e-03
      9.58255958e-03 1.02002561e-01 4.12764281e-01 3.92614275e-01
      4.07168455e-02 5.88737952e-04 0. 3.71340811e-02 6.83673769e-02
      7.72854164e-02 1.94161132e-01 3.22329670e-01 1.07928729e-02
      1.87126845e-02 3.80660966e-03 1.41072564e-03 4.18862030e-02
      5.49702458e-02 5.55781536e-02 1.16218880e-01 3.62266839e-01
      2.06312925e-01 2.49825612e-01 4.81271483e-02 2.29641888e-03 0.
      1.37953402e-03 4.47795726e-03 1.19060148e-02 4.20759022e-01
      4.20759022e-01 3.87474783e-02 3.78174038e-04 9.66405205e-05 0.
      2.73432746e-03 1.35885961e-02 1.32828876e-01 4.20759022e-01
      4.20759022e-01 1.09425103e-02 1.69695797e-03 6.76483614e-04
      8.83440394e-03 1.05001396e-02 8.35135859e-03 2.59002391e-02
      2.45496824e-01 3.05910796e-01 2.10406736e-01 4.05998640e-02
      1.63730397e-03 1.30565127e-03 3.44911031e-02 5.51174320e-02
      5.48510626e-02 1.87650815e-01 1.54162049e-01 2.99856998e-02
      1.30803408e-02 5.70251094e-03 1.63241546e-03 1.82688087e-02
      2.39619557e-02 3.70888799e-01 4.10485834e-01 1.12423278e-01
      3.09191132e-03 1.19855092e-03 2.56727682e-04 7.70124653e-03
      6.16703406e-02 1.02061890e-01 4.10485834e-01 4.10485834e-01
      6.26037344e-02 2.53190263e-03 8.43967660e-04 0. 4.22883965e-03
      1.23370416e-01 1.39061302e-01 7.79939517e-02 1.04627356e-01
      1.65774692e-02 1.19041267e-03 3.06678121e-03 1.93211529e-03
      8.60427693e-02 4.10485834e-01 2.26350471e-01 1.65443778e-01
      1.20762900e-01 6.26251381e-03 3.99261015e-03 1.33087009e-03
      5.88023616e-03 9.26264748e-03 3.72139327e-02 1.13505088e-01
      1.67432219e-01 3.82855147e-01 2.17049971e-01 1.46216536e-02
      4.58025420e-03 1.10689234e-02 9.12137926e-02 6.83774650e-02
      5.69648333e-02 7.74326846e-02 3.82855147e-01 3.82855147e-01
      8.82984251e-02 1.26589183e-02 2.60869600e-02 9.69892666e-02
      2.82710135e-01 1.47807077e-01 1.07578740e-01 7.67414197e-02
      2.65375376e-02 7.23293871e-02 1.92961283e-02 2.88542043e-02
      1.76669121e-01 3.82256091e-01 1.91221178e-01 1.01040468e-01
      4.64565828e-02 1.64847121e-01 2.11841524e-01 2.76288930e-02
      2.91606653e-02 1.61847755e-01 1.74991578e-01 4.10840847e-02
      4.34324890e-02 1.68036014e-01 1.87992305e-01 2.83517260e-02
      1.75593197e-02 6.81283176e-02 3.22749704e-01 2.59251475e-01
      6.52336553e-02 5.21693937e-02 3.22749704e-01 3.85556854e-02
      1.64764537e-03 4.82732058e-02 3.22749704e-01 2.16032445e-01
      3.22749704e-01 2.33732849e-01 6.22158572e-02 7.52319768e-03
      7.17327222e-02 4.72540222e-02 4.66677593e-03 4.08161096e-02
      2.36048073e-01 3.22749704e-01 2.51958787e-01 1.02924397e-02
      9.73327667e-04 6.72197668e-03 0. 1.80860497e-02 1.85020730e-01
      1.10748015e-01 1.04536541e-01 3.02430633e-02 4.37416323e-02
      2.17791244e-01 2.93892249e-03 1.45436758e-02 1.11050278e-01
      2.80550867e-01 1.19555555e-02 6.70116022e-02 3.19971293e-01
      2.18483388e-01 1.46842822e-01 5.14685595e-03 8.29807445e-02
      1.32305354e-01 1.66202068e-01 6.63019866e-02 1.63985148e-01
      1.12149291e-01 1.47311436e-03 1.00459100e-03 7.16192822e-04
      7.61210993e-02 2.26973921e-01 2.74356544e-01 1.15187587e-02
      1.19739227e-01 3.19971293e-01 3.22614871e-02 4.71251160e-02
      5.01334947e-03 3.19971293e-01 3.19971293e-01 3.19971293e-01
      3.71777080e-02 1.79853085e-02 2.07778495e-02 1.44747589e-02
      1.25215843e-01 1.07723892e-01 2.36925349e-01 5.71244620e-02
      1.51540320e-02 7.94698447e-02 2.42023349e-01 2.23784357e-01
      8.13036785e-02 1.15464330e-02 6.73277956e-03 6.50135577e-02
      9.39198770e-03 2.39684130e-03 1.10566363e-01 8.22124705e-02
      3.07594519e-02 2.90689454e-03 1.01642691e-01 3.96732539e-02
      8.58924463e-02 5.01947105e-01 1.27788320e-01 5.84006980e-02
      5.01947105e-01 4.63093609e-01 1.45282224e-02 1.36248553e-02
      9.19349678e-03 2.45070122e-02 3.46953198e-02 6.74883649e-03
      9.34034213e-02 2.41893634e-01 1.08961254e-01 3.16408798e-02
      2.84471572e-03 6.98125921e-04 2.04880666e-02 3.59520763e-02
      5.24812890e-03 1.27046525e-01 1.71018928e-01 5.45485877e-02
      2.18545347e-02 4.04615328e-03 3.54072787e-02 3.16226304e-01
      3.36272240e-01 9.07356106e-03 7.37814233e-02 3.87075573e-01
      2.49142885e-01 3.19722574e-03 0. 8.28934062e-05 3.47914770e-02
      6.62759393e-02 3.51341674e-03 9.74173099e-02 3.19182724e-01
      1.25722632e-01 6.28386717e-03 0. 5.80253836e-04 3.87075573e-01
      3.87075573e-01 3.41264121e-02 4.90730219e-02 3.17068808e-02
      1.06931673e-02 3.11480593e-02 2.33670138e-02 6.66648671e-02
      4.06135350e-01 3.22049797e-01 8.73562787e-03 2.89292634e-02
      1.39100328e-01 9.90688130e-02 3.02525647e-02 3.84454504e-02
      1.95814464e-02 4.97555844e-02 3.68284434e-02 1.10402303e-02
      5.94431050e-02 3.03215776e-02 2.98668128e-02 4.61743400e-02
      4.80515137e-03 1.26748660e-03 4.84039754e-01 4.84039754e-01
      1.75911948e-01 5.48440516e-02 2.36796334e-01 2.37757862e-01
      5.40638641e-02 2.49105357e-02 6.21886924e-03 5.49094789e-02
      1.75659627e-01 1.41808122e-01 1.38470596e-02 2.85372972e-01
      1.64368942e-01 7.15073990e-03 4.24540322e-03 9.10894829e-04
      2.02767347e-04 2.08499562e-03 1.36732368e-03 9.98170078e-02
      4.33116436e-01 1.87299967e-01 5.60915051e-03 1.24233329e-05 0.
      1.42759643e-02 1.64337736e-02 8.79678316e-03 3.30641307e-02
      4.33116436e-01 3.56628478e-01 4.23600571e-03 5.57982735e-03
      1.49654283e-03 1.64999059e-04 4.96293698e-03 5.11806644e-03
      6.12028055e-02 4.33116436e-01 3.77267271e-01 1.42788782e-03 0.
      2.58007459e-02 3.50118428e-02 4.68305945e-02 3.38375033e-03
      7.85915330e-02 3.06220561e-01 7.10199550e-02 7.18679139e-03
      1.33269723e-03 1.40691660e-02 1.28077015e-01 6.85678795e-02
      2.27205399e-02 1.46775141e-01 3.09711069e-01 3.71589512e-01
      2.06665285e-02 9.32888128e-03 6.55664504e-02 1.95372447e-01
      7.09865019e-02 1.66258272e-02 1.93873346e-02 2.33855218e-01
      1.24897033e-01 3.43516958e-03 1.90385326e-04 1.12531126e-01
      2.64334530e-01 1.34932935e-01 5.47777861e-03 6.35594577e-02
      2.88192421e-01 3.98447186e-01 3.93817313e-02 1.33269723e-03
      1.17152974e-01 3.49178731e-01 1.03802502e-01 5.69494022e-03
      1.60205185e-01 3.52642447e-01 3.43568504e-01 1.86585132e-02
      3.35688097e-03 2.12534256e-02 2.95304060e-02 6.39947271e-03
      1.45892613e-02 8.95712599e-02 3.60920042e-01 2.82581747e-01
      4.63953847e-03 0. 0. 0. 0. 2.32297704e-02 8.92249942e-02
      2.95452446e-01 3.80314738e-01 3.39499526e-02 4.79554408e-04
      1.08797941e-02 3.99597473e-02 5.52644767e-03 8.88939667e-03
      9.76277441e-02 3.80314738e-01 3.32095504e-01 1.20652085e-02 0. 0.
      0. 0. 5.33363735e-03 3.58040556e-02 1.61360785e-01 1.35401666e-01
      1.38700707e-03 0. 2.63858424e-03 7.13292137e-02 1.16980121e-01
      5.60347214e-02 1.49355009e-02 1.01948045e-01 2.29332626e-01
      2.15930748e-03 1.05281785e-01 1.84700899e-02 3.67796719e-01
      3.67796719e-01 2.23738581e-01 4.57271598e-02 2.28063077e-01
      1.54541224e-01 4.29959083e-03 0. 6.76291436e-02 7.28570074e-02
      6.52368590e-02 1.03090620e-02 2.71776728e-02 9.32463631e-02
      1.02534018e-01 2.98373355e-03 9.50943530e-02 3.67796719e-01
      3.67796719e-01 3.67796719e-01 8.02042484e-02 2.41166390e-02
      2.78564151e-02 1.48139484e-02 8.04566685e-03 8.86169914e-03
      1.12353247e-02 6.80679679e-02 3.74461591e-01 9.78023484e-02
      6.11151755e-03 2.63536662e-01 2.10323140e-01 2.68483441e-02
      1.04780984e-03 5.60320634e-03 9.30444244e-03 6.86520711e-02
      2.71426365e-02 5.11099631e-03 1.34911668e-02 2.42871679e-02
      1.33316657e-02 2.54505104e-03 5.24758501e-03 3.60762537e-01
      3.74461591e-01 2.50184685e-01 1.37384690e-03 2.05906913e-01
      3.68624985e-01 5.03076091e-02 0. 3.14855110e-03 5.06279357e-02
      2.90385991e-01 3.43937010e-01 1.02745211e-02 3.43001574e-01
      2.99885422e-01 1.22727500e-02 4.74036031e-04 3.54362698e-03
      3.66673917e-02 2.22391803e-02 2.61841901e-03 9.97709949e-03
      1.52097151e-01 1.49599090e-01 3.92774260e-03 7.90060032e-04
      2.48053875e-02 3.43001574e-01 3.43001574e-01 3.29184122e-02
      2.35643660e-04 2.73065984e-01 3.43001574e-01 4.02680226e-02
      6.61642849e-03 7.53923431e-02 6.37639686e-02 3.33696976e-02
      9.21294093e-02 2.39364395e-04 1.06598049e-01 1.89505100e-01
      1.52387200e-02 2.86176540e-02 3.20657283e-01 3.42011482e-01
      1.51043713e-01 9.11512133e-03 6.40028203e-03 2.41778996e-02
      3.79653871e-02 7.54791405e-03 5.35937678e-03 1.13723967e-02
      2.45105430e-01 3.73200297e-01 1.87805220e-01 9.75556672e-03
      1.62741601e-01 1.56487942e-01 1.19276168e-02 3.67034413e-02
      1.02892118e-02 2.14143358e-02 2.47545421e-01 3.14452082e-01
      7.06069870e-04 1.00146830e-01 1.37491360e-01 3.47252149e-04
      1.31748160e-02 1.12560093e-01 2.01408178e-01 2.65379310e-01
      1.49355963e-01 2.78900191e-03 2.26603195e-01 2.19628379e-01
      4.31007589e-04 2.20220648e-02 6.17352687e-03 1.96047164e-02
      3.62252891e-01 3.73200297e-01 1.06921783e-02 3.10923934e-01
      3.44726652e-01 5.45423059e-03 1.27107510e-02 3.56325158e-03
      1.44525446e-04 3.27057987e-02 7.01812357e-02 1.12177189e-02
      3.04540098e-01 3.44726652e-01 1.47066610e-02 0. 7.12150782e-02
      8.64168480e-02 2.66684424e-02 2.15739408e-03 2.22667144e-03
      2.13956028e-01 3.44726652e-01 2.41508130e-02 1.24190878e-02
      6.61420403e-03 1.43534448e-02 1.34629488e-01 3.44726652e-01
      3.18095903e-04 1.35532200e-01 3.44726652e-01 9.43703279e-02
      5.89152724e-02 2.55552977e-01 1.65942729e-01 4.71817404e-02
      4.83059548e-02 6.70838170e-03 1.04516104e-01 1.18158564e-01
      7.35939946e-03 0. 2.09716946e-01 2.74248868e-01 5.31507358e-02
      3.78927478e-04 3.67392004e-02 2.99504787e-01 3.79675806e-01
      9.18924138e-02 6.41180854e-03 1.37114033e-01 2.54860550e-01
      2.66411398e-02 5.69386582e-04 3.95417539e-03 9.95099470e-02
      1.69943631e-01 3.61284763e-02 4.41677570e-02 3.56456339e-01
      2.77859449e-01 2.45205089e-02 0. 2.76792273e-02 2.36680210e-01
      3.79675806e-01 1.93114519e-01 5.45813590e-02 1.22979090e-01
      1.33309141e-01 4.44231927e-03 0. 3.68851200e-02 1.65298760e-01
      3.80445361e-01 1.46468878e-01 4.18389402e-02 6.85886340e-03
      1.92918871e-02 5.73880738e-04 9.76084848e-04 7.62698203e-02
      2.57012993e-01 1.91939741e-01 1.97035819e-01 1.14536583e-01
      1.93107147e-02 0. 0. 5.85650851e-04 2.16391813e-02 8.07226449e-02
      2.72192985e-01 3.80445361e-01 1.97207406e-01 4.10726778e-02
      9.77851916e-03 2.41321009e-02 0. 4.21394929e-02 8.73628855e-02
      1.13165766e-01 3.80445361e-01 3.80445361e-01 2.37910017e-01
      2.64814459e-02 4.54024635e-02 0. 3.53726745e-02 9.69194397e-02
      4.70981039e-02 4.42750752e-02 6.70211986e-02 1.73411265e-01
      8.99822116e-02 4.26812954e-02 1.69765826e-05 4.64302786e-02
      3.12782340e-02 7.61591196e-02 4.08929680e-03 3.98694314e-02
      3.46180618e-01 3.46180618e-01 1.28781140e-01 2.64495593e-02
      2.97173299e-02 3.15450542e-02 3.03281285e-02 1.38470814e-01
      3.46180618e-01 3.46180618e-01 9.43854973e-02 2.49096118e-02
      1.18836062e-04 1.31439328e-01 7.47745261e-02 3.46180618e-01
      5.20754931e-03 1.85628414e-01 3.46180618e-01 3.12428921e-01
      3.52253653e-02 5.15643656e-02</_>
    <_>
      2.93453108e-03 1.59091111e-02 1.78072117e-02 7.28952233e-04
      7.18518570e-02 1.84000984e-01 3.61705899e-01 7.08595812e-02
      1.36163435e-04 3.38846073e-02 2.88198777e-02 1.33175049e-02
      5.10266516e-03 3.61705899e-01 3.61705899e-01 3.48875046e-01
      3.42300646e-02 2.46057436e-02 2.60263891e-03 2.13914551e-02
      3.75850722e-02 0. 6.29128050e-03 5.16592376e-02 3.61705899e-01
      2.64868587e-01 5.38648565e-05 7.86255151e-02 1.03569023e-01
      1.33878157e-01 0. 6.00199699e-02 1.24628276e-01 3.61705899e-01
      2.03679681e-01 4.17784527e-02 1.03205703e-01 1.90663431e-02
      7.72300130e-03 2.92370724e-03 4.71524239e-01 2.51007348e-01
      3.25948782e-02 1.77903776e-03 7.57383779e-02 1.74551621e-01
      7.62977358e-03 1.98056037e-03 3.29503324e-03 4.71524239e-01
      1.04557917e-01 1.45783270e-04 4.85944220e-05 1.32457867e-01
      2.62988806e-01 1.13057889e-01 8.82020071e-02 0. 1.13990322e-01
      6.84414282e-02 7.33328238e-02 2.04173047e-02 1.36361554e-01
      4.07308042e-01 4.09915112e-02 3.76639818e-03 1.97693371e-04
      1.40713915e-01 1.77406836e-02 1.18429516e-03 9.96364281e-03
      3.01843673e-01 1.21624552e-01 9.48821008e-03 1.60639989e-03
      2.04804875e-02 5.11890590e-01 2.80615576e-02 5.97511884e-03
      1.56795932e-03 1.20768987e-01 1.42942056e-01 2.96341861e-03
      4.21494915e-04 7.36206248e-02 5.11890590e-01 2.89928075e-02
      2.08418202e-02 3.98104452e-03 1.61971360e-01 2.37803221e-01
      1.29413167e-02 1.35589251e-03 3.16273444e-03 1.04651824e-01
      5.26915304e-03 1.95784587e-02 2.67676599e-02 3.07556689e-01
      2.94343054e-01 3.88160395e-03 1.04300277e-02 1.56853646e-02
      1.40495434e-01 1.28527898e-02 3.29839997e-02 1.59572661e-02
      3.39214951e-01 1.33981243e-01 1.54190976e-03 1.97714521e-03
      1.47331700e-01 4.35193539e-01 6.55232221e-02 2.99138129e-02
      8.87066964e-03 1.14000179e-01 1.85918435e-01 2.27023941e-02
      3.68459448e-02 1.72652781e-01 4.35193539e-01 2.71985501e-01
      4.07585613e-02 1.03013488e-02 1.47249624e-01 2.81358242e-01
      2.62592942e-03 8.64406489e-03 3.29865590e-02 1.17833793e-01
      1.26674986e-02 5.46936225e-03 7.76887813e-04 2.31377214e-01
      3.64627182e-01 7.65583292e-03 2.36165733e-03 3.56372409e-02
      1.47833347e-01 5.59678264e-02 6.19512098e-03 1.11890805e-03
      2.96661824e-01 1.38423994e-01 4.00981195e-02 3.44005004e-02
      4.38713208e-02 4.89554316e-01 2.00694054e-01 1.56526640e-02
      1.87382172e-03 1.31342545e-01 1.47952527e-01 4.69506569e-02
      8.21253285e-03 1.89254098e-02 4.89554316e-01 6.09494634e-02
      9.38106980e-03 1.05312942e-02 1.69412822e-01 2.69249499e-01
      2.03298647e-02 3.54404049e-03 4.18700092e-03 1.00118697e-01
      4.16702516e-02 9.29482561e-03 1.03213720e-03 2.60558665e-01
      2.79404730e-01 3.40685211e-02 3.07187461e-03 1.69002032e-03
      1.32840335e-01 1.21891433e-02 1.30276587e-02 7.95877818e-03
      3.56439859e-01 1.27295509e-01 8.73308722e-03 4.40718024e-04
      7.20096799e-03 4.66149539e-01 5.23706190e-02 6.22742251e-03
      1.31844589e-02 1.09465703e-01 2.88700610e-01 7.01414840e-03
      6.91524940e-04 1.28735900e-02 4.66149539e-01 1.59644261e-01
      4.01464617e-03 1.23157194e-02 1.33613497e-01 2.55193740e-01
      2.32864656e-02 2.78485334e-03 5.95917809e-04 9.53753218e-02
      5.55507094e-03 6.04973547e-03 8.43087398e-03 2.17806458e-01
      4.58624214e-01 2.64024157e-02 9.72923730e-03 2.40639225e-03
      1.04872182e-01 1.44433221e-02 2.34857947e-02 4.53354828e-02
      2.34769076e-01 1.23920090e-01 2.23301947e-02 7.76474178e-02
      1.17912054e-01 4.22157347e-01 6.45715222e-02 6.69705961e-03
      1.73773915e-02 7.74672851e-02 2.97467560e-02 1.15854621e-01
      4.22157347e-01 3.46851110e-01 2.67845064e-01 1.20036341e-02
      9.63724684e-03 1.36083532e-02 3.12063918e-02 1.52312696e-01
      3.86868306e-02 1.09479405e-01 1.84731446e-02 4.04343791e-02
      5.08916192e-03 6.10389821e-02 1.09447017e-01 1.30968526e-01
      2.71315370e-02 3.45101297e-01 4.22157347e-01 4.18357477e-02
      1.31528014e-02 4.44847043e-04 5.38089834e-02 9.02268142e-02
      5.24042360e-02 3.63097497e-04 1.76105835e-02 3.73038054e-02 0.
      3.24347260e-04 2.98487575e-04 3.84319812e-01 2.54971296e-01 0.
      1.97808631e-02 1.04864016e-01 1.79286063e-01 1.16173876e-04 0.
      4.97479225e-04 3.84319812e-01 2.14298800e-01 6.19877083e-03
      1.82754171e-04 1.85861737e-02 5.57444282e-02 0. 2.15573644e-04 0.
      3.84319812e-01 3.09013784e-01 1.82754171e-04 1.41241367e-03
      1.12413771e-01 2.65325457e-01 1.37011544e-03 0. 0. 3.84319812e-01
      2.59165108e-01 1.37416006e-04 2.03418881e-01 3.34832817e-01
      3.97775143e-01 2.82620685e-03 0. 2.84422567e-04 1.65362820e-01
      6.36191666e-02 6.15186840e-02 2.86315322e-01 1.56603992e-01
      7.54100159e-02 6.43767416e-03 4.05143248e-03 5.62552596e-03
      2.63544749e-02 5.32402284e-02 2.20269918e-01 2.37082448e-02
      2.97553778e-01 5.23217678e-01 2.71512922e-02 0. 0. 2.18486756e-01
      8.49781930e-02 1.84628682e-03 2.38548405e-02 9.22278538e-02
      2.11750537e-01 3.90783437e-02 5.24108410e-02 3.39069217e-02
      6.32387623e-02 3.67824808e-02 1.73913389e-02 1.91016406e-01
      5.46676703e-02 2.65929177e-02 5.58339758e-03 6.46341080e-03
      1.92322899e-02 2.22806677e-01 2.31267527e-01 3.68233651e-01
      2.63624758e-01 7.06592798e-02 1.00828603e-01 2.44703013e-02
      9.23344342e-04 1.83781981e-02 2.51340151e-01 1.61894336e-01
      2.94899762e-01 1.14601534e-02 3.87398489e-02 6.82406500e-02
      1.19692888e-02 8.36130977e-02 8.61540735e-02 3.43718827e-01
      2.67104715e-01 4.01150733e-02 6.80680200e-02 2.12455913e-01
      8.93344879e-02 5.61875757e-03 1.61566269e-02 4.21743542e-02
      2.91711479e-01 2.98878402e-01 7.52796456e-02 4.40815866e-01
      1.04903936e-01 1.36680558e-01 1.92768816e-02 2.55038077e-03
      3.73614253e-03 4.03913967e-02 2.17444338e-02 3.10525686e-01
      5.65634429e-01 6.53560683e-02 1.84070691e-02 1.07131002e-03
      4.25063493e-03 0. 1.24182617e-02 2.29175705e-02 4.19171661e-01
      1.07814625e-01 2.83379197e-01 1.32199988e-01 1.06105544e-02
      3.63405645e-02 1.84973031e-02 4.24251519e-02 6.64896667e-02
      9.36111435e-02 1.07280910e-01 6.73728362e-02 2.52365135e-02
      3.98758985e-02 4.08471823e-02 5.66491447e-02 6.04890324e-02
      4.88909706e-02 1.04492188e-01 4.14785981e-01 3.66406403e-02 0. 0.
      6.52176968e-04 2.11744420e-02 8.45085531e-02 2.94302907e-02
      3.80159616e-01 3.74649912e-01 1.20358020e-01 3.24171558e-02
      5.88682340e-03 2.11151075e-02 6.15420900e-02 1.71448171e-01
      4.99454960e-02 5.69824755e-01 3.50484401e-02 1.40812891e-02
      3.20317759e-03 2.22632606e-02 4.56523849e-03 7.46496916e-02
      1.53289601e-01 6.95627555e-02 4.97304425e-02 7.07668737e-02
      9.82811302e-02 4.78647500e-02 2.36188844e-02 1.10592432e-02
      1.72052234e-01 2.16834351e-01 7.21861497e-02 9.05225649e-02
      3.08451802e-01 1.81091130e-01 7.02525154e-02 2.91579459e-02
      2.39781402e-02 1.44160567e-02 3.12016495e-02 8.54437519e-03
      2.51867682e-01 5.23315609e-01 1.76299900e-01 1.51342362e-01
      1.06827900e-01 3.21841240e-02 1.79151073e-03 2.23471135e-01
      1.68880761e-01 2.26991624e-01 6.71458393e-02 1.09954551e-01
      1.01594806e-01 1.07523717e-01 3.57255936e-02 5.85594513e-02
      3.83172520e-02 9.05693416e-03 3.75878550e-02 4.64243293e-02
      9.76332054e-02 1.71823695e-01 3.12135577e-01 1.39321148e-01
      3.26625966e-02 3.34652364e-01 6.76121786e-02 1.54471816e-02
      3.24707851e-02 2.42480543e-02 1.03134409e-01 1.14292046e-02
      2.50552734e-03 5.33970306e-04 1.27094939e-01 1.16512589e-01
      2.42805816e-02 5.96554345e-03 3.13113451e-01 5.02866328e-01
      1.49568485e-03 2.35018507e-03 3.20382213e-04 1.09184541e-01
      1.16595611e-01 1.13613708e-02 1.68210035e-03 3.43160070e-02
      1.25850543e-01 2.78844405e-02 1.29900025e-02 5.11101820e-03
      1.98807582e-01 9.33062881e-02 4.65120102e-04 5.11748949e-04
      4.53262329e-01 5.02866328e-01 3.32026370e-03 1.25752212e-02
      2.38162722e-03 1.88243166e-01 1.24446146e-01 3.74267431e-04
      1.88371996e-04 1.64529346e-02 4.47457545e-02 8.55868799e-04
      2.02174939e-04 0. 3.99472117e-01 2.15339243e-01 1.88371996e-04
      2.25290982e-03 9.94772688e-02 1.90561146e-01 1.20239872e-02
      8.82392377e-03 5.62610221e-04 3.99472117e-01 1.74995065e-01
      3.85017891e-04 2.69102875e-05 1.50993485e-02 5.32268956e-02
      5.99108171e-03 4.71822452e-03 5.67839947e-04 3.99472117e-01
      3.13014448e-01 2.69102875e-05 1.35174592e-03 6.83485493e-02
      1.63338676e-01 7.80732632e-02 1.43927768e-01 1.55162672e-02
      3.99472117e-01 2.69239843e-01 2.31010723e-04 2.76015215e-02
      1.75495848e-01 3.10629904e-01 3.26170288e-02 7.91413486e-02
      1.18736960e-02 1.18941233e-01 3.82984355e-02 3.55946319e-03
      2.70141978e-02 3.01969219e-02 6.80088848e-02 1.70531087e-02
      1.73695877e-01 8.43227431e-02 1.98377576e-02 8.15770868e-03
      5.44582587e-03 1.65609103e-02 1.14992931e-01 2.23935336e-01
      1.55622929e-01 5.62275410e-01 9.82389003e-02 1.62425280e-01
      6.36228994e-02 2.13567773e-03 1.62085183e-02 1.97035801e-02
      2.49062926e-02 6.90585300e-02 5.62275410e-01 1.79935634e-01
      1.35159539e-02 6.68306602e-03 3.26749566e-03 4.84639872e-03
      6.92044711e-03 1.28847323e-02 3.87560646e-03 1.42977536e-01
      1.03858456e-01 5.46101518e-02 4.04940397e-02 6.58089435e-03
      1.92877054e-02 5.89724407e-02 1.48556614e-02 2.37335727e-04
      1.91560492e-01 7.46816173e-02 3.63815650e-02 5.70558459e-02
      3.01554371e-02 2.32147495e-03 3.80358216e-03 4.57071653e-03
      3.57979238e-02 6.36581242e-01 1.74594477e-01 1.95699949e-02
      8.00604187e-03 1.41769939e-03 5.85042266e-03 2.26255022e-02
      3.25856581e-02 2.97862128e-03 6.36581242e-01 2.47319624e-01
      1.00720022e-02 6.36113435e-03 3.77523364e-03 1.53438076e-02
      4.55724299e-02 1.54495072e-02 7.02673430e-03 1.93414569e-01
      4.25342359e-02 1.20910229e-02 1.08401049e-02 2.09001377e-02
      8.75793304e-03 6.07437268e-03 4.74221678e-03 4.65386212e-02
      2.47024193e-01 5.55872917e-02 2.40429845e-02 1.07532889e-02
      1.45391570e-02 2.89837597e-03 2.46470012e-02 5.48062325e-02
      1.14449589e-02 6.39386356e-01 1.70811579e-01 1.39995068e-02
      3.56323225e-03 2.42243405e-03 4.91509854e-04 8.26816447e-03
      2.42646076e-02 7.55519345e-02 6.39386356e-01 1.46794140e-01
      6.81791976e-02 2.10228004e-02 1.84411078e-03 3.46656027e-03
      4.41677985e-04 1.50417094e-03 3.38904485e-02 1.66514993e-01
      5.27906157e-02 2.21300106e-02 1.33888982e-02 8.09618272e-03
      4.77373973e-02 5.95860090e-03 4.30743443e-03 6.61863387e-02
      1.92331836e-01 6.74375296e-02 2.86588930e-02 8.99091177e-03
      1.53066702e-02 1.33133947e-03 3.87256895e-03 1.14797354e-02
      7.21369460e-02 6.47099078e-01 1.07474379e-01 4.06728573e-02
      1.54432720e-02 2.33141659e-03 2.73802429e-02 1.12642366e-02
      2.83104721e-02 2.07168236e-01 6.47099078e-01 1.02887660e-01
      1.49872331e-02 4.84270789e-03 5.67608234e-03 5.57613261e-02
      9.74073727e-03 1.23211173e-02 4.55483906e-02 1.46075651e-01
      4.01875600e-02 7.18820235e-03 6.61020749e-04 1.36082247e-02
      2.62705386e-02 2.60740090e-02 2.68942211e-02 3.57784778e-02
      2.08261415e-01 7.29247630e-02 7.23858178e-02 6.06626598e-03
      9.43705626e-03 3.12373862e-02 7.76450802e-03 1.45585285e-02
      1.42557278e-01 6.51104152e-01 6.52550533e-02 3.25556239e-03
      6.27606933e-04 5.40238060e-03 1.40502583e-02 1.56939384e-02
      1.51538560e-02 5.62963784e-02 6.51104152e-01 1.70565054e-01
      2.74484903e-02 1.53982011e-03 3.95016884e-03 1.06637448e-03
      3.09522245e-02 9.18754786e-02 6.98676519e-03 4.55122069e-02
      3.81190032e-02 1.32044226e-01 3.79913449e-02 8.56922532e-04
      2.57876655e-03 3.11852515e-01 5.22834957e-01 7.71518971e-04
      1.54730957e-02 2.74673924e-02 1.42543256e-01 5.59247248e-02
      2.57876655e-03 5.53018413e-04 3.89448553e-02 1.12860657e-01
      3.94232757e-02 3.15089464e-01 1.33287922e-01 7.09467307e-02
      9.24731232e-03 4.27347230e-04 1.03537980e-02 3.55756611e-01
      5.22834957e-01 3.91124673e-02 7.58420378e-02 1.21579230e-01
      8.66316110e-02 1.36445798e-02 1.03537980e-02</_>
    <_>
      1.54274896e-01 3.76141459e-01 4.90024835e-02 1.95734072e-02
      4.98599373e-02 1.40239801e-02 1.39040083e-01 5.58742881e-02
      2.65467679e-03 3.76141459e-01 3.76141459e-01 1.45164719e-02
      4.74278908e-03 2.98078414e-02 1.29879359e-02 8.99163447e-03
      6.11896701e-02 1.00930929e-01 1.46900386e-01 3.76141459e-01
      2.56340176e-01 2.11449321e-02 2.55960152e-02 3.35232653e-02
      1.82182595e-01 6.49933070e-02 3.72414070e-05 2.42997915e-01
      3.76141459e-01 7.11113587e-02 4.76278029e-02 1.00221597e-01
      1.05718680e-01 6.84099793e-02 2.69643422e-02 4.32086512e-02
      2.69653618e-01 1.65117219e-01 3.47832614e-03 4.52318462e-03
      2.16377191e-02 1.97317405e-03 3.70033691e-03 3.57520670e-01
      3.06027502e-01 4.83183526e-02 1.58942323e-02 2.96583585e-02
      1.49839623e-02 1.78586189e-02 2.47433054e-04 1.04835480e-02
      3.88072342e-01 3.74839604e-01 8.57763141e-02 1.04689397e-01
      3.18814218e-02 1.00854434e-01 1.02237910e-01 3.35414633e-02
      3.10948268e-02 2.83579767e-01 1.29235566e-01 1.76987927e-02
      4.24685329e-03 2.87683699e-02 7.69248083e-02 2.72613224e-02
      2.72703450e-03 1.64305106e-01 3.88072342e-01 2.33101428e-01
      3.50666791e-02 2.28639767e-02 9.30065438e-02 6.32770509e-02
      3.76708396e-02 6.48384262e-03 2.56999042e-02 4.79700655e-01
      2.87010461e-01 5.17322607e-02 3.07294652e-02 5.44892997e-02
      3.88305001e-02 1.74131840e-02 3.98808718e-02 1.72445197e-02
      8.15039054e-02 2.99528956e-01 6.90152310e-03 2.07552370e-02
      4.99105677e-02 4.64374684e-02 4.17577289e-02 1.59932598e-02
      4.65490967e-01 4.79700655e-01 1.45511612e-01 3.49518955e-02
      1.14059754e-01 6.34839609e-02 4.14612442e-02 4.58282270e-02
      4.43073213e-02 1.83436766e-01 1.61108553e-01 2.83079334e-02
      2.08046019e-01 8.88015255e-02 3.22407782e-02 5.96742751e-03
      1.85304675e-02 3.51728089e-02 1.05417306e-02 7.44341463e-02
      4.28471386e-01 3.70344162e-01 6.52514845e-02 3.61995511e-02
      3.30454782e-02 6.62862808e-02 1.51144452e-02 7.17087183e-03
      1.65863082e-01 4.57784384e-01 1.02383912e-01 2.78874427e-01
      8.22820514e-02 3.04370336e-02 2.43361741e-02 3.03448457e-02
      1.08024739e-02 1.84253212e-02 8.28771889e-02 1.59079671e-01
      1.63489938e-01 8.66586193e-02 3.89204919e-02 3.59564908e-02
      2.07589734e-02 3.69585454e-02 3.26367140e-01 3.02232862e-01
      2.25111112e-01 4.70758602e-02 4.20496687e-02 6.13994971e-02
      1.29478797e-01 5.05901910e-02 8.83051136e-04 1.21493824e-01
      3.74672145e-01 2.39375755e-01 5.92672341e-02 4.21388112e-02
      5.67601025e-02 4.44046021e-01 7.74125233e-02 1.93901570e-03
      5.09723350e-02 4.49594498e-01 6.86087459e-02 4.14677970e-02
      2.63146907e-02 5.41020371e-02 3.12389843e-02 3.73880081e-02
      1.01308584e-01 3.33297640e-01 2.25058869e-01 5.90150803e-02
      4.33916263e-02 2.47536842e-02 1.03467092e-01 9.85402241e-02
      8.06783885e-02 9.95269120e-02 1.32129833e-01 2.10258156e-01
      2.24099472e-01 1.95509512e-02 1.94330476e-02 4.74059507e-02
      3.83470327e-01 2.09046323e-02 4.49094921e-03 1.34375365e-02
      4.15169805e-01 2.86899149e-01 2.61807442e-02 1.74554177e-02
      1.44609302e-01 4.15169805e-01 3.75641626e-03 2.69456953e-03
      2.77609788e-02 4.15169805e-01 8.04871246e-02 8.45592842e-02
      4.24047709e-02 2.53597777e-02 4.61831987e-02 4.43504900e-02
      1.59706641e-02 9.08088870e-03 1.25979483e-01 2.04710737e-01
      1.67330384e-01 7.72228241e-02 2.18459452e-03 1.08516552e-02
      1.14266612e-02 1.20640583e-02 1.12761967e-02 2.45074570e-01
      1.66860163e-01 5.79593563e-03 5.11262938e-03 1.27454981e-01
      3.94655883e-01 5.96035179e-03 2.16114093e-02 6.95724934e-02
      3.13944161e-01 2.21605539e-01 4.24842816e-04 1.27452845e-03
      1.17012694e-01 3.94655883e-01 4.23712246e-02 1.12704843e-01
      1.79016784e-01 2.23849460e-01 1.41821146e-01 3.25103998e-02
      1.47708561e-02 5.27441327e-04 1.01868184e-02 4.33461368e-03
      3.99121307e-02 1.05413653e-01 2.49198496e-01 1.41993076e-01 0. 0.
      1.47770136e-03 2.99496483e-02 3.48836444e-02 3.44726354e-01
      2.90160805e-01 2.35415250e-01 2.55752150e-02 3.14774483e-01
      3.14774483e-01 1.62049100e-01 6.16248325e-02 7.74173215e-02
      1.25694752e-01 3.96231078e-02 0. 6.07819036e-02 2.49693573e-01
      2.10137427e-01 1.41769052e-01 1.22086599e-01 1.65461153e-01
      7.48875588e-02 2.48058252e-02 6.46851212e-02 4.13508303e-02
      1.36587813e-01 3.14774483e-01 3.14774483e-01 1.20885737e-01
      5.42180166e-02 1.45764381e-01 5.03196195e-02 2.89685209e-03
      2.86722910e-02 2.77280957e-01 3.14774483e-01 2.88288593e-01
      1.40957072e-01 9.48643163e-02 7.20161200e-02 8.13025907e-02
      3.44869457e-02 4.26715240e-02 2.26032641e-02 7.51597658e-02
      1.55887723e-01 9.51399505e-02 5.86845428e-02 4.87919934e-02
      1.11464985e-01 8.03835690e-02 1.56005248e-02 2.27946648e-03
      3.60827558e-02 1.71112895e-01 1.22105196e-01 1.28749609e-01
      3.18909019e-01 3.18909019e-01 3.90734114e-02 2.21347641e-02
      1.06514439e-01 2.09550828e-01 1.16373457e-01 1.05917916e-01
      1.26641855e-01 2.98046380e-01 2.56013393e-01 3.65376845e-02
      1.16556743e-02 2.63996818e-03 1.87446922e-02 1.62293941e-01
      3.18909019e-01 3.18909019e-01 3.18909019e-01 2.81413108e-01
      1.13589149e-02 7.38918362e-03 1.01961680e-02 4.48867865e-02
      3.90529521e-02 6.60616085e-02 1.47418797e-01 4.05617446e-01
      4.05617446e-01 1.43206818e-02 3.28227505e-02 6.42824546e-02
      9.90258157e-02 1.33421980e-02 1.16411680e-02 2.28264481e-02
      2.57103264e-01 9.46938321e-02 4.90403152e-04 3.61877009e-02
      1.44627644e-02 8.04781169e-02 6.31430373e-02 2.42210239e-01
      4.05617446e-01 4.05617446e-01 2.10505158e-01 1.52042406e-02
      3.37018706e-02 4.28637862e-02 2.09845334e-01 7.68857822e-02
      3.27830226e-03 5.38952053e-02 2.04012901e-01 6.52324483e-02
      4.78751771e-03 8.91605243e-02 3.56882423e-01 2.70925522e-01
      3.77233438e-02 1.85788553e-02 1.03725018e-02 5.26778400e-03
      9.22778063e-03 2.08302727e-03 4.72717807e-02 2.27111623e-01
      1.88451886e-01 3.38407084e-02 6.32486045e-02 1.27897829e-01
      1.35887697e-01 2.62587816e-01 1.10654511e-01 3.49973999e-02
      2.24100053e-01 4.99835581e-01 2.17395350e-01 2.60169748e-02
      2.72965785e-02 1.66888591e-02 1.84988659e-02 0. 1.50830988e-02
      1.39261752e-01 1.41188398e-01 4.94368114e-02 1.91125557e-01
      1.91319898e-01 2.61823714e-01 1.93367586e-01 0. 7.13529438e-03
      1.75053570e-02 2.56260969e-02 1.19912634e-02 2.64142249e-02
      9.33196768e-02 2.87325114e-01 2.62721121e-01 7.39841610e-02
      1.04716895e-02 4.24763858e-02 7.10086003e-02 7.33614191e-02
      8.20447952e-02 1.06601916e-01 3.06928605e-01 1.42757297e-01
      2.38979552e-02 4.58469521e-03 1.03348466e-02 8.33914895e-03
      1.50799251e-03 7.68710747e-02 1.57171935e-01 5.07448137e-01
      1.93283647e-01 5.46106091e-03 2.48290263e-02 1.23412356e-01
      1.94929734e-01 2.92706657e-02 1.74044594e-02 1.50389642e-01
      5.07448137e-01 1.43892795e-01 1.38915963e-02 3.66109461e-02
      2.25818262e-01 2.27781549e-01 6.84007257e-02 7.95247629e-02
      5.70869073e-02 4.95906919e-02 4.68761986e-03 5.00538759e-03
      8.59485641e-02 3.12282026e-01 2.94075966e-01 1.69993639e-02
      4.79761399e-02 2.49841195e-02 2.02861410e-02 9.15589090e-03
      4.08049785e-02 1.70349646e-02 2.60931462e-01 5.61717033e-01
      5.27732931e-02 1.02883950e-02 3.50403637e-02 7.31314197e-02
      1.40909404e-02 4.67340462e-03 1.87165979e-02 2.22592101e-01
      4.77899730e-01 4.61873077e-02 2.82409322e-02 3.18310335e-02
      1.16073191e-02 1.70338235e-03 7.21622212e-03 3.27312797e-02
      4.49730977e-02 5.58082424e-02 3.90805211e-03 3.69187705e-02
      1.33778108e-02 6.41105771e-02 1.24120370e-01 8.36252421e-02
      2.84914710e-02 6.57886826e-03 1.51272984e-02 2.44149775e-03
      1.71364006e-02 1.59834102e-02 5.35824239e-01 4.45582777e-01
      1.91445902e-01 1.69795062e-02 4.70546409e-02 6.97923303e-02
      1.82232894e-02 4.53540310e-02 5.75051457e-02 7.55452141e-02
      3.35539952e-02 2.02270672e-02 4.79486138e-02 1.94006041e-02
      2.59366520e-02 1.70904826e-02 3.95707600e-02 1.45590812e-01
      5.35824239e-01 3.04381937e-01 9.98082086e-02 5.77154793e-02
      1.01194575e-01 3.57698768e-01 1.46473706e-01 3.84181812e-02
      5.61068906e-03 1.02708861e-01 3.93286385e-02 3.39995627e-03
      2.46978775e-02 2.52067685e-01 3.57698768e-01 1.96628898e-01
      1.13233440e-01 4.06565927e-02 9.87897813e-02 5.48903830e-02
      4.50329506e-04 1.88965853e-02 3.91173288e-02 3.12135756e-01
      9.36365575e-02 8.30682069e-02 1.54559454e-02 1.14453226e-01
      7.38694966e-02 2.98129930e-03 1.15295993e-02 7.22474679e-02
      3.57698768e-01 3.57698768e-01 3.57698768e-01 1.81135550e-01
      7.61280730e-02 1.54497670e-02 6.43327876e-05 7.85632897e-03
      9.09814164e-02 2.13696286e-01 5.67841344e-02 1.00877814e-01
      1.36090323e-01 3.17881256e-01 1.55863643e-01 0. 9.55985114e-03
      6.15915796e-03 5.84510667e-03 2.59654522e-02 1.31836027e-01
      2.92257071e-01 3.17881256e-01 1.40990034e-01 1.41899390e-02
      4.05259477e-03 2.80113760e-02 1.66740626e-01 1.93845391e-01
      3.17881256e-01 3.17881256e-01 3.17881256e-01 3.87026034e-02 0.
      2.74190656e-03 2.12356616e-02 3.15556861e-02 4.92324680e-02
      1.62195086e-01 2.37357005e-01 3.17881256e-01 4.82731946e-02
      8.29852652e-03 7.42085651e-02 2.32078042e-02 5.26040047e-02
      5.74397631e-02 1.61949486e-01 4.14670914e-01 3.85729104e-01
      2.09173232e-01 5.82889728e-02 4.08500358e-02 3.06213796e-02
      2.07843527e-01 1.84110120e-01 1.90645736e-02 3.44858691e-02
      6.55296594e-02 1.41969725e-01 1.18241115e-02 1.42763276e-02
      3.35758291e-02 4.12759371e-02 5.04427440e-02 3.37576270e-01
      1.62318289e-01 2.56142408e-01 1.59540340e-01 3.36942300e-02
      6.36073388e-03 4.63565998e-03 1.00291871e-01 1.32002652e-01
      4.14670914e-01 7.84738511e-02 8.16347376e-02 1.82561651e-01
      7.35986792e-03 5.02824178e-03 3.17451619e-02 2.44550139e-01
      2.30334997e-01 2.36817989e-02 1.46015473e-02 1.46168694e-02
      2.56152395e-02 2.78292719e-04 8.38040281e-03 2.38629375e-02
      8.15999433e-02 9.01296884e-02 8.60610232e-02 1.29466012e-01
      1.71281651e-01 7.66345859e-02 0. 3.01694521e-03 1.23400707e-02
      2.06378400e-01 3.37548912e-01 4.81347114e-01 4.58860099e-02
      2.34280042e-02 4.66920622e-02 4.63821198e-04 5.02824178e-03
      1.99604388e-02 1.13140479e-01 2.38815263e-01 5.08636534e-01
      2.52559423e-01 1.32248327e-01 3.34352478e-02 0. 1.82741545e-02
      8.66931584e-03 4.88840323e-03 4.23710700e-03 7.27576539e-02
      1.88896611e-01 4.23532397e-01 1.19399749e-01 4.49728295e-02
      6.00086376e-02 7.59145468e-02 1.29014954e-01 4.01063897e-02
      9.06926207e-03 1.02985144e-01 3.15547109e-01 1.36775479e-01
      1.14373021e-01 2.82164570e-02 1.94299500e-02 5.42588159e-02
      4.46987897e-02 4.83822465e-01 2.26267278e-01 2.45002404e-01
      4.24010344e-02 6.27644733e-02 5.73846959e-02 1.80501696e-02
      6.22057095e-02 7.55738243e-02 1.98807895e-01 2.30865538e-01
      3.06969374e-01 8.13306347e-02 1.53379232e-01 1.77143086e-02
      7.23280087e-02 3.11125815e-01 1.37716249e-01 3.11739533e-03
      5.86981280e-03 3.60346809e-02 2.74242721e-02 2.94994637e-02
      1.03988862e-02 6.20390400e-02 3.03376943e-01 1.80136025e-01
      2.55027246e-02 1.02855023e-02 1.71640906e-02 2.34429482e-02
      3.78431636e-03 1.12321265e-02 6.63125096e-03 1.73334390e-01
      2.77167290e-01 1.30694628e-01 1.13093093e-01 1.46915898e-01
      3.53467539e-02 3.95834148e-02 3.86423641e-03 2.34221257e-02
      2.93353796e-01 5.62687278e-01 4.07930970e-01 7.30546340e-02
      4.38284427e-02 4.27737013e-02 2.68693967e-03 7.86035694e-03
      1.84872542e-02 3.90372984e-02 3.43757831e-02 3.40352766e-02
      8.12095702e-02 1.09020986e-01 3.44062336e-02 3.35115916e-03
      4.44515087e-02 1.17000220e-02 1.62933022e-02 4.18441333e-02
      2.86976192e-02 2.95333415e-01 5.09728670e-01 7.61197284e-02
      4.29350771e-02 1.18908321e-03 1.38910068e-02 6.73559085e-02
      2.56794453e-01 2.05798700e-01 1.39161170e-01 2.08673730e-01
      7.50325769e-02 2.55708187e-03 5.64286262e-02 9.42842439e-02
      1.76675022e-01 8.12691301e-02 4.48340736e-02 3.12771320e-01
      5.09728670e-01 1.29785627e-01 5.79628758e-02</_>
    <_>
      3.36902738e-02 5.13677783e-02 9.54428862e-04 2.77025867e-02
      4.27051455e-01 1.90768883e-01 1.91780955e-01 1.43936956e-02
      5.40372776e-03 1.21667854e-01 7.43447021e-02 3.21006191e-05
      3.51813920e-02 4.27051455e-01 8.38818923e-02 4.37916480e-02
      5.81916980e-03 2.71757580e-02 8.02159458e-02 3.04224938e-01
      3.60003524e-02 1.62481721e-02 1.73417747e-01 8.69723707e-02
      4.27051455e-01 5.30062281e-02 5.48435980e-03 2.35589817e-01
      3.48093599e-01 1.11596035e-02 1.08903283e-02 1.28609419e-01
      4.89682071e-02 2.45428663e-02 1.95518006e-02 3.88242491e-02
      1.73636198e-01 2.73536313e-02 1.32847825e-04 2.45872661e-02
      5.74742973e-01 4.16736491e-02 8.57077446e-03 1.71822626e-02
      6.30940050e-02 1.66384801e-01 2.99259163e-02 2.45273928e-03
      4.84858975e-02 5.74742973e-01 1.48214940e-02 2.04395037e-03
      1.52927972e-02 5.32031246e-02 2.25729272e-01 9.22517702e-02
      2.90598115e-03 1.31552434e-02 1.27182260e-01 6.94946712e-03
      6.18947716e-03 1.51713580e-01 1.38384119e-01 1.31964877e-01
      5.14901541e-02 1.98647566e-03 3.05909216e-02 2.10247710e-01
      6.75852448e-02 6.26204014e-02 2.18276948e-01 1.49567023e-01
      9.95095521e-02 3.23357396e-02 1.11138057e-02 8.05390477e-02
      5.47163546e-01 3.60959917e-02 4.49928688e-03 2.41340045e-03
      3.56804654e-02 1.06801726e-01 5.17587774e-02 2.94436608e-02
      1.30699486e-01 5.47163546e-01 9.63818356e-02 3.79387140e-02
      4.52218205e-02 4.29690965e-02 1.06509976e-01 1.02995172e-01
      2.19236910e-02 6.02234825e-02 2.16904908e-01 1.93036199e-01
      5.78207374e-02 4.76873852e-02 3.93130518e-02 1.87775955e-01
      2.14718610e-01 1.10722214e-01 1.63215414e-01 2.32375994e-01
      1.82686925e-01 3.26258428e-02 3.81548628e-02 3.54352258e-02
      3.47096808e-02 2.69072838e-02 1.41443005e-02 7.87189156e-02
      5.40618360e-01 5.97554296e-02 7.62672275e-02 8.88863802e-02
      7.24514723e-02 2.91984808e-02 4.14261967e-02 4.05066907e-02
      8.09143037e-02 5.40618360e-01 3.97429466e-02 4.93936352e-02
      6.11234978e-02 1.17972016e-01 9.77374986e-02 1.41618147e-01
      6.69309050e-02 5.99263869e-02 1.24192290e-01 5.13978936e-02
      3.79823707e-02 9.45971310e-02 1.50417179e-01 7.19036758e-02
      8.96084160e-02 5.42438142e-02 3.16372551e-02 1.71574205e-01
      1.76515765e-02 3.20461467e-02 1.87855855e-01 4.18093264e-01
      3.15609016e-02 4.07333113e-02 3.72304171e-02 9.21570882e-02
      5.64612567e-01 1.56064117e-02 1.06074065e-02 1.46846175e-02
      5.08312061e-02 4.66271006e-02 3.16989571e-02 2.42427438e-02
      8.93209502e-02 5.64612567e-01 5.28793074e-02 1.40425162e-02
      1.67009402e-02 5.62073402e-02 3.84646766e-02 5.92205822e-02
      8.56913850e-02 2.10272968e-02 1.54208988e-01 7.25578591e-02
      6.88124374e-02 8.12859982e-02 2.13819608e-01 7.17259794e-02
      1.68428421e-01 1.03298455e-01 2.27404367e-02 3.50549728e-01
      1.96959361e-01 8.80911276e-02 1.49532994e-02 9.83900502e-02
      1.88335814e-02 2.07118727e-02 1.45727117e-02 6.66133016e-02
      5.52284181e-01 5.76738007e-02 2.29050778e-02 1.73152294e-02
      6.25014678e-02 2.85275821e-02 9.98061057e-03 4.32351744e-03
      1.24545075e-01 5.52284181e-01 6.20968491e-02 3.39633226e-02
      3.72215360e-02 1.65750414e-01 6.15121163e-02 1.63621902e-01
      7.63949156e-02 2.57325247e-02 1.98249727e-01 6.35194629e-02
      2.17912290e-02 1.77634433e-02 8.88917148e-02 1.35994181e-01
      1.01296283e-01 3.81319188e-02 2.71128397e-02 2.35091075e-01
      2.46427488e-02 2.09203195e-02 7.66745806e-02 3.72057229e-01
      2.60082800e-02 8.85098334e-03 3.48006971e-02 8.09226930e-02
      3.89294803e-01 5.12131192e-02 8.62116553e-03 1.78800635e-02
      6.25504851e-02 1.96641423e-02 1.21899948e-01 3.89294803e-01
      3.28332007e-01 3.89294803e-01 8.68067741e-02 1.04048345e-02
      3.00948676e-02 3.66202183e-02 6.04086071e-02 4.29800972e-02
      8.22565779e-02 1.92942042e-02 1.24391288e-01 1.85949281e-02
      6.70390055e-02 9.44819525e-02 1.93650544e-01 2.69915387e-02
      3.46553624e-01 3.89294803e-01 9.09940377e-02 7.26847351e-02
      2.12681312e-02 1.07407533e-01 1.03525572e-01 7.10916221e-02
      5.76948859e-02 3.84022653e-01 1.90559700e-01 8.20346083e-03
      3.80850360e-02 1.10318698e-02 3.84022653e-01 9.78690907e-02
      3.06049758e-03 9.77885202e-02 3.36646140e-01 6.70970306e-02
      1.86541714e-02 5.25477668e-03 6.69794623e-03 1.39855198e-03
      9.95126646e-03 8.20646901e-03 2.80675255e-02 2.73945421e-01
      3.84022653e-01 9.70491245e-02 4.06297594e-02 3.73988622e-03
      3.84022653e-01 2.40309507e-01 1.74943253e-03 1.09655652e-02
      1.64629385e-01 2.06472784e-01 1.11339428e-01 1.93578601e-02
      7.04508461e-03 8.55266210e-03 0. 1.04669387e-04 6.17277548e-02
      1.06373295e-01 3.08908317e-02 2.23344788e-02 1.77231571e-03
      2.23517907e-03 1.26087796e-02 1.85365021e-01 7.95455799e-02
      1.47342356e-02 5.26724234e-02 1.63969919e-02 2.25573294e-02
      5.66767231e-02 1.13626339e-01 3.13245714e-01 4.60180581e-01
      1.87715426e-01 3.29351984e-03 1.04987070e-01 1.05999298e-01
      4.55518700e-02 2.64716744e-02 6.82785884e-02 6.74271062e-02
      7.52531365e-02 1.67339947e-02 1.70589925e-03 6.94123507e-02
      6.40337095e-02 2.06738617e-02 3.10674943e-02 2.88444787e-01
      4.60180581e-01 4.60180581e-01 1.25334606e-01 5.20498157e-02
      1.67447314e-01 1.05827935e-01 3.24198194e-02 1.02087930e-01
      1.51052833e-01 2.22424373e-01 1.18498228e-01 4.01195437e-02
      1.59167588e-01 3.14913720e-01 2.49705449e-01 8.99692327e-02
      6.51537776e-02 8.65858123e-02 3.48833576e-02 1.74610894e-02
      1.76561736e-02 1.16802827e-02 1.21617928e-01 3.09052378e-01
      1.32598102e-01 1.55437179e-02 1.06538765e-01 3.92078698e-01
      2.81257480e-01 1.20733097e-01 3.94645296e-02 1.71237633e-01
      3.98657411e-01 2.41801545e-01 8.23806413e-03 9.37829074e-03
      4.53209914e-02 4.23810221e-02 8.26070979e-02 1.39368564e-01
      1.91546276e-01 1.89823091e-01 8.50316361e-02 4.28157160e-03
      1.61408000e-02 3.41847609e-03 3.97595167e-02 1.18063100e-01
      5.60987107e-02 8.29927698e-02 1.12486184e-01 4.94100153e-02
      1.79498270e-03 2.33906563e-02 1.67619765e-01 2.84958780e-01
      4.25172836e-01 2.89240386e-02 8.08235109e-02 3.78945231e-01
      1.58502355e-01 1.14712091e-02 0. 0. 1.76692083e-02 3.27022038e-02
      5.64963510e-03 8.63872617e-02 2.44971171e-01 7.66175091e-02
      2.15868317e-02 5.50584570e-02 4.93251324e-01 2.48240083e-01
      6.88414648e-02 1.13008833e-02 3.78084667e-02 4.38020527e-02
      8.05269927e-03 1.89637262e-02 1.36580139e-01 2.47238994e-01
      1.35075808e-01 1.45152673e-01 4.56725769e-02 3.57105613e-01
      1.24787122e-01 3.68253980e-03 1.34928212e-01 2.41574466e-01
      1.84501454e-01 2.60003693e-02 2.78872121e-02 5.52366022e-03
      5.21540232e-02 6.13562129e-02 2.43469067e-02 7.15057692e-03
      1.08423844e-01 3.80249947e-01 2.68007129e-01 6.37113824e-02
      4.26642224e-02 3.44064176e-01 3.02135944e-01 2.37655237e-01
      3.56397107e-02 1.35466963e-01 2.39659563e-01 1.62880957e-01
      7.07394183e-02 8.57382491e-02 4.87430155e-01 2.22572848e-01
      1.30765000e-02 9.07075331e-02 8.04659203e-02 1.94152892e-02
      5.98268770e-03 2.85849459e-02 1.51699558e-01 2.14416280e-01
      1.30380839e-01 9.54321027e-03 1.68485735e-02 3.70139116e-03
      5.79415634e-03 6.17030114e-02 2.06557781e-01 5.42808659e-02
      3.72707695e-01 4.47940856e-01 3.09280068e-01 6.10218011e-02
      3.39483172e-02 3.72259249e-03 3.08939796e-02 2.96418145e-02
      4.06486429e-02 1.16417482e-01 2.65942633e-01 1.14376292e-01
      6.61958978e-02 1.48991952e-02 3.47649376e-03 3.04574706e-02
      4.71855402e-02 2.46314071e-02 4.66778576e-02 9.50909704e-02
      1.36896619e-04 8.42304062e-03 2.94742198e-03 8.89055580e-02
      1.62365735e-01 8.79980400e-02 5.46674943e-03 3.32800120e-01
      4.68543619e-01 0. 2.23286953e-02 1.76845328e-03 1.41768038e-01
      2.17157900e-01 3.49085107e-02 5.23029733e-03 4.86366488e-02
      1.19320467e-01 1.39764948e-02 1.67067144e-02 3.83510925e-02
      1.53349876e-01 1.32073134e-01 1.85575690e-02 1.04391351e-02
      3.94226432e-01 4.68543619e-01 1.54238718e-03 2.94371955e-02
      4.74411696e-02 2.51738399e-01 2.00991005e-01 1.67958327e-02
      1.52777448e-01 6.36691526e-02 3.32223922e-01 1.65757000e-01
      8.52099657e-02 3.93959880e-03 2.78476626e-01 2.51421422e-01
      4.17497344e-02 4.68358807e-02 4.70173955e-02 2.02050105e-01
      2.07534268e-01 1.20131388e-01 4.44466136e-02 1.59203336e-02
      3.39379609e-02 2.47701015e-02 1.93093568e-01 2.26297099e-02
      1.78863779e-01 2.59131134e-01 1.28313914e-01 3.21560353e-02
      1.87035635e-01 2.82565475e-01 8.99239406e-02 6.87292144e-02
      2.31089350e-02 1.47330567e-01 2.30864197e-01 2.84336001e-01
      1.90220311e-01 1.34152278e-01 2.74375200e-01 8.14918652e-02
      4.28384030e-03 3.82378697e-02 7.91018233e-02 9.14437547e-02
      1.84850305e-01 1.49817780e-01 4.41585258e-02 1.57290008e-02
      2.10601115e-03 1.19197974e-03 2.13018619e-02 6.76215738e-02
      6.80402517e-02 1.49329141e-01 2.28117123e-01 2.61947453e-01
      2.97464669e-01 1.06550202e-01 1.18533242e-02 2.13222094e-02
      6.11612462e-02 1.94590747e-01 3.98178428e-01 2.20029727e-01
      6.02933951e-02 1.23396128e-01 5.77101260e-02 8.15179292e-03
      3.15295681e-02 1.39992192e-01 3.95069391e-01 3.98178428e-01
      1.46193087e-01 4.23073806e-02 1.66318133e-01 1.05811685e-01
      3.50510771e-03 1.14514614e-02 1.55983806e-01 1.46094576e-01
      2.24269480e-02 5.00607714e-02 1.37662023e-01 2.81456500e-01
      2.07121164e-01 6.83953799e-03 2.23601051e-02 3.36480290e-01
      3.72780412e-01 2.01595835e-02 6.52999850e-03 1.72518697e-02
      1.13431692e-01 1.25381231e-01 1.59347907e-03 1.27244592e-02
      9.70640182e-02 2.17923760e-01 1.10472515e-01 7.54653215e-02
      4.19668742e-02 3.03918570e-01 1.53557673e-01 4.11710236e-04
      1.48993433e-02 1.37645319e-01 3.72780412e-01 1.21089548e-01
      4.07895371e-02 8.01746249e-02 3.68284464e-01 1.22927472e-01
      2.49481946e-03 2.02263482e-02 1.59798294e-01 2.83213764e-01
      9.75062028e-02 7.58904871e-03 1.05448335e-03 9.88723058e-03
      4.30675829e-03 0. 2.50913650e-02 1.07855946e-01 1.26678541e-01
      1.66401535e-01 1.83523044e-01 1.87352270e-01 7.15536326e-02
      5.53340302e-04 0. 9.51199327e-03 1.15518637e-01 4.19119984e-01
      4.38047558e-01 1.95545889e-02 7.46224299e-02 1.03671439e-01
      1.92653183e-02 0. 1.55556565e-02 1.60842836e-01 2.76528597e-01
      4.41494614e-01 2.25780025e-01 5.09228781e-02 2.69390345e-02 0.
      5.13520848e-04 2.55034883e-02 4.32661287e-02 3.75558995e-02
      4.82680462e-02 1.25909388e-01 2.22921565e-01 2.56026000e-01
      6.19479641e-02 4.35953913e-03 6.00677505e-02 1.99348450e-01
      3.44513655e-01 5.73029779e-02 5.58729805e-02 9.41928178e-02
      3.72726709e-01 1.47836655e-01 0. 2.46905703e-02 7.56207854e-02
      1.45627677e-01 2.55156010e-01 1.45094693e-01 4.58482541e-02
      1.91060022e-01 4.16906662e-02 0. 1.64683443e-02 1.42033368e-01
      3.07245225e-01 2.24146217e-01 5.92440851e-02 5.33224456e-02
      3.92461866e-01 1.93041787e-01 3.73365474e-03 2.94958744e-02
      2.45688885e-01 3.92804086e-01 6.55352473e-02 1.43014975e-02
      8.34435341e-04 8.47986341e-02 3.97189260e-02 2.15472165e-03
      7.76285306e-03 1.48321703e-01 2.34383866e-01 1.57738701e-01
      4.78947125e-02 0. 7.45773409e-03 1.05802314e-02 0. 1.65143504e-03
      1.71759233e-01 4.02001381e-01 1.33130848e-01 1.30002229e-02
      4.76322174e-02 3.31303418e-01 7.15966895e-02 0. 6.48573332e-04
      7.59691894e-02 4.02001381e-01 4.02001381e-01 7.54947290e-02
      2.62742806e-02 3.60429659e-02 9.84228216e-04 4.74862929e-04
      3.71023938e-02 7.97394142e-02 4.25401628e-02 5.21409698e-02
      1.03357770e-01 1.27059832e-01 2.90833879e-02 9.56993364e-03
      1.12176901e-02 3.68159711e-01 4.56532866e-01 6.92086760e-03
      1.17185200e-02 9.95142236e-02 2.11766377e-01 4.38664258e-02
      1.56409610e-02 0. 4.98989187e-02 1.04293637e-01 1.12946220e-01
      2.10210398e-01 1.42348111e-01 6.77937195e-02 1.45807341e-02
      9.76241950e-04 4.13666898e-03 4.56532866e-01 4.56532866e-01
      3.26287039e-02 9.31296870e-02 1.40114188e-01 1.09842911e-01
      2.27176007e-02 4.72241407e-03</_>
    <_>
      1.14409886e-01 1.73536278e-02 1.03624016e-02 2.48821639e-02
      4.08410043e-01 2.34579042e-01 1.47674188e-01 6.69574812e-02
      9.60618351e-03 2.47754529e-01 2.11678464e-02 4.61157691e-03
      7.45590702e-02 4.08410043e-01 8.12486410e-02 9.65580530e-03
      3.21735591e-02 1.17360801e-01 2.37483636e-01 1.40312746e-01
      9.59393010e-02 3.05071496e-03 1.11428052e-01 9.49144214e-02
      2.72346705e-01 1.48212209e-01 3.16625573e-02 4.08410043e-01
      1.25314087e-01 7.68293068e-02 1.19481832e-02 1.87491402e-01
      1.23160727e-01 4.39576991e-02 4.94352467e-02 1.75408989e-01
      8.98095891e-02 4.15796740e-03 1.40398857e-04 9.64141041e-02
