<?xml version="1.0"?>
<opencv_storage>
<my_svm type_id="opencv-ml-svm">
  <svm_type>C_SVC</svm_type>
  <kernel><type>RBF</type>
    <gamma>3.3750000000000002e-02</gamma></kernel>
  <C>1.2500000000000000e+00</C>
  <term_criteria><epsilon>1.1920928955078125e-07</epsilon>
    <iterations>1000</iterations></term_criteria>
  <var_all>756</var_all>
  <var_count>756</var_count>
  <class_count>2</class_count>
  <class_labels type_id="opencv-matrix">
    <rows>1</rows>
    <cols>2</cols>
    <dt>i</dt>
    <data>
      0 1</data></class_labels>
  <sv_total>325</sv_total>
  <support_vectors>
    <_>
      3.27551723e-01 1.06140174e-01 9.87951308e-02 3.38623412e-02
      1.73313986e-03 1.86480011e-03 6.47378899e-03 4.03470583e-02
      1.71561137e-01 3.27551723e-01 1.13801822e-01 1.47039607e-01
      5.11271283e-02 3.43165128e-03 3.95750487e-03 4.86765206e-02
      1.24829113e-01 2.48453945e-01 1.13697164e-01 1.67448014e-01
      3.27551723e-01 1.99730799e-01 1.40256807e-02 1.30536007e-02
      3.76777761e-02 3.14535983e-02 5.27639687e-02 2.67946184e-01
      1.73229247e-01 3.27551723e-01 2.37456590e-01 1.27317128e-03
      3.80798336e-03 2.71616787e-01 2.71290451e-01 7.34343007e-02
      3.39831471e-01 3.54502276e-02 3.35419625e-02 8.71615298e-03
      7.85186142e-03 1.19946217e-02 1.06308691e-01 1.56942889e-01
      2.93907881e-01 3.39831471e-01 7.11959898e-02 2.41870731e-02 0.
      9.41335037e-03 1.14267347e-02 6.09607697e-02 7.76076317e-02
      3.39831471e-01 1.26482472e-01 6.65366799e-02 1.17573805e-01
      4.34459299e-02 8.64623301e-03 1.33511471e-02 3.39831471e-01
      3.39831471e-01 6.02365322e-02 6.45223781e-02 6.53826371e-02
      1.45122437e-02 3.83660756e-03 5.25723323e-02 7.30111897e-02
      3.39831471e-01 3.14959109e-01 8.44249427e-02 4.29125279e-01
      9.79191065e-02 1.89535599e-02 0. 4.33444045e-03 3.22832447e-03
      7.37010548e-03 2.49504298e-02 4.28927392e-01 4.29125279e-01
      8.62756819e-02 1.88151207e-02 0. 4.51142108e-03 0. 3.25615495e-03
      8.48792773e-03 3.37628812e-01 1.53496072e-01 9.52742696e-02
      1.13721369e-02 7.27720372e-03 7.22199082e-02 9.11652744e-02
      2.84296393e-01 1.15070902e-01 1.67681471e-01 3.16515058e-01
      4.87878770e-02 1.12890732e-02 2.06111209e-03 5.38595021e-02
      2.89236698e-02 5.17493933e-02 4.60144281e-02 1.76447660e-01
      4.84649509e-01 1.05912745e-01 1.77057721e-02 0. 7.03208521e-03 0.
      8.53448291e-04 2.47050300e-02 2.02274889e-01 4.84649509e-01
      1.32445246e-01 2.04882789e-02 0. 6.81011053e-03 0. 9.19136032e-03
      6.34101555e-02 4.69680965e-01 3.08656424e-01 6.04730435e-02
      2.25139279e-02 5.44890668e-03 2.89077479e-02 4.07367572e-03
      7.90049508e-03 6.52293041e-02 8.77522603e-02 2.22613961e-01
      9.57608446e-02 4.41911854e-02 1.18477736e-02 2.13904567e-02
      8.45848490e-03 7.26601407e-02 1.83543473e-01 1.30075350e-01
      4.63732630e-01 3.88428532e-02 1.05179735e-02 6.71817863e-04
      3.26458015e-03 0. 7.55380047e-03 2.21814793e-02 4.63732630e-01
      4.63732630e-01 1.33917090e-02 7.55657163e-03 1.11969654e-03
      4.29672981e-03 0. 4.79853712e-03 2.69012190e-02 4.63732630e-01
      1.23868242e-01 3.35338451e-02 2.09186636e-02 1.84732582e-02
      3.84096131e-02 6.18272694e-03 5.80574647e-02 9.22056288e-02
      1.51272610e-01 1.67135626e-01 2.44293641e-02 4.42156941e-02
      3.35841626e-02 3.83358262e-02 2.04755203e-03 1.63779985e-02
      6.50091246e-02 2.02225581e-01 4.74343389e-01 5.79910502e-02
      1.34928301e-02 6.91433845e-04 6.81312336e-03 0. 1.58702547e-03
      1.04466854e-02 4.14645284e-01 4.74343389e-01 6.16416037e-02
      7.65220216e-03 8.81006708e-04 1.41126793e-02 0. 3.31809856e-02
      2.36262176e-02 4.46780235e-01 1.66259155e-01 9.13496464e-02
      6.37304261e-02 2.40097996e-02 3.07714567e-02 0. 4.14631423e-03
      2.15260424e-02 1.27178505e-01 2.75435507e-01 9.48488489e-02
      3.50933149e-02 1.34633658e-02 2.06017941e-02 1.12289954e-02
      6.66947067e-02 3.04823536e-02 1.17754407e-01 3.85989100e-01
      4.41228524e-02 1.76437796e-04 1.03600521e-03 6.01773225e-02
      3.46036516e-02 6.84158877e-02 2.61459891e-02 2.03842565e-01
      2.16673255e-01 6.64652437e-02 0. 1.62344694e-01 4.29660648e-01
      1.85621545e-01 2.34751791e-01 1.28506478e-02 1.74341068e-01
      9.74424854e-02 1.01259984e-02 1.49128225e-03 2.69032829e-02
      2.49810427e-01 4.71844226e-02 8.98405090e-02 2.97505669e-02
      2.79382430e-02 4.06737365e-02 5.89398155e-03 0. 3.02784652e-01
      4.29660648e-01 2.05327496e-01 7.16039613e-02 1.09103704e-02
      2.26108525e-02 7.30696172e-02 2.34291077e-01 2.85672039e-01
      2.57057130e-01 6.92233965e-02 3.47571261e-02 1.85946990e-02
      5.29490784e-03 5.07746870e-03 1.03249632e-01 1.95843980e-01
      2.85672039e-01 1.48467198e-01 4.89052981e-02 2.03946736e-02
      1.34866849e-01 1.36232376e-01 3.85253131e-02 1.65224865e-01
      1.54571965e-01 2.21064404e-01 2.85672039e-01 1.92453250e-01
      2.20844537e-01 9.81135964e-02 1.08962715e-01 9.74621847e-02
      2.16844484e-01 1.61780849e-01 1.37024999e-01 1.79168701e-01
      2.85672039e-01 2.48716354e-01 3.58438939e-02 9.88851637e-02
      1.09723985e-01 1.70078427e-02 3.17173637e-02 4.52843159e-02
      2.32217927e-02 3.98083925e-02 3.50557156e-02 2.89054334e-01
      2.51705140e-01 5.27192913e-02 6.52668299e-03 5.82062034e-03 0.
      3.16336118e-02 1.69097126e-01 1.86638057e-01 2.89054334e-01
      2.31563419e-01 3.55322286e-02 3.96704413e-02 3.86550575e-02
      1.78301297e-02 6.79206625e-02 2.71463871e-01 2.48922393e-01
      1.60879463e-01 2.44503632e-01 1.46320641e-01 1.20208554e-01
      8.94060880e-02 9.78456903e-03 2.03335479e-01 2.89054334e-01
      2.76399374e-01 2.89054334e-01 2.56539702e-01 1.17718630e-01
      2.51613185e-02 9.04317200e-03 0. 4.10940945e-02 4.08489078e-01
      3.35173845e-01 4.08489078e-01 1.06343068e-01 3.77157964e-02
      4.26153019e-02 8.32604896e-03 1.47531671e-03 1.04124835e-02
      1.31042808e-01 9.06896517e-02 4.68574576e-02 4.12674844e-02
      4.60959710e-02 1.40112311e-01 8.08167532e-02 9.37509071e-03
      2.41777912e-01 4.08489078e-01 3.70980769e-01 2.07857400e-01
      7.98204318e-02 6.06910735e-02 4.43062633e-02 7.82878418e-03
      1.17835812e-02 4.87840734e-02 1.89725488e-01 1.28725305e-01
      1.13079455e-02 1.32860811e-02 3.78111117e-02 1.69852734e-01
      6.40677214e-02 6.38070181e-02 9.93067101e-02 1.20464720e-01
      6.65603429e-02 4.34644446e-02 1.75766364e-01 1.01821087e-01
      6.36131540e-02 1.48271099e-01 1.80632785e-01 1.54110447e-01
      2.32066482e-01 1.64459139e-01 2.08660290e-01 4.02438760e-01
      8.92577991e-02 2.22750336e-01 4.62666713e-02 3.96581180e-02
      1.21899657e-01 1.09015442e-01 1.39722392e-01 7.07835853e-02
      6.65958300e-02 1.27200782e-01 3.46027702e-01 2.12885961e-01
      2.62602955e-01 1.61440551e-01 1.59274220e-01 2.11447880e-01
      1.74791545e-01 7.14392290e-02 1.18777394e-01 2.65746657e-02
      6.71683103e-02 6.92398027e-02 9.07628015e-02 2.92242199e-01
      1.39726534e-01 1.37080118e-01 1.96811542e-01 5.50310053e-02
      3.65712680e-02 2.76470650e-02 1.46515235e-01 1.54705852e-01
      3.07720482e-01 7.38726631e-02 4.76582944e-02 6.86932728e-02
      5.45071885e-02 2.30765760e-01 1.21056527e-01 1.89252391e-01
      9.34993103e-02 1.88169926e-01 2.55831361e-01 1.72451481e-01
      2.51097288e-02 4.64305691e-02 2.56451756e-01 1.46907736e-02
      1.40729591e-01 7.44357854e-02 4.30369079e-01 2.17606828e-01
      1.39042452e-01 7.26722926e-02 2.38884732e-01 2.27626357e-02
      6.71285987e-02 1.71528459e-01 1.31575391e-01 2.23533556e-01
      7.92598166e-03 8.33413843e-03 1.94955803e-02 2.21106671e-02
      6.40020519e-02 8.11647400e-02 9.12813246e-02 6.42523989e-02
      1.58178076e-01 7.66789690e-02 7.52345398e-02 8.06882307e-02
      7.26626068e-02 1.40847594e-01 1.44874966e-02 1.40864164e-01
      6.63226694e-02 2.70040333e-01 6.15008920e-02 2.03199051e-02
      1.33240864e-01 3.94323975e-01 4.15033668e-01 6.24806993e-02
      1.16902545e-01 4.43100780e-02 2.69070715e-01 1.14139982e-01
      2.74987780e-02 1.31851301e-01 4.77259099e-01 1.09745935e-02
      3.14857089e-03 8.62192921e-03 4.47854102e-02 2.73155719e-01
      5.47021925e-02 2.18423847e-02 1.91095658e-02 9.94509645e-03
      1.89430155e-02 7.83496725e-05 4.52328194e-03 2.31951356e-01
      4.91220683e-01 2.33696520e-01 1.00548482e-02 4.52422351e-03
      1.58677902e-02 1.08171873e-01 2.38530040e-02 3.28065120e-02
      3.20738442e-02 2.78539926e-01 5.62388226e-02 2.48845876e-03
      1.23038385e-02 3.56608555e-02 5.78004159e-02 2.86490209e-02
      2.90311128e-02 1.25884727e-01 4.91220683e-01 4.52309579e-01
      1.78280941e-04 1.52801315e-03 2.41420567e-02 8.50659236e-02
      1.46419806e-02 4.95540425e-02 1.03152916e-01 1.68880746e-01
      1.74990609e-01 9.76323858e-02 1.97207808e-01 1.40782565e-01
      8.99301469e-02 1.14709027e-01 3.37351114e-02 1.85306236e-01
      2.89479584e-01 2.89479584e-01 6.55162483e-02 1.87926784e-01
      1.19152866e-01 1.97968155e-01 7.54209748e-03 1.89021342e-02
      2.87092961e-02 1.05151162e-01 1.46306977e-01 5.89574613e-02
      1.42763719e-01 2.51535177e-01 2.56173551e-01 1.78232640e-01
      2.44988091e-02 8.28645155e-02 2.54544377e-01 2.55601138e-01
      9.19272304e-02 2.89479584e-01 2.89479584e-01 4.79207672e-02
      1.64821938e-01 4.05630879e-02 1.44151330e-01 2.82180399e-01
      2.79276252e-01 6.14995100e-02 1.51992887e-01 8.85561705e-02
      2.24326029e-01 1.95531324e-01 5.26071601e-02 1.34972870e-01
      2.82180399e-01 1.24680459e-01 7.27690980e-02 1.62015915e-01
      9.33403000e-02 2.66996175e-01 2.73133904e-01 7.68345296e-02
      1.20976739e-01 2.13255569e-01 9.67569798e-02 2.97300778e-02
      1.56178445e-01 2.30057225e-01 2.82180399e-01 1.55695185e-01
      7.08558038e-02 6.01604097e-02 1.38738275e-01 2.88079940e-02 0.
      1.68516994e-01 2.18002394e-01 2.20287889e-01 8.90392736e-02
      1.42615344e-02 7.04613253e-02 2.83789784e-01 4.47080806e-02
      1.55356079e-02 4.97221053e-02 6.74420074e-02 2.64693707e-01
      3.30541097e-02 6.81930222e-03 2.06418931e-02 4.47768532e-02
      2.71185972e-02 2.64814706e-03 8.28171242e-03 7.80155063e-02
      4.28593367e-01 5.22033088e-02 1.00096324e-02 5.21718850e-03
      6.35060742e-02 2.63320352e-03 0. 1.44386604e-01 4.09678608e-01
      4.28593367e-01 7.02711269e-02 6.69168634e-03 2.10976158e-03
      1.03050083e-01 1.71432260e-03 3.78306780e-04 3.87919955e-02
      4.28593367e-01 2.22446874e-01 1.35384621e-02 2.02909252e-03
      4.19314252e-03 3.86468275e-03 8.83611105e-03 5.02634514e-03
      2.86659109e-03 9.22833085e-02 3.10081750e-01 2.98601929e-02
      2.11508665e-02 5.31168608e-03 1.71433610e-03 6.42031478e-03
      8.32720287e-03 3.65601829e-03 1.15183227e-01 4.42926705e-01
      4.50710505e-02 1.61018446e-02 2.89415038e-04 1.42802104e-01
      8.94874567e-04 5.23709925e-04 3.72508715e-04 4.42926705e-01
      4.42926705e-01 3.51143070e-02 1.21235186e-02 2.79696862e-04
      1.32410035e-01 2.68373726e-04 1.76242524e-04 4.60614479e-04
      4.42926705e-01 2.26692691e-01 5.06535061e-02 2.15575323e-02
      5.83920861e-03 3.88869294e-03 1.21914307e-02 9.51500423e-03
      4.51105734e-04 4.27378304e-02 2.46868238e-01 3.87613289e-02
      8.26039258e-03 4.97893523e-03 2.24029403e-02 1.47945760e-02
      8.18155333e-03 1.20884124e-02 1.27672300e-01 4.72055823e-01
      6.68195933e-02 2.70343525e-03 3.93619091e-04 2.55970173e-02
      5.77517785e-04 0. 5.66085728e-05 4.25071597e-01 4.72055823e-01
      6.76769540e-02 9.02575557e-04 5.30230394e-03 6.28511654e-03
      9.62529622e-04 0. 1.72691618e-03 4.72055823e-01 1.55367464e-01
      6.66891644e-03 3.56462435e-03 8.90501589e-03 1.31549044e-02
      6.10137498e-03 4.78263246e-03 1.98486373e-02 1.67829871e-01
      2.21811190e-01 4.71723499e-03 6.41964702e-03 8.80883355e-03
      2.08133794e-02 1.50339203e-02 6.79794420e-03 1.26557173e-02
      2.33757660e-01 4.66930121e-01 2.43659224e-02 0. 1.38287693e-02
      9.40774195e-03 3.70721822e-03 5.47294877e-03 2.83551938e-03
      4.26394612e-01 4.66930121e-01 1.17302295e-02 1.05156819e-03
      1.34288175e-02 1.21035893e-02 7.54086860e-03 9.12158191e-03
      1.67437468e-03 4.66930121e-01 1.62412137e-01 3.10329944e-02
      2.75706183e-02 1.34952758e-02 6.49603009e-02 1.79184452e-02
      4.08402085e-03 1.68890611e-03 1.06770597e-01 1.17845923e-01
      5.05302027e-02 8.81370455e-02 1.15800627e-01 3.47115576e-01
      1.52822554e-01 5.38896071e-03 1.23514357e-04 8.16738904e-02
      3.95459056e-01 1.74023770e-02 1.68196354e-02 1.43465260e-02
      1.29385432e-02 9.10889264e-03 6.53036777e-03 1.17757983e-04
      3.95459056e-01 3.95459056e-01 7.63446912e-02 2.90748268e-01
      1.49496302e-01 1.49376735e-01 4.35999185e-02 8.98160227e-03 0.
      3.95459056e-01</_>
    <_>
      2.92830050e-01 9.93429422e-02 1.76068842e-01 1.49633307e-02
      3.04967165e-01 2.92742610e-01 8.23320542e-03 1.95258949e-02
      2.98479676e-01 3.90968055e-01 1.50773391e-01 5.69048487e-02
      1.51943928e-02 1.28252003e-02 2.36011725e-02 1.17617217e-03
      6.86880499e-02 2.98820674e-01 3.62204053e-02 4.73100506e-02
      7.88721517e-02 2.32545227e-01 3.90968055e-01 2.03899667e-01
      4.93992353e-03 1.17155360e-02 4.00596634e-02 9.05871168e-02
      8.84159133e-02 1.02807358e-01 1.55996025e-01 6.85620531e-02
      3.66707034e-02 1.09572476e-03 4.13431674e-02 9.21285450e-02
      4.70817089e-01 1.13102593e-01 2.72088312e-02 4.84086713e-03
      4.48699854e-03 2.63008811e-02 4.68744012e-03 3.53023671e-02
      3.33018422e-01 4.70817089e-01 2.48607416e-02 1.48487417e-02
      4.24017053e-04 8.81231204e-03 7.62723386e-02 7.48310015e-02
      5.13019264e-02 4.70817089e-01 1.91571772e-01 9.15511400e-02
      5.41029945e-02 4.69007008e-02 1.26748262e-02 5.69205433e-02
      2.16943286e-02 2.89213452e-02 1.02293521e-01 1.92794248e-01
      3.80853228e-02 6.70920685e-02 6.62855282e-02 1.54341999e-02
      1.48429394e-01 1.30744889e-01 6.90710023e-02 1.78490654e-01
      4.51099604e-01 3.94722857e-02 2.07427796e-02 1.33918086e-02
      1.32301794e-02 4.22035195e-02 1.03591561e-01 6.48961216e-02
      4.51099604e-01 4.51099604e-01 8.27452764e-02 5.28923124e-02
      9.88219082e-02 9.49326530e-02 1.24707548e-02 4.49198931e-02
      6.07458502e-02 3.57880533e-01 7.52737224e-02 6.94336295e-02
      1.35287896e-01 7.54764676e-02 7.78698875e-03 5.97559139e-02
      7.99850523e-02 7.00226426e-02 1.59784615e-01 5.47724403e-02
      1.66441157e-01 2.29837328e-01 1.76432073e-01 1.01027958e-01
      1.34460945e-02 1.34721780e-02 2.05852073e-02 5.47012202e-02
      4.28593218e-01 2.28245966e-02 4.70646694e-02 1.74585924e-01
      1.40399694e-01 3.23316716e-02 1.76942106e-02 4.26186770e-02
      3.82491410e-01 1.95695564e-01 2.03821313e-04 1.69210657e-02
      1.09387048e-01 1.71091795e-01 8.34494978e-02 9.25064683e-02
      2.42334843e-01 4.55148220e-01 1.53231947e-02 5.86764254e-02
      1.37885571e-01 1.71429858e-01 1.43288672e-01 4.18990627e-02
      2.54611261e-02 2.57260352e-02 8.22011456e-02 8.92483443e-02
      1.42674916e-03 6.72325119e-02 1.09070629e-01 8.56575519e-02
      1.20718464e-01 1.86888307e-01 7.11403638e-02 2.81807512e-01
      1.38547674e-01 5.26155299e-03 2.04412849e-03 1.15950778e-02
      2.93053780e-02 1.76350940e-02 4.89059128e-02 2.43281648e-01
      3.79609913e-01 3.53766888e-01 2.12848261e-02 1.79595351e-02
      1.90902036e-02 1.71402767e-02 2.07343865e-02 3.65368053e-02
      3.09687972e-01 3.79609913e-01 9.74041298e-02 8.76925513e-03
      3.01205087e-02 5.62909395e-02 5.40082157e-02 4.32750583e-02
      9.67291445e-02 6.46974072e-02 1.93555951e-01 2.93045402e-01
      2.36087918e-01 3.23614001e-01 1.36771381e-01 1.07085995e-01
      5.73024154e-02 2.53337696e-02 4.06695418e-02 2.23844081e-01
      1.66247904e-01 1.02089485e-02 2.91607678e-02 1.31197255e-02
      1.11849513e-02 2.58318847e-03 7.52503192e-03 7.02040344e-02
      2.63900548e-01 3.15847427e-01 3.70061733e-02 4.35692891e-02
      9.41423047e-03 3.90980579e-02 2.84998445e-03 5.58788842e-03
      5.85225224e-02 3.15847427e-01 1.24747597e-01 1.92767903e-01
      3.15847427e-01 9.17837545e-02 6.08771071e-02 6.57454459e-03
      6.12429692e-04 1.54114682e-02 9.78818163e-02 3.15847427e-01
      3.15847427e-01 3.15847427e-01 1.35781750e-01 3.10646683e-01
      7.77319865e-03 7.58101186e-03 2.34066769e-02 3.09990674e-01
      3.09333593e-01 3.19084525e-02 8.92132428e-03 1.99646200e-03
      6.47569373e-02 1.50328996e-02 1.55572239e-02 3.08756586e-02
      3.09333593e-01 3.09333593e-01 1.24382854e-01 2.87433458e-03
      2.85208836e-04 9.75218639e-02 3.15971375e-02 9.60462075e-03
      1.82073917e-02 3.09333593e-01 3.09333593e-01 3.06053638e-01
      2.27750421e-01 4.60427999e-02 3.09333593e-01 3.71804349e-02
      2.59287041e-02 1.09331328e-02 2.46991679e-01 1.56270742e-01
      1.18038110e-01 2.98190713e-02 2.08850428e-02 3.09333593e-01
      9.58456546e-02 1.60077009e-02 1.17393648e-02 1.84044033e-01
      9.91413463e-03 4.01217164e-03 3.41328047e-02 2.90780395e-01
      4.98638242e-01 9.05704126e-02 9.47243767e-04 0. 8.75261612e-03
      3.35863116e-03 1.25029553e-02 4.70377058e-02 1.28528371e-01
      1.94349930e-01 7.33502731e-02 9.06201918e-03 3.54216387e-03
      5.23463544e-03 1.27798775e-02 1.96608598e-03 1.41634804e-03
      2.07060620e-01 4.98638242e-01 4.20474470e-01 3.90481688e-02
      1.53843481e-02 1.24395099e-02 5.67277544e-04 3.27681028e-03
      2.36058026e-03 1.11173987e-02 2.26062939e-01 2.19580024e-01
      1.32092819e-01 5.27383573e-02 2.10742839e-03 6.41245581e-03
      3.66596431e-02 3.55222076e-02 8.06071088e-02 1.06146157e-01
      7.70416036e-02 7.60818794e-02 6.04581423e-02 2.61932611e-02
      9.44916252e-03 9.38421413e-02 1.58982784e-01 2.62423038e-01
      9.85624641e-02 1.45895153e-01 2.10295320e-01 2.90001571e-01
      1.31490126e-01 2.41537150e-02 5.57897314e-02 1.32919531e-02
      4.44421843e-02 1.27161488e-01 1.68006420e-01 2.15912625e-01
      1.58059373e-01 2.27292590e-02 1.33327112e-01 3.47787768e-01
      3.06112200e-01 2.69697875e-01 2.65937299e-01 2.25629747e-01
      2.80286849e-01 2.11591750e-01 6.82024285e-02 1.60346366e-02
      8.62721950e-02 1.87739342e-01 2.16304883e-01 7.27521181e-02
      6.58359751e-02 7.06231818e-02 1.64899826e-01 8.53176638e-02
      2.76865438e-02 8.49069580e-02 2.26411805e-01 3.11072111e-01
      2.38051742e-01 6.37865141e-02 3.88970263e-02 2.20553409e-02
      2.72964910e-02 5.10745421e-02 1.46612361e-01 2.28993803e-01
      2.71307230e-01 1.77676469e-01 1.26492545e-01 2.38398343e-01
      8.60561654e-02 5.14631681e-02 2.67122388e-02 1.43563021e-02
      8.56106207e-02 2.34517127e-01 3.18063885e-01 2.62395263e-01
      3.67170542e-01 4.97319400e-02 3.13690789e-02 2.41599381e-02
      5.26586846e-02 1.78648159e-01 2.19082788e-01 3.59254986e-01
      5.70299551e-02 3.62270512e-02 1.50006656e-02 4.91302088e-02
      6.09754100e-02 4.18420620e-02 1.61037385e-01 1.57604590e-01
      2.25290984e-01 1.52924091e-01 1.92759275e-01 1.18599571e-01
      1.57351270e-01 4.07518968e-02 2.95218490e-02 4.88548949e-02
      8.74103084e-02 3.89085919e-01 2.94935942e-01 2.62196839e-01
      5.79119958e-02 3.47412117e-02 8.24367329e-02 2.06893519e-01
      2.09794357e-01 1.20153025e-01 2.68916994e-01 1.97748870e-01
      5.96748032e-02 7.58846998e-02 1.13958009e-01 4.21390170e-03
      1.26267411e-02 3.17902751e-02 3.33527327e-02 1.10654496e-01
      2.71995179e-02 4.17628326e-02 4.25974056e-02 2.44138837e-02
      6.02738708e-02 2.34838873e-01 3.56314570e-01 2.39756033e-01
      3.56314570e-01 5.64056076e-02 4.11174782e-02 8.19520056e-02
      1.39112249e-02 3.63275502e-03 5.85452169e-02 6.30626157e-02
      5.44538498e-02 1.49017587e-01 3.29335332e-02 1.91374384e-02
      2.45497338e-02 8.31824820e-03 9.37398989e-03 1.36065021e-01
      2.42021903e-01 3.52467626e-01 3.56314570e-01 1.59958199e-01
      2.81679243e-01 3.56314570e-01 7.88235664e-03 3.76920030e-02
      2.08387569e-01 2.66272515e-01 1.61393777e-01 1.60809502e-01
      2.12239884e-02 7.75244879e-03 2.21565757e-02 1.82647929e-02
      1.43214539e-01 2.66272515e-01 2.66272515e-01 2.07769692e-01
      2.66272515e-01 1.13302646e-02 3.93694732e-03 2.35717148e-02
      1.23980761e-01 2.25418899e-02 8.94648880e-02 1.26966909e-01
      1.84665963e-01 2.66272515e-01 1.45117402e-01 1.88757643e-01
      1.78708896e-01 9.24318358e-02 1.63965568e-01 1.03311777e-01
      8.23363811e-02 2.45274112e-01 2.66272515e-01 1.55429587e-01
      1.15559764e-01 1.86914787e-01 2.47477680e-01 2.28564799e-01
      2.16307491e-01 1.63908586e-01 6.64565116e-02 2.27449402e-01
      9.30051971e-03 5.52697890e-02 8.34559277e-02 1.77692920e-01
      1.02463029e-01 6.99173287e-02 6.55428022e-02 5.16796783e-02
      2.72825599e-01 4.06135656e-02 8.16800818e-02 9.63466018e-02
      1.27234295e-01 2.72825599e-01 1.32653788e-01 1.18664689e-01
      1.23216249e-01 2.34320134e-01 5.45063727e-02 1.31308004e-01
      2.72825599e-01 2.43894830e-01 2.10832268e-01 1.47174656e-01
      1.84967771e-01 7.21958727e-02 2.72825599e-01 1.71639055e-01
      1.69148386e-01 2.02178195e-01 1.83624476e-01 4.71084863e-02
      2.10646149e-02 5.32544293e-02 8.22020844e-02 3.78916979e-01
      1.96337298e-01 4.13846858e-02 9.97945759e-03 1.72294900e-02
      1.12155572e-01 2.57723257e-02 1.16048744e-02 2.33564014e-03
      3.98265272e-02 1.13068819e-01 8.09313729e-02 4.26580198e-02
      4.72467989e-02 4.37232345e-01 3.14098075e-02 8.87573808e-02
      1.07022613e-01 2.80130386e-01 2.02652469e-01 1.11926019e-01
      1.42563670e-03 1.68359146e-01 4.37232345e-01 3.67907360e-02
      1.93414576e-02 3.89273348e-03 1.94874778e-02 5.87414019e-02
      2.74416525e-02 1.44491848e-02 4.37232345e-01 1.08653255e-01
      1.71687752e-02 8.20926018e-03 2.37258524e-02 5.64637315e-03
      3.57237980e-02 3.65216732e-02 4.79594655e-02 7.88187832e-02
      1.44583777e-01 6.30129874e-02 5.59569672e-02 6.43514022e-02
      2.65807062e-02 2.47724839e-02 4.61359657e-02 2.78577209e-02
      7.33706430e-02 4.80810136e-01 8.03646911e-03 5.61309606e-03
      1.42355114e-02 1.10173626e-02 1.23072183e-02 1.03378277e-02
      2.97684744e-02 4.80810136e-01 4.80810136e-01 1.46107366e-02
      2.59110127e-02 3.33365276e-02 2.57316139e-02 1.64803804e-03
      8.35759100e-03 2.34149210e-02 4.80810136e-01 8.90046656e-02
      2.83714347e-02 3.85040157e-02 4.29970920e-02 2.64703445e-02
      2.11176574e-02 9.98033509e-02 1.72645692e-02 4.30118926e-02
      7.19794258e-02 1.18777552e-03 7.30124675e-03 1.48625867e-02
      4.38758321e-02 7.13793784e-02 1.45647213e-01 5.56184761e-02
      6.17673211e-02 4.75403130e-01 7.32407579e-03 1.43072531e-02
      1.53810484e-02 4.20978889e-02 1.80939736e-03 3.39699984e-02
      2.06260849e-02 4.75403130e-01 4.75403130e-01 9.11419396e-04
      2.42257398e-03 1.64701999e-03 1.11952797e-01 2.64329072e-02
      5.98409325e-02 6.80783316e-02 4.75403130e-01 6.76550567e-02
      4.55333339e-03 5.56345889e-03 2.87667988e-03 4.43258658e-02
      1.04292937e-01 8.72535184e-02 4.02858742e-02 6.96804225e-02
      7.13745132e-02 5.11156842e-02 6.89418316e-02 1.70211382e-02
      3.56857404e-02 4.26172577e-02 1.68667454e-02 2.19011419e-02
      1.33985400e-01 4.76058304e-01 3.28808394e-03 6.27737120e-03
      7.48395978e-04 1.53948128e-01 5.75349033e-02 3.78442518e-02
      5.44015951e-02 4.76058304e-01 3.81987393e-01 2.48934925e-02
      5.82068376e-02 7.01475330e-03 9.92611125e-02 2.65405867e-02
      9.48480610e-03 2.39067122e-01 4.76058304e-01 3.09094898e-02
      6.79210275e-02 9.35038999e-02 4.59559038e-02 7.45677501e-02
      2.43508685e-02 4.10045683e-03 1.69470329e-02 7.27022961e-02
      1.99168306e-02 3.39166820e-02 4.28168550e-02 2.07349136e-01
      3.68971437e-01 1.47780865e-01 3.84835750e-01 3.84835750e-01
      5.56799546e-02 1.64413378e-01 2.38463972e-02 3.94107588e-02
      1.11565161e-02 6.33209422e-02 1.63666531e-02 5.83954491e-02
      2.31492013e-01 3.78246337e-01 9.40526351e-02 1.87502466e-02
      9.60210990e-03 6.24643974e-02 1.30701885e-01 2.15472385e-01
      2.97770917e-01 1.70859084e-01 1.90134019e-01 1.21054091e-02
      1.11592142e-03 0. 6.75757378e-02 1.47997364e-01 1.49218261e-01
      2.87597269e-01 2.20071211e-01 8.46244618e-02 9.38039348e-02
      1.85236067e-03 3.84537391e-02 2.31411800e-01 2.87597269e-01
      2.05205545e-01 2.87597269e-01 2.77893007e-01 2.52893060e-01
      3.16802412e-02 1.85986888e-03 0. 1.38505027e-02 5.93542047e-02
      1.10508122e-01 2.74845064e-01 1.04548082e-01 8.72561485e-02
      2.01554552e-01 2.71223299e-03 7.06086308e-02 1.58294752e-01
      1.26329690e-01 9.22963917e-02 2.87597269e-01 1.60616860e-01
      2.87597269e-01 2.52347529e-01 5.20405844e-02 1.15518779e-01
      2.64475226e-01 2.82869309e-01 7.30304495e-02 1.06487088e-01
      2.05542818e-01 2.32767045e-01 2.35404432e-01 1.30219400e-01
      1.40221849e-01 1.24162205e-01 2.67979831e-01 1.37611315e-01
      8.83283392e-02 9.28664729e-02 1.82838410e-01 1.97631419e-01
      2.03490555e-02 1.08971581e-01 2.27440089e-01 1.21492639e-01
      2.19555516e-02 6.94652423e-02 6.09017350e-02 2.45733991e-01
      2.41753012e-01 1.85394838e-01 8.32940862e-02 2.82869309e-01
      1.53092891e-01 7.02104857e-03 2.54358817e-02 3.05183157e-02
      1.19369604e-01</_>
    <_>
      3.13425928e-01 1.04905143e-01 6.15687966e-02 9.87086967e-02
      4.64794040e-02 6.43695518e-02 2.12761275e-02 3.71448259e-04
      2.52054393e-01 3.13425928e-01 8.50922540e-02 4.04144861e-02
      3.81757058e-02 1.00615416e-02 5.25328144e-03 1.83544178e-02
      9.07853339e-03 3.13425928e-01 9.17540789e-02 1.86575964e-01
      1.23430841e-01 2.45721728e-01 3.09681207e-01 1.99647591e-01
      2.87528839e-02 0. 1.02346271e-01 2.39176914e-01 3.13425928e-01
      2.50055104e-01 1.34626612e-01 4.95932698e-02 2.92109251e-02
      5.16920649e-02 6.19896539e-02 2.90906459e-01 3.69470268e-01
      7.87621364e-02 2.57342309e-02 6.28619594e-03 2.23097834e-03
      1.30931890e-04 1.72674488e-02 1.39618767e-02 3.69470268e-01
      3.69470268e-01 3.58942561e-02 6.49163127e-03 0. 1.37140171e-03
      1.87045534e-05 1.27790347e-02 4.28862870e-03 3.69470268e-01
      2.46561706e-01 1.95565313e-01 1.07824504e-01 3.02714501e-02
      1.92830507e-02 2.05000211e-02 1.44138500e-01 9.92821306e-02
      2.63708293e-01 3.36648285e-01 5.71203753e-02 3.76268700e-02
      1.23810759e-02 4.05845903e-02 2.53807176e-02 1.13885954e-01
      4.08632345e-02 3.06129366e-01 3.61513555e-01 2.87582334e-02
      3.99644533e-03 9.61984158e-04 1.14853866e-02 9.82906669e-04
      1.00478176e-02 5.32280048e-03 3.61513555e-01 3.61513555e-01
      9.98488516e-02 9.16928798e-03 6.73388876e-03 6.33575842e-02
      6.88034622e-03 1.53722204e-02 8.87032785e-03 3.61513555e-01
      2.39832446e-01 9.90533158e-02 6.88273534e-02 4.25626785e-02
      5.09033129e-02 2.75496743e-03 2.25452967e-02 3.51283960e-02
      1.93691850e-01 3.02294075e-01 3.50445241e-01 2.63628125e-01
      9.43343267e-02 6.48731887e-02 7.62685761e-03 2.79565044e-02
      5.19188568e-02 2.04852253e-01 3.70499223e-01 9.58183557e-02
      9.33327246e-03 2.72454577e-03 5.30550145e-02 4.08845115e-03
      9.39506106e-03 7.90229160e-03 3.70499223e-01 3.70499223e-01
      7.26328865e-02 1.66275282e-03 6.64884690e-04 4.36300859e-02
      1.02826478e-02 1.63245331e-02 1.82625949e-02 3.70499223e-01
      2.57950038e-01 2.50667810e-01 1.51244670e-01 3.63279507e-02
      2.50901803e-02 2.89204177e-02 4.72024940e-02 3.52838971e-02
      2.44083643e-01 2.68169463e-01 1.31821647e-01 1.77408680e-02
      9.31097567e-03 1.03605939e-02 4.83134314e-02 9.98662785e-02
      8.20397809e-02 3.16468030e-01 3.46088976e-01 2.12541036e-02
      3.94924032e-03 4.97599412e-03 1.20176682e-02 5.47246169e-03
      7.47382315e-03 1.33105423e-02 3.46088976e-01 3.46088976e-01
      1.80102646e-01 1.22567616e-01 3.12348027e-02 3.02647916e-03
      2.07181298e-03 6.57782424e-03 2.34517343e-02 3.46088976e-01
      1.24824308e-01 5.49689569e-02 7.59810954e-02 6.80867285e-02
      7.21286610e-02 2.65357420e-02 3.90758552e-02 3.54037769e-02
      1.41359180e-01 1.01995096e-01 3.46088976e-01 3.46088976e-01
      3.31871420e-01 1.19622275e-01 6.36875480e-02 1.92414448e-02
      4.79658246e-02 1.69339269e-01 2.51131296e-01 2.18647674e-01
      1.50708944e-01 8.27663764e-03 8.97513644e-04 5.78319268e-05
      5.56233048e-04 2.87684649e-02 2.90293783e-01 2.90293783e-01
      1.73172027e-01 7.58401379e-02 0. 2.13587005e-03 0. 1.36667818e-01
      1.72860429e-01 2.90293783e-01 5.76064028e-02 2.90293783e-01
      2.90293783e-01 8.38729590e-02 1.30097270e-02 3.59175690e-02
      1.41549180e-03 7.43438527e-02 1.03128381e-01 7.17386678e-02
      2.65395701e-01 1.47984713e-01 1.10992547e-02 2.05753669e-02
      2.46239435e-02 2.90293783e-01 2.90293783e-01 2.48611376e-01
      2.17509642e-01 4.68655564e-02 4.80098941e-04 0. 3.65524739e-02
      3.08734924e-02 1.89461067e-01 1.56945810e-01 2.79152930e-01
      9.50654671e-02 5.15652541e-03 1.47885066e-02 1.48589099e-02
      1.96352020e-01 1.64066821e-01 3.05528998e-01 2.32873201e-01
      1.87969565e-01 3.88182700e-02 4.37690876e-02 8.00164882e-04
      1.24334181e-02 1.62303731e-01 2.16987118e-01 3.10059398e-01
      2.63157636e-01 1.33494124e-01 3.41537073e-02 3.09391553e-03
      8.87310505e-03 1.43695027e-02 3.10059398e-01 3.10059398e-01
      2.73291677e-01 1.25367850e-01 6.64233863e-02 2.40668235e-03
      9.14328173e-02 7.42122233e-02 2.67799824e-01 3.81936550e-01
      2.50778258e-01 4.85326117e-03 0. 2.84116738e-03 1.01159224e-02
      1.98396474e-01 1.84189111e-01 1.90883890e-01 1.65147707e-01
      8.59256610e-02 2.92991064e-02 3.28686647e-02 2.55717635e-02
      3.14356689e-03 2.18641181e-02 1.45995924e-02 1.80713460e-01
      3.81936550e-01 3.81936550e-01 8.78731981e-02 7.09839771e-03
      3.14356689e-03 9.94733255e-03 2.58274302e-02 4.61282358e-02
      1.48971975e-01 3.43455285e-01 2.29314402e-01 1.60468280e-01
      1.92078166e-02 8.85212049e-03 3.35238203e-02 1.78244457e-01
      1.59695074e-01 1.20191596e-01 1.73547730e-01 1.18393652e-01
      2.71827608e-01 1.37138352e-01 8.70974064e-02 9.64072570e-02
      3.39056402e-02 8.25017169e-02 7.93083683e-02 3.21284711e-01
      1.33269385e-01 2.33144864e-01 1.42033204e-01 1.63917586e-01
      3.00301723e-02 2.53243558e-02 1.06272839e-01 1.77471310e-01
      2.84154892e-01 1.29943848e-01 1.91644505e-01 4.48891819e-02
      2.94443984e-02 8.77756067e-03 2.00495925e-02 1.68648079e-01
      1.97259501e-01 4.35435355e-01 1.59804776e-01 2.39706039e-01
      9.90662277e-02 2.53943186e-02 2.93296296e-02 5.03148511e-02
      1.31132141e-01 1.37419432e-01 1.92207307e-01 3.25801708e-02
      1.70944706e-02 5.28527573e-02 3.56683582e-02 2.71607991e-02
      1.95879936e-01 3.39194655e-01 3.39194655e-01 2.44893670e-01
      3.95754725e-02 1.11760376e-02 5.65981604e-02 2.05040574e-02
      1.34452246e-03 4.50698519e-03 8.65791515e-02 1.32683218e-01
      3.39194655e-01 1.83874443e-01 1.25314325e-01 5.46835102e-02
      3.94717604e-03 5.72684314e-03 6.53137825e-03 9.45170671e-02
      2.71752208e-01 3.39194655e-01 2.37382412e-01 3.32794577e-01
      1.50214389e-01 1.48453843e-03 4.24029306e-02 2.08809257e-01
      2.81321883e-01 2.44620740e-01 1.70670807e-01 1.02827281e-01
      8.05641860e-02 4.04709652e-02 8.33949372e-02 3.95778269e-02
      1.16732597e-01 5.15349135e-02 5.01066037e-02 1.14016965e-01
      1.65031984e-01 2.36374557e-01 1.51864827e-01 1.11316070e-01
      2.82239951e-02 1.50786797e-02 5.77411018e-02 2.11415350e-01
      3.98573130e-01 2.14974344e-01 2.94424623e-01 8.78124461e-02
      1.02524860e-02 2.20253114e-02 7.40409717e-02 1.81738749e-01
      8.83023366e-02 3.76139611e-01 1.96564957e-01 1.59900159e-01
      5.64151332e-02 2.52291597e-02 4.76558181e-03 3.20999511e-02
      7.21586570e-02 7.74887204e-02 2.50741243e-01 3.55175994e-02
      3.81999090e-02 3.39355730e-02 1.20875817e-02 1.42867549e-03
      1.38520882e-01 3.57247621e-01 3.25353652e-01 3.57247621e-01
      1.01854697e-01 9.59244557e-03 1.57582369e-02 6.61465200e-03
      8.87782371e-04 1.65542029e-02 6.18079379e-02 4.84573431e-02
      3.57247621e-01 1.39006168e-01 6.26161397e-02 1.51314493e-02
      2.40498176e-03 1.73250039e-04 2.15895046e-02 6.69493675e-02
      1.65622503e-01 3.57247621e-01 3.57247621e-01 2.83143222e-01
      2.95442808e-02 4.81661991e-04 4.85764304e-03 3.10107082e-01
      3.65416706e-01 2.45444715e-01 2.34165609e-01 1.45856768e-01
      6.54162141e-03 6.24423958e-02 1.54884122e-02 9.80317127e-03
      1.35750249e-01 1.02705829e-01 7.65432045e-02 1.39246300e-01
      8.45606104e-02 2.16082886e-01 1.87598094e-01 8.52695480e-02
      5.89436805e-03 3.67586911e-02 5.91370314e-02 1.42032668e-01
      3.65416706e-01 3.65416706e-01 2.98156410e-01 7.55710825e-02
      1.76617261e-02 2.29751244e-02 2.44071092e-02 6.02740832e-02
      1.15553387e-01 2.25954086e-01 1.27574950e-01 3.97356227e-02
      2.37925332e-02 2.91513223e-02 6.89479406e-04 4.85080341e-03
      1.23229212e-04 5.91588542e-02 2.07315475e-01 2.77520537e-01
      1.85680553e-01 6.41831011e-02 2.07115505e-02 6.63275458e-03 0. 0.
      4.99526821e-02 3.41649383e-01 3.41649383e-01 1.48564458e-01
      2.82276049e-02 8.81799404e-03 2.65802117e-03 2.60675140e-03
      1.19444571e-01 2.68601090e-01 2.78479964e-01 1.95641860e-01
      2.67617162e-02 3.94131901e-04 1.70725875e-03 6.88437000e-03 0.
      1.44172013e-01 3.41649383e-01 3.41649383e-01 3.41649383e-01
      3.28523256e-02 0. 6.88437000e-03 3.11956066e-03 5.14810197e-02
      1.51969474e-02 7.46652111e-02 3.77599776e-01 1.91591680e-01
      1.37791276e-01 2.39377264e-02 2.02045520e-03 2.82186568e-02
      4.50252071e-02 2.75780577e-02 4.41639945e-02 1.49613708e-01
      1.21832423e-01 3.18580002e-01 4.39183973e-02 6.00024872e-02
      7.28574395e-02 4.01874147e-02 1.01105077e-02 3.51092853e-02
      3.77599776e-01 1.69853017e-01 2.49113858e-01 8.05423334e-02
      2.22579911e-01 3.46138239e-01 4.64928076e-02 1.62983835e-02
      1.66777279e-02 7.32736886e-02 5.28449044e-02 2.54895031e-01
      5.58284111e-02 3.77599776e-01 7.35269934e-02 6.85469955e-02
      9.02907252e-02 6.61013275e-02 4.71451543e-02 4.18906622e-02
      1.34157375e-01 1.54741770e-02 1.13849893e-01 1.12479441e-01
      6.58337623e-02 1.29926145e-01 9.14159119e-02 1.22147031e-01
      4.44386378e-02 5.78021593e-02 1.52695533e-02 7.06035122e-02
      4.54596728e-01 1.05496019e-01 5.34530878e-02 2.16610022e-02
      2.02657674e-02 1.88262854e-02 1.09834567e-01 1.36987837e-02
      4.54596728e-01 4.54596728e-01 9.95026231e-02 6.07699268e-02
      2.96448804e-02 3.43559310e-02 1.02349967e-02 8.00012704e-03
      7.19699590e-03 4.54596728e-01 4.50363196e-02 1.06827719e-02
      2.69121043e-02 3.74625213e-02 1.45367414e-01 1.02101609e-01
      1.22241326e-01 6.76355809e-02 3.61888893e-02 2.76491251e-02
      5.38828596e-03 8.07655137e-03 3.92311811e-02 2.09448770e-01
      1.38599783e-01 3.65901917e-01 2.86117911e-01 4.91972715e-02
      3.65901917e-01 3.27896401e-02 1.39811318e-02 6.41298434e-03
      5.88994287e-02 2.24852003e-02 4.33168299e-02 3.46595757e-02
      3.65901917e-01 3.65901917e-01 3.77179980e-02 4.37605269e-02
      7.48210726e-03 8.71235356e-02 4.39854413e-02 2.29001939e-01
      2.16296956e-01 3.65901917e-01 7.89563805e-02 8.21493287e-03
      1.91423353e-02 2.37621106e-02 7.60577023e-02 8.70985165e-02
      2.61509210e-01 1.81414098e-01 9.14482549e-02 1.45522371e-01
      7.55860582e-02 1.34758875e-01 3.88813913e-02 1.26049474e-01
      5.74949495e-02 4.47287522e-02 4.93500493e-02 8.23605582e-02
      4.10921425e-01 3.14638764e-02 3.04305069e-02 9.16566420e-03
      3.92070375e-02 2.66602915e-02 1.37215927e-01 2.20122173e-01
      4.10921425e-01 4.10921425e-01 1.05748005e-01 5.92467114e-02
      1.79408696e-02 5.79564199e-02 1.08956164e-02 8.19461793e-02
      1.28421575e-01 4.10921425e-01 2.76026018e-02 4.60095778e-02
      6.69581741e-02 1.63018778e-02 2.37540603e-01 8.02890882e-02
      8.03784057e-02 8.35117418e-03 5.06688841e-03 8.02665949e-03
      2.06093565e-02 1.16504347e-02 3.19104642e-02 3.27249229e-01
      3.17531973e-01 3.27249229e-01 1.44739166e-01 6.77053072e-03
      2.64209539e-01 9.16741192e-02 3.32338810e-02 7.20108487e-03
      4.81363870e-02 1.43649224e-02 6.89560100e-02 3.16440836e-02
      3.01410019e-01 3.27249229e-01 5.83407134e-02 1.20236706e-02
      1.00347828e-02 6.62881285e-02 5.85345328e-02 3.27249229e-01
      3.20366740e-01 2.74302900e-01 1.94735453e-02 1.53585337e-02
      1.14520639e-03 1.68249439e-02 6.22983538e-02 1.04927100e-01
      3.00763398e-01 1.76801041e-01 6.42843693e-02 6.67180866e-02
      1.54373348e-01 1.69856086e-01 3.52394618e-02 4.46167365e-02
      4.10700627e-02 7.07975626e-02 7.87881985e-02 8.98151025e-02
      2.58637637e-01 6.97736293e-02 1.36236940e-02 3.08091822e-03
      1.92555115e-02 1.93954986e-02 3.00763398e-01 3.00763398e-01
      3.00763398e-01 3.00763398e-01 3.00763398e-01 3.00763398e-01
      1.02456566e-02 3.11724413e-02 2.06366703e-02 9.11474004e-02
      2.41434827e-01 3.00763398e-01 1.57353487e-02 1.18494771e-01
      2.93936938e-01 1.95846617e-01 1.64944589e-01 6.30360171e-02
      9.28131770e-03 5.13113150e-03 1.12397121e-02 5.46196941e-03
      4.47763056e-02 2.32351124e-01 2.91487277e-01 2.93936938e-01
      1.79397225e-01 1.29515887e-03 5.80596970e-03 9.82884411e-03
      2.27787390e-01 2.64473259e-01 2.93936938e-01 6.98204786e-02
      1.15221173e-01 3.99611481e-02 5.43966796e-03 3.28310207e-02
      1.17459700e-01 1.43447906e-01 2.37399280e-01 2.93936938e-01
      2.21643627e-01 2.93936938e-01 1.16270930e-01 7.77095382e-04
      4.06417847e-02 9.99240577e-02</_>
    <_>
      1.62449285e-01 8.15003887e-02 2.18209505e-01 1.20089807e-01
      7.14190230e-02 0. 2.54367553e-02 2.75567491e-02 1.42895877e-01
      3.19245458e-01 1.61218077e-01 1.96431041e-01 2.83062849e-02
      1.48550095e-02 1.64424982e-02 4.18230966e-02 1.42016143e-01
      3.19245458e-01 7.84759447e-02 8.85642767e-02 3.19245458e-01
      3.19245458e-01 1.42648622e-01 9.01033357e-03 1.56551246e-02
      5.72077697e-03 1.71039738e-02 2.53618062e-01 2.37811059e-01
      3.19245458e-01 2.40748405e-01 7.79616386e-02 7.01885298e-02
      8.16756785e-02 1.48502737e-01 1.54509351e-01 2.32486010e-01
      5.69975041e-02 5.75052425e-02 2.58707604e-03 2.12290175e-02
      6.04540445e-02 1.25121653e-01 1.18309468e-01 3.18866551e-01
      2.10362330e-01 8.68760422e-03 2.17759088e-02 0. 2.36444771e-02
      6.75832033e-02 1.55686557e-01 9.80100855e-02 3.18866551e-01
      1.40545309e-01 8.89220759e-02 7.81127587e-02 5.76585047e-02
      7.58725330e-02 1.95531249e-01 3.18866551e-01 2.37319618e-01
      2.13187292e-01 6.82318732e-02 1.07498197e-02 3.98305664e-03
      4.61842865e-03 5.33527732e-02 2.14407429e-01 3.18866551e-01
      3.18866551e-01 2.71701366e-01 3.52445722e-01 8.25551618e-03
      1.92043357e-04 0. 2.19739750e-02 2.27583963e-02 5.68300188e-02
      1.05818719e-01 3.32740039e-01 3.52445722e-01 3.88476951e-03
      1.34430360e-03 0. 2.89503559e-02 1.04031246e-02 1.46687487e-02
      8.18426907e-02 3.52445722e-01 9.12597626e-02 5.34241926e-03
      1.34430360e-03 1.38963573e-02 1.52468950e-01 2.08350256e-01
      3.52445722e-01 3.52445722e-01 1.78695560e-01 8.74032378e-02
      5.05462894e-03 9.41012520e-03 4.32838425e-02 1.28079981e-01
      1.47372380e-01 1.02546632e-01 1.07358746e-01 2.53707618e-01
      2.66447902e-01 1.30203366e-02 7.25323334e-04 0. 4.48346026e-02
      3.88382748e-03 3.02872509e-02 1.65062264e-01 4.59940016e-01
      2.39873141e-01 3.73908244e-02 1.10734608e-02 3.56699596e-03
      4.95862365e-02 1.64198037e-02 5.23867235e-02 1.75331369e-01
      4.59940016e-01 3.21291164e-02 1.60739361e-03 5.07726334e-03
      1.75994970e-02 2.03923974e-02 4.03734185e-02 2.75872666e-02
      1.15004301e-01 3.65325749e-01 9.91916284e-02 6.94550574e-03 0. 0.
      3.37933972e-02 1.02629364e-01 8.93022716e-02 1.17313080e-01
      4.26041842e-01 3.43561590e-01 2.83999350e-02 1.22137601e-02
      1.16460063e-02 2.08123159e-02 7.65009504e-03 1.05839074e-02
      4.17166092e-02 4.14803267e-01 4.14803267e-01 5.24595901e-02
      2.56302254e-03 1.60858277e-02 2.58621667e-02 2.89379794e-04
      1.86621659e-02 1.20290201e-02 4.14803267e-01 2.30323136e-01
      1.38825467e-02 3.75860510e-03 2.95878039e-03 5.95719814e-02
      5.18039390e-02 4.15665917e-02 3.86180952e-02 2.23745003e-01
      3.93870443e-01 4.17165048e-02 6.26434200e-03 2.07114629e-02
      3.11183073e-02 4.84111812e-03 1.61001887e-02 1.42820012e-02
      2.87135541e-01 3.92685741e-01 3.42508666e-02 7.55966175e-03
      1.31707285e-02 1.82584096e-02 0. 1.68553237e-02 9.00128298e-03
      3.92685741e-01 3.92685741e-01 2.59551052e-02 1.24220885e-02
      1.65905748e-02 5.48476838e-02 4.79373429e-03 5.21540735e-03
      8.17431882e-02 3.92685741e-01 2.75017858e-01 2.15929858e-02
      2.29574810e-03 6.69427589e-03 5.19683876e-04 2.07376666e-04
      6.98490301e-03 6.01678202e-03 2.43855685e-01 2.63284385e-01
      9.43289883e-03 1.08562279e-02 0. 1.00872163e-02 1.24080833e-02
      2.01114230e-02 7.89489821e-02 3.92685741e-01 3.00517529e-01
      1.53804831e-02 1.40322139e-03 6.73049456e-03 5.70332967e-02
      1.59187336e-02 4.52614948e-02 1.40172035e-01 3.25072497e-01
      2.72080153e-01 7.03376345e-03 0. 6.41028881e-02 2.87167072e-01
      3.84029225e-02 3.16221416e-01 1.63161337e-01 3.11980128e-01
      1.11973204e-01 4.32955427e-03 3.33353458e-03 4.01157252e-02
      5.40980101e-02 6.93367198e-02 6.28651902e-02 1.53221413e-01
      2.04987019e-01 7.00279325e-02 4.65654448e-04 0. 3.17304343e-01
      3.25072497e-01 1.55036271e-01 1.70450479e-01 1.57556757e-01
      9.31405574e-02 1.08637037e-02 3.40384282e-02 3.04647326e-01
      3.02850842e-01 2.61482537e-01 1.23798504e-01 4.14639376e-02
      8.37312452e-03 7.55821762e-04 6.35563955e-02 8.44811499e-02
      2.95395166e-01 1.88682690e-01 1.09664284e-01 6.39265627e-02
      6.39762357e-02 4.27739061e-02 3.39782611e-02 4.77140164e-03
      1.29801063e-02 6.25973493e-02 1.10025056e-01 3.04647326e-01
      3.04647326e-01 3.04647326e-01 6.00089915e-02 1.19874603e-03
      8.36743936e-02 3.77638601e-02 8.24497864e-02 6.83714077e-02
      2.03627482e-01 2.78912783e-01 3.04647326e-01 1.81282490e-01
      7.31985047e-02 8.12834874e-02 5.52116930e-02 3.22044529e-02
      4.62487228e-02 6.48725778e-02 5.88242300e-02 1.32822543e-01
      1.04534216e-01 1.17915533e-01 7.47711360e-02 3.93303037e-02
      4.89790812e-02 5.67018278e-02 2.35654116e-01 1.68501809e-01
      2.84728557e-01 2.84728557e-01 2.26571307e-01 1.82687804e-01
      7.07045048e-02 1.08729325e-01 5.58154881e-02 1.54903531e-01
      1.00665167e-01 6.55779690e-02 8.33875388e-02 2.84728557e-01
      2.58194417e-01 2.84728557e-01 2.84728557e-01 1.67233318e-01
      2.84728557e-01 1.17600895e-01 4.68400121e-02 9.65803340e-02
      2.84728557e-01 1.41011039e-02 1.13757886e-02 5.88256083e-02
      1.41415611e-01 3.31054330e-01 2.84604907e-01 2.41857171e-01
      2.84337521e-01 9.42735076e-02 4.88399342e-03 1.54739630e-03
      1.00521455e-02 1.11276388e-01 2.20894545e-01 1.58655867e-01
      4.51524667e-02 3.11745889e-02 1.70736648e-02 1.20125994e-01
      2.16380596e-01 3.31054330e-01 2.74160147e-01 3.31054330e-01
      2.42974952e-01 3.45302373e-02 5.79033233e-02 6.42684624e-02
      3.23024504e-02 1.74878109e-02 9.30633321e-02 1.12031966e-01
      2.27502406e-01 2.15353504e-01 7.67588429e-03 1.04132583e-02
      1.07720988e-02 2.83175465e-02 1.10931322e-02 1.07354047e-02
      1.51043177e-01 1.55092105e-01 2.56720364e-01 2.99009793e-02
      9.67730284e-02 1.84185609e-01 5.97291626e-02 2.95067690e-02
      1.28378877e-02 8.78452733e-02 2.14528337e-01 4.19412345e-01
      2.02124625e-01 1.97835982e-01 2.30813950e-01 1.12297937e-01
      5.72538748e-02 1.13513405e-02 1.45907775e-01 1.45270571e-01
      3.34778845e-01 2.19313409e-02 5.14634252e-02 9.51371118e-02
      4.30345982e-02 6.53853640e-02 1.01000115e-01 4.20786142e-01
      2.28506327e-01 1.74970880e-01 6.42768815e-02 4.09483165e-02
      3.39696519e-02 1.33454397e-01 2.25793552e-02 1.45607153e-02
      7.04759061e-02 2.85506248e-01 3.22444439e-01 2.39745542e-01
      1.69032395e-01 1.17452264e-01 2.66557097e-01 1.26003295e-01
      1.66928396e-02 5.82909994e-02 1.25454888e-01 1.01569749e-01
      2.16576919e-01 1.24263145e-01 1.84664443e-01 7.73081789e-03
      2.78873686e-02 6.12969473e-02 3.10966939e-01 2.41995871e-01
      2.85511225e-01 1.72815993e-01 4.38188426e-02 1.32150324e-02
      4.75591607e-02 7.33904764e-02 1.55888107e-02 9.01137888e-02
      1.53579906e-01 2.03769058e-01 2.46679828e-01 2.01902077e-01
      1.09466106e-01 3.09296101e-01 1.37463361e-01 2.96730194e-02
      4.53462154e-02 1.50692882e-03 1.98349897e-02 7.59628415e-02
      6.02427796e-02 2.85399050e-01 2.96127856e-01 1.13856003e-01
      1.15765058e-01 3.34483199e-02 2.20386222e-01 1.05632320e-01
      7.56212696e-02 9.46681499e-02 3.84194225e-01 1.21130146e-01
      1.26309559e-01 4.46018726e-02 1.17253616e-01 7.11802915e-02
      8.09445679e-02 9.47640240e-02 1.52384833e-01 1.39517397e-01
      1.50634915e-01 1.32599503e-01 7.02027678e-02 1.00791633e-01
      4.49339509e-01 2.06793964e-01 5.08833155e-02 1.02628082e-01
      1.39060467e-01 1.98124927e-02 1.03077898e-02 8.46869126e-03
      6.32679462e-02 2.01632619e-01 9.38237831e-02 2.96336208e-02
      3.55778635e-02 3.68258394e-02 1.83721557e-02 9.32442374e-04 0.
      4.01490569e-01 4.97286946e-01 2.83032924e-01 2.01515891e-02
      2.60083582e-02 2.39283312e-02 1.02276113e-02 6.88779727e-03
      1.45018520e-02 3.96511033e-02 3.38962883e-01 4.12893221e-02
      2.17951797e-02 7.12148845e-03 9.68071632e-03 1.53004341e-02
      3.43139283e-03 1.13471374e-02 2.55335808e-01 4.97286946e-01
      1.18013248e-01 2.71196403e-02 0. 1.51179051e-02 8.64812918e-03
      4.69358359e-03 6.54745754e-03 1.36603760e-02 1.54020369e-01
      2.15595052e-01 3.12540054e-01 1.26607969e-01 1.40429577e-02
      1.22558884e-01 7.71807507e-03 6.38793185e-02 4.72150594e-02
      1.55575976e-01 2.23083422e-01 3.12540054e-01 3.12540054e-01
      1.00932866e-01 8.91213343e-02 1.51585974e-02 4.57194224e-02
      9.04442836e-03 7.83952028e-02 1.07349090e-01 1.89680725e-01
      1.90979466e-01 2.30831847e-01 3.12540054e-01 2.56705545e-02
      8.14914480e-02 2.82627251e-02 7.73414820e-02 5.04949540e-02
      2.19330147e-01 3.12540054e-01 3.12540054e-01 2.07975388e-01
      4.60464358e-02 2.26263031e-01 1.32822797e-01 2.19865888e-01
      1.01783335e-01 9.89020020e-02 1.45555601e-01 1.92054018e-01
      2.84559309e-01 2.84799069e-01 2.84799069e-01 1.47551984e-01
      1.18951701e-01 2.25629285e-02 3.32398415e-02 2.18339488e-02
      1.77898660e-01 2.84799069e-01 3.81957330e-02 2.08362564e-01
      7.77669251e-02 1.19669899e-01 1.66908503e-02 4.60237376e-02
      1.80338502e-01 2.77988166e-01 2.10654348e-01 8.54089260e-02
      1.84721917e-01 6.71731457e-02 5.40184565e-02 1.90172810e-02
      5.46394475e-02 8.54731947e-02 2.84799069e-01 3.02010357e-01
      2.88396508e-01 3.78366619e-01 9.15482044e-02 1.11279279e-01
      7.52147287e-02 3.52783911e-02 1.93961598e-02 4.29504067e-02
      1.76775560e-01 6.45103455e-02 1.10371150e-01 2.18077097e-02
      5.86405210e-02 1.27740875e-01 2.12166775e-02 2.16475092e-02
      9.25924927e-02 3.18794578e-01 1.16261959e-01 7.49249384e-02
      1.42536890e-02 1.42529020e-02 1.64533537e-02 5.57188280e-02
      4.94615734e-02 3.78366619e-01 3.78366619e-01 7.45449290e-02
      8.57805237e-02 2.12125443e-02 2.53577642e-02 1.11240251e-02
      1.51504343e-02 2.52521057e-02 3.78366619e-01 1.11530922e-01
      2.18338259e-02 7.65379798e-03 1.52087882e-02 7.99186155e-03
      3.37008573e-02 1.19868601e-02 1.90179497e-02 1.78111807e-01
      1.84893504e-01 1.40806669e-02 1.01490440e-02 6.31223395e-02
      2.54909582e-02 5.81491692e-03 6.65175961e-03 1.29861273e-02
      1.29414484e-01 4.66337204e-01 1.74756777e-02 2.71072704e-02
      1.30085321e-02 3.50413509e-02 3.45075573e-03 7.19211483e-03
      7.19694942e-02 4.66337204e-01 4.66337204e-01 1.16727278e-02
      3.65296350e-04 1.38525236e-02 3.30617540e-02 2.89870455e-04
      2.87200697e-03 1.16617963e-01 4.66337204e-01 1.58394739e-01
      3.30032967e-03 6.31227624e-03 4.05625477e-02 3.46557237e-02
      1.44957155e-02 8.10894836e-03 5.25728334e-03 7.02003464e-02
      1.88651040e-01 8.83828755e-03 3.96880740e-03 2.07332205e-02
      2.80367658e-02 1.22801997e-02 1.55484825e-02 3.03229261e-02
      9.96170342e-02 4.76337999e-01 3.32925655e-03 3.90444911e-04
      1.04710162e-02 2.69951951e-02 8.42195295e-04 8.13863066e-04
      4.03958820e-02 4.76337999e-01 4.76337999e-01 9.92933009e-03
      2.02423730e-03 8.93501099e-03 2.11907141e-02 5.05317177e-04
      4.30752290e-03 5.62615469e-02 4.76337999e-01 1.19507417e-01
      1.28366612e-02 1.05295489e-02 1.60517935e-02 1.44244265e-02
      6.34869980e-03 1.63082797e-02 2.89383363e-02 1.24584831e-01
      7.91027248e-02 2.88243163e-02 2.67383754e-02 1.06897103e-02
      4.92012054e-02 2.62989793e-02 1.50414659e-02 2.30538528e-02
      1.47475049e-01 4.71819699e-01 1.87721904e-02 6.01806212e-03
      3.09184752e-03 1.84027273e-02 3.65620013e-04 4.59029712e-02
      6.61404207e-02 4.71819699e-01 4.71819699e-01 8.44856799e-02
      3.65561843e-02 2.04375573e-03 3.57383154e-02 3.47075518e-03
      7.00075254e-02 1.33116841e-01 4.71819699e-01 4.43268791e-02
      3.70742492e-02 5.50388284e-02 2.21698154e-02 1.26316682e-01
      1.40776755e-02 2.17723418e-02 1.11856991e-02 4.76469994e-02
      2.60755010e-02 2.50455793e-02 6.04182743e-02 2.36942619e-01
      3.89908642e-01 2.36960184e-02 2.99174059e-02 1.03708971e-02
      4.01476882e-02 3.01703960e-01 2.34829918e-01 9.61746126e-02
      7.19058886e-02 8.77443179e-02 1.76383695e-03 5.13819009e-02
      1.33975878e-01 2.82737732e-01 1.13905579e-01 2.46321470e-01
      2.75755405e-01 3.89908642e-01 3.89908642e-01 3.08559160e-03
      7.18294904e-02 1.14143170e-01 1.14670709e-01</_>
    <_>
      2.92455643e-01 2.92455643e-01 1.74122587e-01 4.07659300e-02
      1.75413098e-02 0. 5.77551918e-03 6.02460951e-02 1.97285905e-01
      2.92455643e-01 2.14563310e-01 1.60404742e-01 9.77630727e-03
      2.82269306e-02 0. 1.23133799e-02 7.42899701e-02 2.92455643e-01
      2.10809410e-01 2.73063242e-01 2.41684213e-01 1.71281666e-01
      1.30054578e-01 1.76844338e-03 1.02047985e-02 3.77100408e-02
      1.49203598e-01 2.92455643e-01 2.92455643e-01 1.13703176e-01
      3.63079868e-02 2.02083029e-02 0. 1.99496560e-02 1.11174919e-01
      2.36266658e-01 3.24178785e-01 1.54179230e-01 8.63887891e-02
      3.86432023e-03 2.38102600e-02 2.02831521e-04 1.03674782e-02
      6.08060323e-02 3.24178785e-01 3.24178785e-01 6.07878268e-02
      4.26510861e-03 3.51566100e-03 1.08407252e-02 2.19803397e-03
      6.74842997e-03 6.36778846e-02 3.24178785e-01 2.75573790e-01
      2.22007304e-01 4.11405228e-02 4.02872637e-03 8.38712975e-03
      3.85866687e-03 7.70193338e-02 2.25593284e-01 2.94462025e-01
      2.39387974e-01 9.38031673e-02 1.75728090e-02 0. 4.87750955e-02
      2.70106718e-02 2.03740895e-01 2.14811951e-01 3.24178785e-01
      2.61282802e-01 3.04482840e-02 2.97219260e-04 3.37015325e-03
      5.51205175e-03 3.34925391e-03 3.82873137e-03 4.79983576e-02
      3.50710034e-01 3.50710034e-01 1.67363528e-02 4.24598984e-05
      4.81450465e-04 6.41428381e-02 4.21168022e-02 4.86625843e-02
      6.76776022e-02 3.50710034e-01 2.78654695e-01 1.24413773e-01
      2.71874126e-02 1.99418305e-03 3.00753415e-02 1.52703002e-02
      6.79694042e-02 4.30979617e-02 3.38641882e-01 3.50710034e-01
      2.13183686e-01 1.19085930e-01 1.39592821e-02 9.01224539e-02
      4.02142555e-02 1.34003786e-02 1.04490869e-01 3.50710034e-01
      2.89942533e-01 2.18938105e-02 7.57333217e-03 4.36409796e-03
      5.95693029e-02 5.52425347e-02 1.54510751e-01 4.16919217e-02
      3.31295818e-01 3.31295818e-01 8.69501159e-02 5.30133210e-02
      3.05486843e-02 9.10548270e-02 5.71600124e-02 1.75931469e-01
      5.81210330e-02 3.31295818e-01 3.31295818e-01 1.32480651e-01
      5.75110242e-02 4.39308258e-03 2.83621624e-02 1.38041712e-02
      2.18795482e-02 8.54509622e-02 3.31295818e-01 3.31295818e-01
      6.10770248e-02 5.41791553e-03 0. 0. 1.79183967e-02 9.76144001e-02
      1.05366297e-01 3.31295818e-01 3.37405771e-01 3.27260122e-02
      2.10061576e-02 1.21047040e-02 9.14399251e-02 4.28264551e-02
      4.73395064e-02 1.13255933e-01 3.37405771e-01 3.37405771e-01
      7.50624313e-05 0. 3.41865793e-03 8.73270035e-02 3.89189646e-02
      3.31924446e-02 1.44472882e-01 3.37405771e-01 3.37405771e-01
      1.80619843e-02 2.67997757e-03 1.14258723e-02 4.63873730e-04
      1.81677360e-02 9.69917327e-02 7.64673725e-02 3.37405771e-01
      3.37405771e-01 3.63844223e-02 2.48819832e-02 5.36146276e-02
      9.45461914e-03 1.11702085e-02 3.95646393e-02 7.20620528e-02
      3.37405771e-01 3.24032873e-01 1.43343154e-02 2.81018438e-03
      4.17361688e-03 4.51618768e-02 2.47766078e-02 3.32256146e-02
      2.73116063e-02 3.24032873e-01 3.24032873e-01 1.24842674e-01
      3.71607877e-02 7.56097957e-03 1.38050960e-02 1.70853306e-02
      1.19619640e-02 5.19831898e-03 3.24032873e-01 3.24032873e-01
      4.29231264e-02 3.00842468e-02 1.09431766e-01 6.31569028e-02
      5.67512438e-02 3.41129489e-02 2.01410316e-02 3.24032873e-01
      3.24032873e-01 1.42639220e-01 1.38001412e-01 1.54936999e-01
      1.23965591e-01 1.25474796e-01 9.56346691e-02 8.49615186e-02
      3.24032873e-01 2.90805906e-01 7.17546716e-02 3.06978934e-02
      5.73288696e-03 1.97314937e-03 2.77962512e-03 2.15408136e-03
      5.94579661e-03 2.90805906e-01 2.90805906e-01 2.42457930e-02
      5.83101576e-03 3.94732086e-03 1.32343117e-02 2.33369283e-02
      1.32916540e-01 8.64442661e-02 2.90805906e-01 2.90805906e-01
      7.49923587e-02 1.69425696e-01 5.16209006e-02 5.65001778e-02
      8.86388272e-02 9.22014788e-02 1.07494503e-01 2.90805906e-01
      2.90805906e-01 3.87129374e-02 6.69108853e-02 7.04410523e-02
      2.90805906e-01 2.09068552e-01 2.62194932e-01 1.08704403e-01
      2.90805906e-01 2.28493866e-02 1.87300727e-01 2.23304197e-01
      2.69119501e-01 3.72184426e-01 4.46721539e-02 4.18265611e-02
      2.88280994e-02 1.03355601e-01 1.22463353e-01 3.72184426e-01
      2.11900949e-01 1.73690274e-01 8.98709893e-02 4.27660979e-02
      2.43292712e-02 9.16958749e-02 7.49297142e-02 5.55306394e-03
      1.13656938e-01 1.13571338e-01 2.74574816e-01 3.72184426e-01
      1.93970248e-01 9.48239937e-02 3.32819344e-03 1.45590594e-02
      1.09990546e-02 7.63842165e-02 9.09158215e-02 2.40111679e-01
      2.09287494e-01 1.54283091e-01 7.16495290e-02 1.06441742e-02
      1.31817618e-02 9.80340317e-02 2.15785310e-01 5.09602427e-02
      2.42595505e-02 2.60594022e-02 4.32411730e-02 1.89236701e-01
      2.50561863e-01 8.44463333e-02 5.33797219e-02 8.63720551e-02
      7.36115575e-02 1.13795158e-02 1.39894813e-01 2.33068570e-01
      3.69482130e-01 3.69482130e-01 1.30081236e-01 8.26986693e-03
      2.26199236e-02 2.82695238e-02 6.11475445e-02 1.07257426e-01
      8.54518786e-02 1.26879558e-01 5.27386703e-02 7.76905334e-03
      1.57603167e-03 2.94784717e-02 5.70056625e-02 2.20513538e-01
      3.69482130e-01 3.69482130e-01 2.45623633e-01 1.41375080e-01
      2.99507193e-03 6.39194101e-02 1.21644497e-01 7.90512636e-02
      2.22183522e-02 1.09915294e-01 1.07050925e-01 1.46584436e-01
      1.65313259e-01 7.71850646e-02 1.24718539e-01 3.06394219e-01
      2.89897352e-01 1.21200450e-01 1.85916498e-01 5.82671687e-02
      3.24136019e-02 2.04906136e-01 1.43114969e-01 2.53313134e-04
      2.85387300e-02 7.88536221e-02 1.61482051e-01 3.56470197e-01
      2.70717710e-01 5.65703474e-02 1.42865762e-01 2.83230245e-02
      6.31834473e-03 1.00384325e-01 1.90485030e-01 2.57878363e-01
      3.56470197e-01 2.17928603e-01 4.10263017e-02 1.82426125e-01
      5.04692681e-02 3.36953461e-01 2.59126693e-01 2.01316476e-01
      6.99067339e-02 8.58879536e-02 2.37224363e-02 4.70250510e-02
      1.22030452e-01 2.05153078e-01 3.37161124e-01 6.76434040e-02
      1.61508527e-02 1.51151838e-02 4.11585392e-03 1.35290429e-01
      3.26746911e-01 2.41901368e-01 2.44163617e-01 4.09576260e-02
      8.87705982e-02 1.00512125e-01 1.38909534e-01 3.37161124e-01
      1.07768342e-01 8.15802366e-02 8.37387815e-02 3.97482552e-02
      1.13949947e-01 3.07261124e-02 4.05295156e-02 8.03593323e-02
      5.44107333e-02 1.87332004e-01 2.40823403e-01 1.59780353e-01
      1.35422841e-01 1.23370931e-01 1.62208918e-02 3.17586213e-02
      2.94032115e-02 1.67981200e-02 9.36855599e-02 2.52698004e-01
      8.85484964e-02 6.84662387e-02 2.52833694e-01 4.72432896e-02
      1.34745926e-01 1.24747045e-01 8.72872099e-02 9.77769643e-02
      1.30446255e-01 5.77544756e-02 1.41951397e-01 1.90727748e-02
      1.37804672e-02 7.97735676e-02 1.03062153e-01 2.35038161e-01
      2.30358824e-01 2.29377761e-01 6.86965361e-02 3.64887156e-02
      2.27353111e-01 1.03617441e-02 3.27213317e-01 2.45655447e-01
      3.27213317e-01 3.27213317e-01 3.25826436e-01 8.54880735e-02
      7.10014775e-02 1.63626671e-01 3.81343402e-02 8.50423351e-02
      1.76775426e-01 1.72458410e-01 4.87468168e-02 3.28905359e-02
      1.69815365e-02 1.27252817e-01 2.24397361e-01 1.06030963e-01
      8.25650245e-02 2.89453119e-01 2.89453119e-01 1.50980681e-01
      9.55815017e-02 8.00812542e-02 1.73300773e-01 2.21972346e-01
      5.78282634e-03 1.99019387e-01 1.38587072e-01 2.89453119e-01
      2.29860321e-01 2.21984521e-01 9.84012932e-02 1.33143038e-01
      1.47670731e-01 1.18160509e-01 1.12675227e-01 2.32417852e-01
      2.89453119e-01 1.60544932e-01 1.29595682e-01 1.18168116e-01
      1.10156052e-01 8.01642686e-02 5.66628277e-02 7.64084235e-02
      1.24557897e-01 2.46160775e-01 1.22597605e-01 7.26587996e-02
      9.34946388e-02 1.07113346e-01 4.03036401e-02 2.82555185e-02
      1.08364888e-01 1.89716101e-01 3.47667754e-01 9.84259695e-02
      4.84864339e-02 6.14061318e-02 1.22788131e-01 2.57789642e-02
      2.30118632e-01 1.24035172e-01 1.91821292e-01 3.47667754e-01
      9.57602337e-02 1.51662501e-02 1.42249763e-01 1.17283292e-01
      3.28690670e-02 1.44041643e-01 1.97043523e-01 3.29935700e-01
      3.47667754e-01 1.33421376e-01 1.43049809e-03 1.97395876e-01
      2.12801829e-01 7.56194303e-03 5.66661172e-02 2.96189152e-02
      1.07793376e-01 3.39487374e-01 1.81364223e-01 1.52313724e-01
      1.10763907e-02 4.57874127e-02 1.44185387e-02 1.43159712e-02
      9.33040213e-03 7.99353197e-02 1.40582234e-01 1.73821315e-01
      1.59341380e-01 3.24726515e-02 2.22566202e-02 3.82291712e-02
      9.89417136e-02 5.17031699e-02 6.66486174e-02 3.39487374e-01
      1.50691688e-01 3.04287821e-01 1.78011104e-01 1.97767541e-01
      9.20906663e-02 1.48497030e-01 2.99548674e-02 3.78926955e-02
      9.76844504e-02 1.59241334e-01 3.39487374e-01 3.39487374e-01
      3.24789286e-01 2.12245677e-02 1.52864354e-02 6.53894171e-02
      4.63454872e-02 8.11019987e-02 4.47246134e-02 4.96627353e-02
      1.64437592e-02 1.27000846e-02 1.93939619e-02 5.21391593e-02
      2.39197806e-01 2.45368615e-01 3.54101390e-01 9.95479524e-02
      3.00335642e-02 7.53538683e-02 4.59141238e-03 2.24931136e-01
      1.43705577e-01 2.07421750e-01 2.90653873e-02 1.17681429e-01
      3.07968687e-02 9.76284817e-02 1.66017711e-01 3.54101390e-01
      2.45575011e-01 2.72747993e-01 3.54101390e-01 2.07506537e-01
      2.84793973e-01 1.10390084e-02 2.21335348e-02 1.22142233e-01
      1.52604178e-01 6.38669878e-02 1.97424311e-02 1.32364482e-01
      1.75951526e-01 3.29374999e-01 1.25216663e-01 1.65828019e-02
      9.79559422e-02 1.05665848e-02 9.69600976e-02 6.65850639e-02
      1.35388330e-01 1.34393781e-01 3.29374999e-01 2.64479369e-01
      5.32814115e-02 1.61840901e-01 1.76109727e-02 1.82788730e-01
      1.23594023e-01 2.35861152e-01 1.02006093e-01 1.66009679e-01
      4.31554429e-02 4.22762856e-02 2.43386313e-01 4.43940051e-02
      2.39701405e-01 7.79068023e-02 9.64999050e-02 5.26995510e-02
      2.70206153e-01 2.01929629e-01 2.07719833e-01 3.29374999e-01
      5.85582517e-02 3.92326899e-02 1.05667405e-01 7.58951753e-02
      1.05905116e-01 2.64180183e-01 1.52857661e-01 7.67851919e-02
      1.14026815e-01 3.20430547e-02 8.04697797e-02 7.84294605e-02
      1.08381256e-01 9.74064320e-02 4.74410951e-02 8.41794759e-02
      1.28538191e-01 1.55058488e-01 2.46755600e-01 1.39525205e-01
      1.37610927e-01 1.00900538e-01 9.47667360e-02 2.41633162e-01
      1.64812282e-01 2.33890042e-01 2.88144618e-01 1.09348565e-01
      1.99257076e-01 2.40260571e-01 3.35541874e-01 1.76680878e-01
      1.22924864e-01 8.96099582e-02 1.93789303e-01 2.03195408e-01
      2.70579278e-01 5.39703034e-02 3.01516987e-02 1.15793064e-01
      8.52099583e-02 1.96151078e-01 1.31815642e-01 9.79520008e-02
      4.28281128e-02 1.18895002e-01 6.20216392e-02 1.00533906e-02
      1.70058012e-01 1.50188640e-01 3.52657288e-01 3.52657288e-01
      3.52657288e-01 8.05192068e-02 1.10070027e-01 1.37501806e-01
      6.45451173e-02 2.41975859e-01 1.27803281e-01 6.21553920e-02
      7.50482678e-02 7.49317631e-02 3.71495970e-02 1.28114566e-01
      5.37291020e-02 1.05534075e-02 1.42316088e-01 1.20965295e-01
      1.58882767e-01 2.85136491e-01 3.52657288e-01 1.23290002e-01
      1.69070840e-01 7.93873817e-02 1.06805156e-03 8.16710442e-02
      4.20554318e-02 1.63917437e-01 2.75190473e-01 3.49695057e-01
      1.20468661e-01 8.37951377e-02 1.11258015e-01 1.40975922e-01
      1.95469633e-01 4.44764234e-02 1.62401423e-01 1.07779577e-01
      2.36700997e-01 1.48456842e-01 1.19248897e-01 2.15540268e-02
      8.30027449e-04 2.76375599e-02 1.95085350e-02 5.27665280e-02
      1.74528584e-01 3.49695057e-01 1.41111419e-01 6.83109537e-02
      1.25732049e-01 1.42391950e-01 3.49695057e-01 3.21979858e-02
      3.32714543e-02 7.77395964e-02 3.49695057e-01 1.31063432e-01
      2.11862043e-01 2.13095304e-02 2.03083828e-01 3.46381366e-01
      8.99526924e-02 1.64020777e-01 4.02574316e-02 1.58908945e-02
      6.04963116e-02 3.71797979e-02 2.08072159e-02 1.19388647e-01
      3.46381366e-01 1.51260749e-01 3.46381366e-01 1.99284956e-01
      5.80882244e-02 7.22028539e-02 5.34513369e-02 4.08348776e-02
      1.74080938e-01 3.46381366e-01 6.71395510e-02 4.18372042e-02
      2.15206649e-02 5.74350879e-02 1.95651799e-02 5.31964675e-02
      8.85712449e-03 1.12590417e-01 3.46381366e-01 6.57209158e-02
      3.46381366e-01 1.60484031e-01 1.17366463e-01 4.96969745e-02
      6.95557101e-03</_>
    <_>
      2.81550378e-01 1.67557955e-01 1.99940309e-01 9.60557014e-02
      2.21881166e-01 1.29157174e-02 0. 1.25347637e-04 1.87707201e-01
      2.94246346e-01 2.15156749e-01 1.62239373e-01 1.12461327e-02
      1.42237954e-02 0. 0. 1.40346831e-03 2.94246346e-01 1.19977735e-01
      2.12225094e-01 2.94246346e-01 1.76209748e-01 2.94246346e-01
      3.26448046e-02 0. 8.77433398e-04 5.20224534e-02 2.24801034e-01
      2.70368397e-01 2.91267008e-01 5.27995825e-02 5.87901883e-02
      9.06118844e-03 0. 3.45331547e-03 1.65964216e-01 3.38278174e-01
      4.89495136e-02 3.08399834e-02 2.67243804e-03 1.22005166e-03
      1.70522241e-03 4.51230742e-02 1.17427297e-01 3.38278174e-01
      3.31405759e-01 3.51112112e-02 6.72007882e-05 3.81776859e-04
      4.13155369e-03 3.94727327e-02 3.14875275e-01 2.44300932e-01
      3.38278174e-01 1.51893184e-01 7.28693753e-02 6.96652308e-02
      2.61250455e-02 2.57201784e-04 1.53495278e-02 8.35534483e-02
      1.28044531e-01 1.66179970e-01 6.02027029e-02 2.93148477e-02
      5.15487418e-03 6.89878874e-03 4.95399460e-02 2.75416732e-01
      3.38278174e-01 2.53478914e-01 1.26400352e-01 2.85931855e-01
      2.23786347e-02 0. 3.25695123e-03 1.45916939e-02 4.51582409e-02
      1.78350672e-01 6.72319010e-02 3.53751272e-01 3.53751272e-01
      3.05709206e-02 1.09603442e-01 2.91404426e-02 2.93514468e-02
      4.02054451e-02 1.56194950e-02 2.34686788e-02 3.53751272e-01
      5.47325239e-02 1.31877931e-02 1.06196925e-02 4.57470752e-02
      1.36592090e-01 3.53751272e-01 3.53751272e-01 7.45404288e-02
      1.07153162e-01 1.58082157e-01 1.17130652e-01 1.70282796e-01
      2.06673056e-01 1.20519176e-01 2.05224335e-01 6.74605891e-02
      4.24065292e-02 1.35519236e-01 3.13688755e-01 1.11528665e-01
      3.13688755e-01 1.11106038e-01 6.84138685e-02 2.95243263e-02
      8.96799751e-03 2.50149779e-02 3.13322365e-01 1.28534526e-01
      1.13899492e-01 3.13688755e-01 2.18623683e-01 2.13307425e-01
      2.45231286e-01 5.21262698e-02 1.14842646e-01 5.16687967e-02
      1.41356915e-01 2.40688905e-01 3.13688755e-01 1.39212176e-01
      3.47582921e-02 3.94082665e-02 3.22664678e-02 6.68482929e-02
      6.96325004e-02 3.94450910e-02 1.18620083e-01 3.13688755e-01
      1.13356419e-01 4.59115915e-02 1.18027687e-01 7.04081729e-02
      1.13378190e-01 3.74993309e-02 9.79662314e-02 1.42282071e-02
      6.12425916e-02 7.59447441e-02 1.41343936e-01 2.36818492e-01
      1.00398645e-01 2.89252996e-01 3.46265405e-01 3.94653082e-01 0. 0.
      6.98718848e-03 3.77411470e-02 1.01606689e-01 7.83457458e-02
      2.17627853e-01 3.94653082e-01 3.98556665e-02 5.79576520e-03
      5.22189178e-02 3.72196399e-02 2.37627476e-02 1.16431326e-01
      1.15300126e-01 1.44581214e-01 1.12292081e-01 1.06774583e-01
      5.32066566e-04 2.83535011e-03 1.50913307e-02 5.64735979e-02
      1.53237149e-01 2.42185667e-01 1.25489548e-01 3.61745954e-01
      3.78613204e-01 4.17714566e-03 1.73454769e-02 7.19674630e-03
      2.14289315e-03 2.26112809e-02 1.63412243e-02 2.78213993e-02
      3.78613204e-01 3.78613204e-01 3.91166732e-02 1.46348521e-01
      2.40188222e-02 4.76134149e-03 1.28161535e-02 3.82989342e-03
      1.87315531e-02 3.78613204e-01 1.18662387e-01 2.28391569e-02
      1.10916108e-01 6.56734556e-02 9.01997685e-02 6.85170293e-02
      7.56140798e-02 6.89095929e-02 2.07374379e-01 2.29239374e-01
      2.37457752e-01 3.78613204e-01 1.14280507e-01 6.90414682e-02
      4.07300964e-02 1.22932019e-02 4.32166010e-02 1.59729362e-01
      3.39090407e-01 7.25122243e-02 1.22452892e-01 6.46050572e-02
      8.76002759e-03 9.00796708e-03 9.02883057e-03 1.68233365e-02
      3.39090407e-01 3.39090407e-01 2.43174672e-01 9.73208100e-02
      2.48461381e-01 1.29325986e-01 5.76899610e-02 5.35485782e-02
      2.97080129e-02 3.07410002e-01 1.67115688e-01 2.29463086e-01
      3.39090407e-01 9.59334373e-02 1.29769854e-02 3.57341766e-02
      3.78062017e-02 1.00940019e-02 1.11344397e-01 2.65669227e-01
      1.33117467e-01 1.25615939e-01 1.29793137e-01 1.94443092e-02
      7.72526637e-02 1.33497387e-01 7.89849237e-02 8.12456235e-02
      7.72558153e-02 5.87916598e-02 2.84467399e-01 1.45769000e-01
      3.60051960e-01 1.16441309e-01 7.85613507e-02 1.44135533e-02
      3.56902517e-02 1.11121103e-01 1.24420173e-01 1.67300656e-01
      5.07204086e-02 2.01507628e-01 5.38926311e-02 1.73117016e-02
      2.63994071e-03 4.93541397e-02 7.44625032e-02 1.82947405e-02
      9.98908430e-02 7.02696666e-02 3.60051960e-01 3.60051960e-01
      3.60051960e-01 4.93046306e-02 9.91096441e-03 4.87875491e-02
      3.86306010e-02 5.53036742e-02 1.72720905e-02 1.70103610e-01
      1.85472161e-01 3.60051960e-01 1.18519962e-01 5.31973392e-02
      5.61454259e-02 8.07600245e-02 5.89740165e-02 3.17328833e-02
      4.05359594e-03 1.85672585e-02 5.38908988e-02 4.17274944e-02
      3.10885925e-02 9.64702014e-03 2.27028262e-02 4.44338024e-02
      6.76002726e-02 3.47897559e-01 3.93383861e-01 3.93383861e-01
      8.94211829e-02 2.09162589e-02 4.06775922e-02 4.64618467e-02
      1.11992493e-01 3.00162062e-02 5.36197657e-03 2.29067691e-02
      8.22117403e-02 7.98149705e-02 9.02908519e-02 1.44625036e-02
      3.64975445e-02 3.93383861e-01 3.93383861e-01 3.93383861e-01
      1.36218771e-01 5.64105473e-02 4.15709019e-02 3.82832661e-02
      1.25486189e-02 2.60128616e-03 4.46366444e-02 1.05009876e-01
      3.20542514e-01 3.20542514e-01 2.70453572e-01 1.69215556e-02
      4.05530771e-03 1.15913101e-01 9.46299806e-02 8.04897621e-02
      1.74275130e-01 1.86625138e-01 2.23907247e-01 5.07044680e-02
      2.45981310e-02 1.22848935e-02 5.07982820e-03 5.55347325e-03
      3.20542514e-01 3.20542514e-01 3.20542514e-01 2.23846316e-01
      2.33605877e-02 1.02736605e-02 2.29110150e-03 4.70241532e-02
      2.25594509e-02 7.71268085e-02 2.29955360e-01 2.85368562e-01
      2.26374000e-01 4.16223183e-02 4.35688309e-02 1.47246812e-02
      2.15385422e-01 3.03701460e-01 2.66378939e-01 1.74207523e-01
      1.09184019e-01 1.24000408e-01 1.21600337e-01 7.53025487e-02
      1.75799560e-02 3.50677893e-02 9.95423347e-02 2.29816720e-01
      9.69850644e-02 1.29966259e-01 9.41177905e-02 1.04547232e-01
      7.37088993e-02 2.10630670e-02 8.41042772e-02 4.72372584e-02
      3.67239863e-02 7.00688437e-02 9.43256691e-02 2.98283905e-01
      3.59267324e-01 1.25039235e-01 4.80885692e-02 4.75759618e-02
      1.77147184e-02 3.76560502e-02 3.22901122e-02 1.48252890e-01
      1.95842341e-01 4.29305136e-01 2.72469699e-01 8.62107873e-02
      6.43623574e-03 9.10528749e-03 5.55319116e-02 1.08418480e-01
      8.49516839e-02 8.54142904e-02 1.54140890e-01 7.05168545e-02
      2.13661175e-02 1.03812478e-03 3.14543247e-02 2.58499458e-02
      1.75219759e-01 2.88061798e-01 3.14883798e-01 4.22933131e-01
      6.77902028e-02 2.29434073e-02 5.23994751e-02 7.15309680e-02
      3.38659212e-02 1.38500601e-01 1.55318186e-01 1.02136046e-01
      1.37561113e-01 1.22047298e-01 5.92014007e-02 6.62285015e-02
      2.08251566e-01 2.98935771e-02 2.63386339e-01 3.76321375e-01
      4.15683270e-01 6.98541328e-02 2.16575246e-02 1.82947610e-02
      1.55304208e-01 7.10223913e-02 1.57760054e-01 1.47856072e-01
      2.42601410e-01 9.17986631e-02 9.26146880e-02 4.55535725e-02
      7.14299316e-03 3.10380608e-01 3.90606374e-01 4.08059746e-01
      1.80621862e-01 1.46092162e-01 9.57402587e-02 1.84511859e-02
      2.65347343e-02 8.18390306e-03 1.92825675e-01 1.03798680e-01
      2.93727163e-02 9.84074250e-02 1.47004619e-01 1.49070024e-01
      2.77630799e-02 2.75371559e-02 5.42326737e-03 3.16322267e-01
      1.34803444e-01 1.88778281e-01 1.33058071e-01 7.50381127e-02
      2.37296611e-01 1.49535596e-01 4.49924171e-02 2.37627551e-02
      1.64927319e-01 3.90244722e-01 4.75626081e-01 9.31832641e-02
      3.40005495e-02 1.43852592e-01 5.48601784e-02 0. 2.15192828e-02
      1.12399049e-01 1.36837631e-01 2.06980944e-01 7.27461204e-02
      3.84626240e-02 8.65431204e-02 1.12946242e-01 7.13659301e-02
      6.18888661e-02 9.54522341e-02 7.21135214e-02 2.09979042e-01
      7.22474083e-02 6.58255890e-02 3.74605685e-01 3.08826715e-01
      1.75155684e-01 4.01347019e-02 5.59861511e-02 2.91304495e-02
      7.54173100e-02 1.20140193e-02 8.90936404e-02 1.15512945e-01
      1.38959140e-01 2.31331542e-01 7.43134320e-02 3.12804841e-02
      5.83011238e-03 3.62051390e-02 2.25823037e-02 2.15635970e-01
      1.91793308e-01 3.20594400e-01 6.58553541e-02 3.10511459e-02
      4.48500700e-02 2.96947337e-03 7.61595182e-03 2.78540445e-03
      1.57443192e-02 6.07565530e-02 3.20594400e-01 2.23167822e-01
      1.88254714e-01 2.63017207e-01 7.26649119e-03 6.14038808e-03
      4.63608885e-03 1.42112017e-01 2.28230655e-01 2.17514828e-01
      1.51272073e-01 3.20594400e-01 3.20594400e-01 2.73597147e-03
      1.38360180e-03 3.97914904e-04 9.72983334e-03 3.84160839e-02
      1.88486621e-01 2.26556137e-01 3.20594400e-01 9.04820859e-02
      4.56793122e-02 9.53636914e-02 1.19012790e-02 3.44770146e-04
      6.05022581e-03 5.29085360e-02 9.75800529e-02 2.24047497e-01
      9.06075984e-02 7.89187178e-02 3.79822910e-01 1.92359254e-01
      7.11746737e-02 1.83280290e-03 5.12320735e-03 6.64002355e-03
      1.35726064e-01 3.46146703e-01 5.54512925e-02 5.44904880e-02
      6.81647379e-03 3.02787405e-03 2.77961069e-03 2.46590786e-02
      9.03792307e-02 3.79822910e-01 3.79822910e-01 9.30005535e-02
      3.31147343e-01 8.78967866e-02 3.55796143e-02 2.19234219e-03
      7.91243743e-03 3.08066979e-03 3.79822910e-01 2.24449728e-02
      1.29125332e-02 4.04690236e-01 2.47357339e-01 1.61615118e-01
      4.72024158e-02 2.89762132e-02 3.64257325e-03 8.70718807e-02
      4.64015342e-02 1.37985800e-03 4.52394150e-02 1.07803196e-01
      9.12718996e-02 8.96116495e-02 5.18035330e-02 3.87643129e-02
      1.20527677e-01 2.97242850e-01 1.38402646e-02 1.70736894e-01
      7.12293014e-02 5.96097447e-02 1.38536198e-02 4.62943316e-02
      1.08785904e-03 4.23422664e-01 4.23422664e-01 0. 1.46647105e-02
      2.04147883e-02 5.13203703e-02 2.45392080e-02 6.49826229e-02
      8.86048600e-02 4.23422664e-01 4.93628420e-02 2.78438325e-03
      1.20861661e-02 1.71647221e-02 6.81614038e-03 4.79998216e-02
      9.60787088e-02 6.67741448e-02 1.33298755e-01 5.22252060e-02
      1.06841465e-02 1.44647779e-02 3.38015286e-03 1.11031840e-02
      2.87315361e-02 2.04763204e-01 1.73648492e-01 1.32887721e-01
      3.48252654e-01 1.41378178e-03 1.01314196e-02 9.46761016e-03
      8.11902732e-02 1.10860923e-02 8.53474438e-02 3.68374050e-01
      4.01540488e-01 2.18209028e-01 4.18380424e-02 1.05784714e-01
      1.20437220e-02 1.59515053e-01 1.00930883e-02 1.56261846e-01
      4.01540488e-01 4.01540488e-01 8.48400444e-02 7.18897507e-02
      1.06027648e-02 2.00699363e-02 2.09941566e-02 1.88759994e-02
      7.57992044e-02 8.70813727e-02 7.73647502e-02 1.69132888e-01
      1.52887523e-01 3.27714370e-03 4.79199439e-02 4.53646146e-02
      7.13986382e-02 1.76558215e-02 3.05343959e-02 8.85895193e-02
      4.41682577e-01 1.54624417e-01 2.03104153e-01 4.59883250e-02
      1.76215708e-01 4.43351408e-03 5.06808646e-02 1.11294970e-01
      3.48269343e-01 4.41682577e-01 2.02585623e-01 9.73235890e-02
      4.48197462e-02 1.33266270e-01 5.72865736e-03 1.41084762e-02
      4.12704796e-02 4.41682577e-01 1.17624350e-01 6.16753139e-02
      5.56881248e-04 1.18339779e-02 1.91641301e-02 4.74032685e-02
      2.24285889e-02 2.86473185e-02 7.17578903e-02 1.34415582e-01
      6.72506839e-02 8.39691982e-03 1.17067872e-02 9.59026814e-03
      5.08963689e-02 7.34183565e-02 4.19735387e-02 1.43958509e-01
      4.75480050e-01 4.45751771e-02 1.12032822e-05 3.57686821e-03
      1.27745224e-02 5.40472148e-03 2.58090980e-02 3.85700241e-02
      4.75480050e-01 4.75480050e-01 6.39835745e-02 1.17764547e-02
      1.79739634e-03 4.94723348e-03 3.51102813e-03 2.74133068e-02
      3.65050808e-02 4.75480050e-01 5.01007363e-02 3.69686931e-02
      2.12109517e-02 8.60834960e-03 8.98656901e-03 5.47746457e-02
      1.40738755e-01 1.39793977e-01 1.13509119e-01 5.32935597e-02
      1.29725682e-02 2.86974404e-02 2.64609931e-03 2.25488599e-02
      1.53537123e-02 1.20695643e-01 2.23291993e-01 1.01678461e-01
      3.50091994e-01 5.19159995e-02 3.17083523e-02 5.60632255e-03
      2.52186656e-02 2.21095537e-03 6.11645244e-02 1.17980823e-01
      4.39492375e-01 2.64034331e-01 3.08777187e-02 2.78290622e-02
      3.36379348e-03 1.78992763e-01 3.15850775e-04 1.70279279e-01
      4.39492375e-01 4.39492375e-01</_>
    <_>
      2.93188989e-01 1.90937907e-01 2.24575832e-01 1.35492697e-01
      2.03765780e-02 1.02855498e-03 0. 8.70146696e-03 1.83253527e-01
      3.04403931e-01 1.75311819e-01 1.23191409e-01 6.42847568e-02
      8.77524689e-02 5.33428527e-02 8.44151247e-03 1.61028236e-01
      3.04403931e-01 9.16500762e-02 1.49295017e-01 3.04403931e-01
      2.90760875e-01 6.51828349e-02 2.00830474e-02 3.27715911e-02
      5.75251132e-03 3.17863263e-02 1.73876852e-01 2.62450933e-01
      3.04403931e-01 1.30274132e-01 1.41288340e-01 8.16134512e-02
      1.11896202e-01 1.48428246e-01 1.23198099e-01 3.22284341e-01
      2.93545984e-02 1.73683614e-02 4.59884368e-02 1.42043963e-01
      1.01715542e-01 3.10681053e-02 1.49587557e-01 3.22284341e-01
      3.22284341e-01 2.65371557e-02 1.63901206e-02 5.96910790e-02
      7.96566084e-02 5.84491715e-02 4.46077213e-02 3.29248011e-02
      3.22284341e-01 8.87205526e-02 9.00260359e-02 5.84750362e-02
      5.67116179e-02 2.22183853e-01 1.78716391e-01 3.05567831e-01
      2.15721369e-01 8.57033953e-02 6.45978451e-02 3.14762965e-02
      4.67565171e-02 1.27733663e-01 2.11658984e-01 2.59473264e-01
      3.22284341e-01 1.11106478e-01 6.02040812e-02 3.21439236e-01
      3.72088961e-02 9.35445204e-02 6.37424216e-02 3.00766323e-02
      2.69742198e-02 1.40753584e-02 9.50747915e-03 2.60339797e-01
      3.21439236e-01 3.07312369e-01 3.14119548e-01 1.37668222e-01
      5.45021445e-02 1.67222731e-02 3.33512239e-02 3.24914530e-02
      1.62536681e-01 3.36107351e-02 6.64428994e-02 1.58623055e-01
      2.80195385e-01 1.20846905e-01 9.75982770e-02 8.43476132e-02
      3.02521437e-02 3.15795057e-02 5.79610132e-02 3.21439236e-01
      3.21439236e-01 3.21439236e-01 6.03590310e-02 2.68059149e-02
      2.78151855e-02 3.24683487e-02 2.13415883e-02 1.69352964e-01
      2.96961963e-01 2.71895677e-01 8.98067802e-02 1.04098946e-01
      4.98922961e-03 1.11656904e-01 6.21805042e-02 2.38122299e-01
      3.38221967e-01 7.83906579e-02 1.32860407e-01 1.16423652e-01
      1.36272207e-01 3.53094493e-03 7.01775849e-02 6.19195364e-02
      3.46503407e-01 6.45616427e-02 3.46503407e-01 3.46503407e-01
      1.36640504e-01 4.14559208e-02 4.79722582e-03 6.89732283e-02
      1.66916531e-02 2.29986496e-02 7.31552392e-02 2.01280519e-01
      2.72822261e-01 1.08589917e-01 7.24706724e-02 1.37226125e-02
      4.78993542e-02 2.50870027e-02 6.24654591e-02 3.58238131e-01
      2.44784839e-02 8.32010619e-03 4.36828807e-02 3.09705902e-02
      7.03776767e-03 2.12373957e-02 4.35039438e-02 3.63512844e-01
      3.63512844e-01 3.20867561e-02 2.08437279e-01 1.91425353e-01
      6.17306158e-02 1.00749088e-02 2.63194423e-02 4.57158498e-02
      3.63512844e-01 3.68957892e-02 4.26904671e-02 2.26182230e-02
      1.38415083e-01 7.95536861e-02 6.73245639e-02 3.19409706e-02
      4.48466986e-02 5.96423037e-02 1.71891227e-02 1.58146232e-01
      3.63512844e-01 3.63512844e-01 1.80483982e-01 9.86217782e-02
      3.75723131e-02 5.02997041e-02 4.15948145e-02 2.28870720e-01
      1.02660090e-01 2.53730595e-01 1.14407830e-01 3.97099331e-02
      1.16155734e-02 2.05710204e-03 2.03303620e-02 2.19223857e-01
      2.89888501e-01 1.24350704e-01 2.19362915e-01 1.44384757e-01
      7.31913969e-02 7.70293400e-02 7.37681147e-03 3.73902544e-02
      2.72868246e-01 8.23809672e-03 3.12206686e-01 3.12206686e-01
      3.12206686e-01 6.36589751e-02 2.05415934e-02 2.81985872e-03
      1.42179336e-02 3.35740112e-02 2.41289046e-02 3.12206686e-01
      3.12206686e-01 2.08978385e-01 7.44357258e-02 6.40001446e-02
      1.33589273e-02 2.03066561e-02 5.39531969e-02 2.32103348e-01
      2.29510814e-02 7.83467293e-02 9.64137837e-02 8.77183378e-02
      7.22311959e-02 4.37139086e-02 6.94197491e-02 2.42851377e-01
      1.03133217e-01 8.01096845e-04 6.97670178e-03 4.75091822e-02
      3.60618651e-01 3.60618651e-01 1.90877780e-01 1.35342106e-01
      1.62164032e-01 2.44493969e-02 8.20060298e-02 1.43267944e-01
      1.44827351e-01 1.93407565e-01 9.71782431e-02 4.28863391e-02
      1.72986332e-02 3.46026085e-02 2.03678831e-02 1.33516127e-03
      8.59340578e-02 2.43112668e-01 3.60618651e-01 3.14244866e-01
      3.12470973e-01 1.50620658e-02 3.58810015e-02 1.98333621e-01
      1.90616891e-01 2.87170410e-01 1.23931609e-01 1.21492796e-01
      9.07396302e-02 1.21090263e-01 5.01858955e-03 7.44914636e-02
      1.73763767e-01 2.13198110e-01 2.04627782e-01 6.56121075e-02
      1.69823974e-01 7.82685205e-02 1.60607934e-01 9.93608013e-02
      8.73888284e-02 2.52928019e-01 1.37881413e-01 7.72664696e-02
      1.19942883e-02 3.04627955e-01 2.72662729e-01 1.16439693e-01
      8.10662732e-02 1.11738726e-01 1.42670080e-01 1.31645024e-01
      5.02459072e-02 1.35568112e-01 3.04627955e-01 1.76054552e-01
      9.10839438e-02 3.04627955e-01 8.83180276e-02 9.45829153e-02
      1.06304929e-01 6.67704791e-02 7.18048513e-02 1.99683174e-01
      9.32358801e-02 2.44603425e-01 1.72006503e-01 9.24106985e-02
      7.67364427e-02 7.56710991e-02 1.42568916e-01 1.44325450e-01
      2.76364446e-01 2.82491803e-01 3.03423107e-01 1.02646634e-01
      6.88771084e-02 1.01743490e-01 1.28091887e-01 6.59792796e-02
      2.36106992e-01 3.12541932e-01 4.21058275e-02 3.56181376e-02
      2.12582931e-01 1.34610176e-01 2.24626616e-01 1.22501083e-01
      1.71555758e-01 1.97306335e-01 2.14235649e-01 8.40851590e-02
      5.66600189e-02 9.00711194e-02 2.34921306e-01 2.81974785e-02
      1.66505456e-01 1.85268342e-01 2.69939721e-01 2.37846032e-01
      1.10847607e-01 8.51141065e-02 6.54797703e-02 2.66293082e-02
      5.43072708e-02 3.53845328e-01 3.53845328e-01 3.02416772e-01
      1.28304720e-01 6.29547937e-03 1.71024129e-02 6.88519850e-02
      3.45148332e-02 1.78759068e-01 2.30010301e-01 1.22409552e-01
      7.21937940e-02 1.22359797e-01 5.80131151e-02 2.75693182e-02
      1.09721787e-01 1.95082650e-01 1.36291370e-01 3.22615206e-01
      1.84184909e-01 1.53547183e-01 1.06115408e-01 1.88704301e-02
      1.92392711e-02 1.30735338e-01 1.69192329e-01 7.92643353e-02
      4.55474585e-01 4.55474585e-01 1.63824439e-01 6.03732951e-02
      1.22222519e-02 2.81142835e-02 3.28341573e-02 5.08365668e-02
      7.98818246e-02 1.94665462e-01 1.66518539e-01 7.42513165e-02
      5.58004342e-02 3.66796143e-02 2.64684651e-02 2.75910329e-02
      9.70942751e-02 9.31731537e-02 1.13847680e-01 1.16292641e-01
      2.69990951e-01 1.02796197e-01 9.38052218e-03 4.89854515e-02
      1.04422152e-01 1.14506677e-01 4.05799508e-01 8.46692771e-02
      1.34835327e-02 2.08087191e-01 7.58329406e-02 1.43517526e-02
      3.77852321e-02 4.22339179e-02 2.76907593e-01 2.89584305e-02
      3.73960957e-02 1.86989270e-02 1.23919792e-01 1.39615148e-01
      6.66287616e-02 6.69469964e-03 1.45217739e-02 3.67568731e-02
      2.52867118e-02 1.85980424e-01 3.48352939e-01 3.48352939e-01
      2.73026079e-01 1.33266911e-01 5.81900915e-03 5.77562749e-02
      5.32828532e-02 2.39064500e-01 5.02549447e-02 3.29775102e-02
      6.17191568e-02 9.96791720e-02 3.26070003e-02 2.45420821e-03
      2.10582353e-02 2.47907326e-01 3.29408795e-01 1.00982584e-01
      3.48352939e-01 1.51387304e-01 1.80458277e-01 8.00801218e-02
      3.45009565e-02 1.20929889e-01 3.48352939e-01 8.09039827e-03
      3.73771012e-01 3.73771012e-01 2.93396473e-01 7.27271810e-02
      4.86772098e-02 1.81575939e-02 2.83688661e-02 2.15591229e-02
      3.10325027e-02 3.12233657e-01 3.73771012e-01 1.20544218e-01
      5.14815897e-02 4.54748645e-02 3.78717966e-02 5.36219925e-02
      1.57024246e-02 1.76919222e-01 1.30730242e-01 3.73771012e-01
      1.29448190e-01 4.45470288e-02 3.02402861e-02 6.63392618e-02
      8.97442847e-02 1.65117636e-01 1.22193538e-01 1.47017762e-01
      1.56573325e-01 1.41916871e-01 6.16355091e-02 4.02357355e-02
      5.72744235e-02 9.14813653e-02 1.17261134e-01 2.09198222e-02
      3.88867147e-02 3.75788026e-02 6.50027916e-02 1.24786936e-01
      9.14933383e-02 1.26824938e-02 1.86179429e-02 5.68643631e-03
      1.57222282e-02 1.11850295e-02 2.32287183e-01 2.91778564e-01
      4.13636118e-01 2.90004522e-01 1.17623977e-01 1.20372558e-03
      1.21284723e-02 1.00107096e-01 9.89818797e-02 7.60926679e-02
      1.15238979e-01 1.33850753e-01 6.83285296e-02 6.89610047e-03
      2.20714044e-02 4.05843854e-02 8.58031362e-02 9.49372426e-02
      2.93734014e-01 4.13636118e-01 4.13636118e-01 2.15329573e-01
      4.43423138e-04 7.18483992e-04 1.68680530e-02 3.69292237e-02
      1.96716301e-02 1.34471906e-02 2.15885183e-03 1.17496051e-01
      1.25551134e-01 5.27173914e-02 3.32905084e-01 1.36994660e-01
      5.86638004e-02 1.77558422e-01 3.25944312e-02 5.63920029e-02
      1.24263354e-01 4.02796417e-02 1.54571552e-02 3.32905084e-01
      1.16753921e-01 1.09028615e-01 1.72995497e-02 2.30660592e-03
      1.09244918e-03 2.44741365e-02 4.09180261e-02 1.14421152e-01
      3.32905084e-01 2.50305593e-01 3.29157263e-01 3.32905084e-01
      7.55873844e-02 1.10075483e-02 2.40011755e-02 8.59867409e-03
      5.90100437e-02 3.32905084e-01 3.32905084e-01 1.33620366e-01
      2.59912938e-01 4.74259816e-02 7.60125443e-02 7.38922358e-02
      4.03819093e-03 3.37954797e-03 1.07569605e-01 1.23836592e-01
      3.45671326e-01 1.28112599e-01 3.30907293e-02 4.88809124e-02
      2.28802860e-02 6.15292462e-03 1.82180423e-02 4.21309359e-02
      3.45671326e-01 2.83967137e-01 3.45671326e-01 1.54085547e-01
      8.76762159e-03 9.98176448e-03 0. 2.97115650e-03 7.84025714e-02
      2.24841058e-01 3.45671326e-01 2.86780477e-01 8.17141533e-02
      3.16473679e-03 6.81057619e-03 8.78989289e-04 6.57160208e-03
      2.05121320e-02 3.45671326e-01 2.64905483e-01 2.68626381e-02
      4.26910259e-03 6.32091612e-03 1.82243006e-03 1.46078300e-02
      1.99581515e-02 1.27411261e-01 3.40272814e-01 1.26293182e-01
      3.28975059e-02 1.38696947e-03 1.38768302e-02 6.68600202e-03
      1.01916976e-02 8.72249827e-02 3.40272814e-01 2.42711768e-01
      3.40272814e-01 1.02583338e-02 0. 9.40106693e-05 3.11768916e-03
      2.08683312e-03 3.97644341e-02 2.40092158e-01 3.40272814e-01
      1.21031918e-01 6.41615177e-03 0. 2.42138107e-04 4.77391556e-02
      4.51362915e-02 3.03744376e-01 3.40272814e-01 2.74526358e-01
      5.89279123e-02 2.47088838e-02 1.96822695e-02 5.09382598e-02
      6.41478747e-02 1.70585467e-03 5.25515303e-02 1.66039035e-01
      7.50546604e-02 3.36261958e-01 7.51252994e-02 1.42446533e-01
      8.12228099e-02 1.31679133e-01 2.43693547e-04 8.55337456e-03
      2.07239538e-02 1.32205248e-01 5.49259782e-02 3.22620906e-02
      5.02621606e-02 9.00917500e-02 2.64640629e-01 1.62896350e-01
      2.49130994e-01 3.36261958e-01 7.85928220e-02 3.36261958e-01
      1.32622510e-01 3.18295121e-01 2.26815388e-01 3.36261958e-01
      2.38418609e-01 5.46899512e-02 9.97876748e-02 9.84960571e-02
      3.21529835e-01 3.05545758e-02 5.60560077e-02 1.68092065e-02
      2.79889256e-02 1.56112353e-03 1.63814810e-04 4.70704585e-03
      2.85202771e-01 3.21529835e-01 1.20834485e-02 3.47127393e-02
      1.38725815e-02 5.70307346e-03 2.60187290e-03 3.62939052e-02
      1.74619466e-01 3.21529835e-01 3.21529835e-01 5.70985898e-02
      1.37978062e-01 6.98027462e-02 2.05665797e-01 4.91793975e-02 0.
      3.16037983e-03 2.81699210e-01 3.21529835e-01 5.44808339e-03
      1.71981454e-02 1.36959972e-02 1.28401555e-02 0. 3.58959176e-02
      3.21529835e-01 3.21529835e-01 2.07385495e-01 3.40535752e-02
      2.52690352e-02 1.41937034e-02 1.36074668e-03 3.81210470e-04
      6.50203526e-02 2.49599352e-01 2.59468943e-01 2.17310637e-01
      2.24711582e-01 8.92398953e-02 2.88823061e-02 1.17555354e-02
      3.16371396e-03 2.94645205e-02 8.89290944e-02 2.25796252e-01
      2.28308946e-01 2.33970918e-02 5.91527950e-03 5.25179319e-03
      2.43467349e-03 0. 7.84751549e-02 3.25308233e-01 3.25308233e-01
      3.25308233e-01 3.25308233e-01 1.20833777e-01 8.00039060e-03
      1.81046315e-02 0. 3.98593470e-02 2.16457784e-01 3.25308233e-01
      3.02961916e-01 2.58140057e-01 1.34564936e-01 5.41139692e-02
      4.13600951e-02 5.61940065e-03 1.66815415e-03 3.86950863e-03
      1.12509772e-01 3.15629065e-01 1.41471744e-01 2.79175878e-01
      2.32070580e-01 3.15629065e-01 1.47970794e-02 3.78755829e-03
      5.32469992e-03 6.11717291e-02 3.15629065e-01 3.15629065e-01
      1.59344777e-01 8.97372607e-03 2.02342458e-02 0. 8.87190830e-03
      1.78001076e-02 1.51316866e-01 3.15629065e-01 2.01764733e-01
      1.90072268e-01 5.98518662e-02 9.14609730e-02 0. 2.95016356e-02
      5.41827045e-02 8.53473768e-02</_>
    <_>
      3.62704158e-01 3.92189100e-02 0. 0. 9.14566568e-04 3.55422799e-03
      4.81696008e-03 2.61107052e-04 3.62704158e-01 3.62704158e-01
      1.24588059e-02 0. 0. 6.40758662e-04 0. 0. 3.73010043e-05
      3.62704158e-01 3.62704158e-01 6.26873076e-02 0. 1.46042984e-02
      2.92504597e-02 7.35220779e-03 8.84417724e-03 2.70320859e-04
      2.60588586e-01 3.62704158e-01 2.68150829e-02 0. 4.37038485e-04
      7.38422968e-04 6.76141528e-04 2.08122726e-03 1.89224596e-03
      3.62704158e-01 3.53451461e-01 2.66133379e-02 0. 0. 1.31996453e-03
      0. 0. 4.13187779e-03 3.53451461e-01 3.53451461e-01 5.79040274e-02
      0. 0. 2.24551279e-03 0. 9.83283506e-04 3.14450637e-02
      3.53451461e-01 3.48909736e-01 2.90406104e-02 0. 1.34522619e-03
      2.13625986e-04 5.56517858e-04 1.19225285e-03 2.38251733e-03
      3.53451461e-01 3.53451461e-01 4.23143916e-02 9.41837090e-04
      8.07135715e-04 7.24565354e-04 7.95653672e-04 4.39738901e-03
      1.07065141e-02 3.42502981e-01 3.59432369e-01 4.95025963e-02
      2.65741441e-03 4.78907241e-05 1.39207556e-03 0. 3.01574939e-03
      4.98661883e-02 3.59432369e-01 3.59432369e-01 1.23690918e-01
      1.96152225e-01 7.98178735e-05 1.39553204e-01 8.57641473e-02
      1.80944963e-03 7.82144219e-02 3.59432369e-01 3.59432369e-01
      4.04093564e-02 3.27047193e-03 0. 2.70754506e-04 1.21494631e-04
      3.52907949e-03 1.03927953e-02 2.11616546e-01 3.59432369e-01
      9.62791294e-02 2.94193830e-02 0. 4.18010820e-03 8.17613769e-03
      6.67846343e-03 1.88815240e-02 2.69093037e-01 2.90559500e-01
      1.71958104e-01 2.43737936e-01 1.88928321e-02 2.81325817e-01
      2.17665657e-01 3.96668129e-02 2.45888438e-02 2.74346203e-01
      1.72675267e-01 6.24991544e-02 5.31789996e-02 1.28738016e-01
      2.90559500e-01 2.53462851e-01 6.61113486e-02 2.48797789e-01
      2.90559500e-01 2.90559500e-01 1.19868942e-01 3.98630425e-02 0.
      1.94572303e-02 2.99221445e-02 8.56639352e-03 1.88488476e-02
      1.75770178e-01 1.85222819e-01 5.71894087e-02 1.61287561e-02 0.
      5.76139502e-02 2.98952982e-02 1.00188712e-02 8.55883881e-02
      2.90559500e-01 3.51017326e-01 2.79637557e-02 5.48131531e-03
      5.52852564e-02 9.51207802e-02 1.15763016e-01 8.61966051e-03
      2.17118993e-01 3.51017326e-01 3.51017326e-01 1.88936636e-01
      1.85716653e-03 1.16985720e-02 1.41631346e-02 2.35425532e-02
      3.06679332e-03 9.35761482e-02 3.51017326e-01 1.91970497e-01
      7.91406166e-03 3.94083885e-03 1.11779384e-02 2.48364583e-02
      6.42181095e-03 8.56562331e-03 6.40399903e-02 3.51017326e-01
      2.34238699e-01 9.40958783e-02 1.23953596e-01 8.53558555e-02
      5.91857210e-02 1.50382398e-02 2.45521739e-02 7.57060423e-02
      3.51017326e-01 3.25876743e-01 9.41644236e-02 1.80079248e-02
      2.67710583e-03 5.62474784e-03 1.52037703e-02 1.85924734e-03
      9.34769064e-02 3.25876743e-01 3.25876743e-01 2.75576621e-01
      4.78391796e-02 9.62342019e-04 5.93900261e-03 1.92877632e-02
      1.15961861e-02 9.73926783e-02 3.25876743e-01 1.15750037e-01
      1.95870966e-01 3.25876743e-01 4.59294319e-02 4.08027694e-02
      2.53629573e-02 6.75150100e-03 3.17487866e-02 1.19966224e-01
      1.81881502e-01 3.25876743e-01 3.25876743e-01 9.55691561e-02
      4.63856645e-02 3.84790972e-02 7.77408667e-03 4.28849421e-02
      1.65951669e-01 2.78841138e-01 2.73223311e-01 2.95983329e-02
      1.29019411e-03 1.39986398e-02 3.81021835e-02 1.69207584e-02
      1.04607873e-01 2.72845417e-01 2.78841138e-01 1.77426830e-01
      5.38226627e-02 3.72887999e-02 8.18090960e-02 1.41358241e-01
      8.96849334e-02 2.41029337e-01 2.78841138e-01 1.49093240e-01
      2.78841138e-01 2.78841138e-01 5.16184829e-02 9.46640670e-02
      9.18213502e-02 1.01524554e-02 7.89418370e-02 2.15958074e-01
      1.45411417e-01 4.23267186e-02 6.94149211e-02 1.60541907e-01
      2.59619683e-01 2.14369476e-01 4.43583019e-02 7.95350522e-02
      2.15832382e-01 4.53117132e-01 1.67868525e-01 2.56533764e-04
      2.17240766e-01 2.96651483e-01 6.69496581e-02 2.25041248e-02
      4.05098451e-03 2.17526585e-01 5.10200441e-01 6.86344355e-02
      3.74755426e-03 9.29561909e-03 1.46743786e-02 3.89236808e-02
      3.73374335e-02 2.83568949e-02 2.82562762e-01 5.59957847e-02
      2.76389979e-02 3.12882103e-03 3.10920298e-01 2.77332217e-01
      1.66285858e-01 4.42626104e-02 3.41581032e-02 5.39792143e-02
      3.51727940e-02 1.66818798e-02 2.69694105e-02 3.62751186e-02
      5.19215502e-02 6.93095401e-02 2.95867044e-02 3.14014442e-02
      3.00064012e-02 6.00691915e-01 6.67680055e-02 9.66341794e-03
      3.28645594e-02 7.72810541e-03 4.24914509e-02 2.33351085e-02
      2.76426114e-02 2.88934797e-01 5.53190231e-01 5.61108589e-02
      1.30621567e-02 4.60900739e-02 3.50005217e-02 6.61960468e-02
      4.42310199e-02 6.26321882e-02 3.13959032e-01 4.66988198e-02
      9.65883490e-03 6.37622476e-02 6.22705482e-02 4.46096770e-02
      9.10240784e-02 1.87167302e-02 2.87458282e-02 4.20564190e-02
      4.65360545e-02 2.08259225e-02 1.47124514e-01 1.79256231e-01
      1.41113102e-01 1.13949239e-01 2.90581156e-02 4.39385176e-02
      5.55190444e-02 4.74591881e-01 9.74616185e-02 4.04673070e-02
      2.86799129e-02 7.68874958e-02 2.52953451e-02 3.80117446e-02
      6.20886050e-02 1.93365455e-01 5.72765827e-01 2.58544236e-01
      5.60829677e-02 3.54826008e-03 1.38581812e-01 3.53806391e-02
      8.39254111e-02 1.25761464e-01 2.23032624e-01 1.87638737e-02
      7.59232491e-02 1.04386255e-01 1.09081052e-01 2.19102010e-01
      5.36785573e-02 4.10149731e-02 3.64628509e-02 2.02208925e-02
      1.76408030e-02 1.16495021e-01 8.81316513e-02 2.10070871e-02
      2.59493649e-01 7.76765123e-02 1.44230068e-01 8.51261690e-02
      8.63897055e-02 3.86735231e-01 1.59467742e-01 1.35471309e-02 0.
      1.32253006e-01 5.28334789e-02 4.16767821e-02 1.11401103e-01
      2.87447840e-01 3.10662627e-01 8.86236876e-02 1.81055758e-02 0.
      2.21301585e-01 1.24231786e-01 4.74927388e-02 1.26916349e-01
      5.66157579e-01 8.74277279e-02 7.96776712e-02 3.52514647e-02
      3.90681885e-02 1.02088496e-01 4.40220423e-02 8.68857354e-02
      6.31764829e-02 1.41569614e-01 2.03261688e-01 1.27851799e-01
      4.24623676e-02 8.94547030e-02 1.24105617e-01 7.12419972e-02
      1.06012411e-01 5.38800284e-02 1.67841956e-01 3.95299308e-02
      8.98053311e-03 2.42518820e-02 3.33271250e-02 3.80195715e-02
      7.26081133e-02 4.31393012e-02 2.18092054e-02 1.04251236e-01
      1.31828003e-02 1.80552140e-01 3.74962747e-01 3.74962747e-01
      1.23832941e-01 1.26896650e-01 1.05784886e-01 6.23080805e-02
      9.81367901e-02 1.22737773e-02 4.05836552e-02 3.53335142e-02
      4.23704460e-02 6.38413653e-02 1.20024078e-01 7.73823336e-02
      1.46148009e-02 1.08350208e-02 5.73687372e-04 1.00108527e-01
      2.64170527e-01 3.74962747e-01 1.56328484e-01 3.65204901e-01
      3.74962747e-01 2.25059330e-01 6.14201836e-02 6.60458638e-04
      1.72636777e-01 3.25914651e-01 1.29873767e-01 6.43288866e-02
      1.43806143e-02 1.79569460e-02 1.92989707e-02 2.52106488e-02
      1.53215647e-01 2.78677464e-01 3.25914651e-01 2.06516176e-01
      7.69249946e-02 1.20518412e-02 1.80671073e-03 9.84215830e-03
      1.19467646e-01 0. 6.65354580e-02 2.30371475e-01 1.49936169e-01
      7.80718401e-02 8.62957835e-02 2.19150886e-01 1.47277772e-01
      1.22155540e-01 2.09262550e-01 1.08457543e-01 3.25914651e-01
      1.56319097e-01 1.48899302e-01 2.04605043e-01 1.36039257e-01
      1.20846629e-01 3.25914651e-01 2.89973944e-01 1.09748065e-01
      2.89973944e-01 8.16780403e-02 6.87870681e-02 4.88676913e-02
      1.07569492e-03 1.85865499e-02 2.06228852e-01 2.40603015e-01
      9.80311725e-03 4.86708023e-02 1.22574873e-01 1.44562081e-01
      1.76086158e-01 7.52986455e-03 3.29077244e-02 2.66087413e-01
      2.89973944e-01 5.57973906e-02 1.36547238e-01 5.99643812e-02
      8.85685459e-02 1.13438338e-01 5.92733100e-02 8.83704647e-02
      2.89973944e-01 2.89973944e-01 1.27814161e-02 2.15830058e-01
      1.37951970e-01 1.00220166e-01 2.84531683e-01 5.39672375e-02
      8.70255381e-02 2.89973944e-01 6.16306737e-02 1.63893364e-02
      2.40922160e-02 5.00883013e-02 6.76045567e-02 2.13837668e-01
      9.30162817e-02 4.70679402e-02 8.51340368e-02 4.88410555e-02
      1.71636008e-02 1.41328862e-02 1.31260930e-02 2.61422452e-02
      3.07916701e-02 4.91323275e-03 2.13425290e-02 8.16000327e-02
      2.08730012e-01 1.67990521e-01 1.99373469e-01 1.12629324e-01
      2.88835883e-01 3.07278365e-01 1.78901643e-01 2.14479178e-01
      4.12158012e-01 2.61226565e-01 1.31843522e-01 1.51028493e-02
      1.71232894e-02 2.56882310e-01 2.32981090e-02 3.19121294e-02
      1.87012434e-01 4.12158012e-01 5.85030839e-02 1.76200792e-02
      5.39484397e-02 2.19332371e-02 2.18279567e-02 2.86349077e-02
      9.00646299e-03 1.55388396e-02 5.17570414e-02 7.47398436e-02
      1.83426570e-02 1.29030257e-01 1.02493465e-01 6.91143200e-02
      2.45176964e-02 1.29134767e-02 1.17314998e-02 2.93719545e-02
      4.70019013e-01 9.41569954e-02 4.24107388e-02 6.64360076e-03
      2.39438713e-01 7.37253949e-03 3.35086957e-02 1.16581567e-01
      4.81300086e-01 4.95036572e-01 3.19653124e-01 1.03919812e-01
      4.47039828e-02 1.05961762e-01 6.38644164e-03 3.12445294e-02
      3.59335206e-02 1.87252924e-01 3.34441029e-02 1.89476348e-02
      5.76461293e-02 6.01507612e-02 7.97370747e-02 1.97365358e-02
      1.78100597e-02 8.59543402e-03 6.81866556e-02 4.73920256e-02
      1.93613339e-02 1.71039980e-02 1.08376266e-02 8.91803727e-02
      4.65675071e-02 6.25582784e-02 4.27693687e-02 1.34446099e-01
      2.33854264e-01 2.13840351e-01 3.37126516e-02 2.78324876e-02
      7.01202080e-02 9.80111305e-03 8.74732062e-02 1.83469698e-01
      3.94227326e-01 4.13233846e-01 2.50196476e-02 1.30888040e-03
      2.82403873e-03 7.12176934e-02 2.55888347e-02 8.90444070e-02
      2.62935489e-01 6.15161777e-01 4.26540077e-02 1.70525573e-02
      3.51067004e-03 1.48968203e-02 2.16162913e-02 1.07784122e-02
      3.90117243e-02 3.80640924e-02 8.40941817e-02 1.18972160e-01
      3.06477975e-02 1.20697618e-02 4.41810675e-02 3.58127989e-02
      8.84487585e-04 2.55919602e-02 2.27731448e-02 7.53647685e-02
      3.56388688e-01 1.21767335e-02 0. 2.12811702e-03 3.39927152e-02
      5.83091378e-03 2.83913687e-02 6.58173040e-02 5.21515310e-01
      5.21515310e-01 3.65873314e-02 8.29755701e-03 2.16589551e-02
      6.63034171e-02 0. 1.97008252e-02 2.01143287e-02 5.21515310e-01
      6.01808168e-02 5.63454255e-02 2.58673411e-02 3.43688913e-02
      5.25245592e-02 5.03961593e-02 4.16463688e-02 1.57106891e-02
      1.96885578e-02 5.11498004e-02 7.04027489e-02 3.19237597e-02
      8.28395933e-02 5.63588962e-02 2.91776836e-01 4.09285605e-01
      2.28817284e-01 3.89557928e-02 4.09285605e-01 1.56107143e-01
      2.67153922e-02 1.53118921e-02 3.68674807e-02 1.59403756e-02
      2.29516868e-02 1.39779281e-02 2.35758543e-01 4.09285605e-01
      2.02937484e-01 3.09163406e-02 3.67196053e-02 2.52136905e-02
      1.21248364e-01 2.20662653e-01 1.67531669e-01 3.17166805e-01
      8.86705145e-03 7.37835933e-03 1.39056500e-02 3.20544727e-02
      2.00706720e-02 1.41414583e-01 3.05252194e-01 1.38012320e-01
      5.70452251e-02 1.23305082e-01 4.44953591e-02 4.81225215e-02
      2.66882256e-02 1.49176553e-01 3.05252194e-01 3.05252194e-01
      2.46606916e-01 1.76531553e-01 9.71892625e-02 2.05774624e-02
      1.46783544e-02 3.38582695e-02 3.67892087e-02 1.41018793e-01
      2.11139679e-01 7.28773251e-02 9.97746512e-02 2.05664590e-01
      1.13697745e-01 9.22141522e-02 2.00319048e-02 1.97165072e-01
      2.53091544e-01 3.05252194e-01 3.05252194e-01 3.05252194e-01
      1.92835942e-01 4.35142629e-02 6.12181313e-02 1.00217015e-02
      1.34750977e-01 1.20078497e-01 1.93562955e-01 1.96963146e-01
      2.14248806e-01 1.83009848e-01 2.82258913e-02 1.90982684e-01
      5.09360805e-02 5.39528541e-02 1.02386780e-01 9.67642292e-02
      1.05331153e-01 1.64024517e-01 2.79346317e-01 6.92351460e-02
      6.01496585e-02 4.63852979e-04 1.85880914e-01 6.58824965e-02
      1.63279653e-01 3.14865261e-01 3.14865261e-01 3.14865261e-01
      9.38842818e-02 2.60857701e-01 5.86741883e-03 7.51447901e-02
      2.89653633e-02 1.13528907e-01 1.42278314e-01 3.14865261e-01</_>
    <_>
      4.53224629e-01 0. 3.75102423e-02 9.94176865e-02 3.09327133e-02
      1.90174009e-03 2.71929298e-02 8.11225697e-02 4.53224629e-01
      4.53224629e-01 6.62956946e-03 1.88837107e-03 1.19999116e-02
      1.29031595e-02 0. 0. 6.68211952e-02 4.53224629e-01 1.02969021e-01
      5.21127833e-04 1.62217431e-02 8.06612670e-02 1.28491163e-01
      2.03330964e-02 1.63157601e-02 6.69744983e-02 2.13161498e-01
      1.49667144e-01 3.97774251e-03 1.61318686e-02 4.12193015e-02
      6.21680431e-02 4.21254942e-03 0. 6.30707294e-02 1.80849805e-01
      4.73853976e-01 8.64985865e-03 2.77243234e-04 1.20164978e-03
      3.37086618e-02 8.36494146e-05 3.71297542e-03 2.56003309e-02
      4.73853976e-01 4.73853976e-01 1.12326415e-02 0. 0. 7.02979788e-02
      7.55335484e-03 1.25076585e-02 1.94768198e-02 4.73853976e-01
